tree
version=v4
num_class=1
num_tree_per_iteration=1
label_index=0
max_feature_idx=22
objective=quantile
feature_names=aqi_lag_1h aqi_lag_3h aqi_lag_24h aqi_rolling_mean_6h aqi_rolling_mean_24h aqi_rolling_std_24h wind_speed wind_direction_sin wind_direction_cos temperature humidity precipitation boundary_layer_height hour_of_day_sin hour_of_day_cos day_of_week month_of_year fire_count_50km fire_count_100km fire_upwind_flag road_density_500m land_use_category_code horizon_hours
feature_infos=[150:360] [150:360] [150:345] [152.5:336.66666666666669] [156.45833333333334:324.58333333333331] [13.324272283470439:17.046398744160854] [0.90000000000000002:2] [-0.76266832969568832:0.99619469809174555] [-0.99888987496197001:-0.087155742747658235] [15:25] [40.200000000000003:79.799999999999997] none none [-1:1] [-1:1] [3:5] none none none none [0.2857142857142857:1] [0:3] [24:72]
tree_sizes=920 1037 938 968 1214 1538 1057 1964 1728 1145 1935 1677 1304 1534 1552 1393 1977 1804 2152 1224 1552 1549 1537 1548 1635 1631 1479 2230 1392 1473 1480 1961 1477 1549 1708 2488 2128 1389 1540 2324 2001 1478 1728 2366 1477 1878 1806 1727 1636 1877 2380 1884 1865 1883 1968 1973 2170 1900 2417 1971 2348 1889 1906 2254 2207 2145 2355 2215 2310 2401 2131 2315 2393 2326 2300 2344 2327 2234 2258 2339 2474 2548 2304 2504 2232 2316 2248 2101 2230 2469 2237 2235 2488 2553 2405 2392 2519 2324 2403 2316 2396 2325 2432 2432 2414 2320 2259 2331 2308 2431 2245 2500 2485 2427 2409 2340 2476 2425 2429 2511 2425 2338 2398 2423 2412 2362 2438 2590 2419 2269 2585 2518 2505 2420 2337 2445 2515 2195 2184 2198 2378 2325 2352 2360 2280 2187 2507 2502 2448 2211 2454 2383 2464 2356 2296 2341 2276 2299 2353 2288 2425 2517 2256 2393 2437 2288 2467 2276 2394 2091 2181 2334 2465 2368 2448 2405 2439 2462 2372 2365 2451 2340 2537 2346 2525 2447 2343 2368 2439 2503 2438 2226 2458 2197 2307 2457 2371 2524 2407 2439 2367 2369 2368 2374 2374 2353 2451 2444 2266 2470 2301 2541 2288 2544 2512 2271 2532 2547 2444 2371 2272 2365 2348 2317 2357 2374 2269 2342 2284 2222 2350 2371 2286 2360 2443 2446 2451 2302 2467 2223 2398 2635 2300 2370 2535 2200 2283 2440 2481 2464 2383 2277 2196 2474 2210 2348 2358 2512 2389 2288 2385 2401 2569 2452 2539 2438 2190 2471 2469 2374 2303 2378 2231 2405 2383 2387 2432 2457 2383 2536 2279 2463 2104 2465 2392 2374 2292 2377 2369 2374 2362 2464 2302 2454 2386 2365 2469 2456 2303 2455

Tree=0
num_leaves=12
num_cat=0
split_feature=3 22 15 4 22 7 3 22 15 4 3
split_gain=29.4768 33.263 16.2576 13.3053 12.6731 13.6232 10.3489 5.1087 8.18182 3.48485 0.488095
threshold=270.41666666666669 60.000000000000007 3.5000000000000004 171.14583333333337 36.000000000000007 0.49690002677035122 196.66666666666671 36.000000000000007 3.5000000000000004 279.89583333333337 255.41666666666671
decision_type=2 2 2 2 2 2 2 2 2 2 2
left_child=1 2 10 -3 5 -4 -6 8 -2 -10 -1
right_child=7 3 4 -5 6 -7 -8 -9 9 -11 -12
leaf_value=305.75 310 309 311.25 315 309 306 315 317.5 309.625 312.5 308.75
leaf_weight=164 24 24 39 95 22 82 52 94 20 46 28
leaf_count=164 24 24 39 95 22 82 52 94 20 46 28
internal_value=310 309.993 309.986 310.017 309.997 309.987 310.013 310.017 310.008 310.017 309.976
internal_weight=690 506 387 119 195 121 74 184 90 66 192
internal_count=690 506 387 119 195 121 74 184 90 66 192
is_linear=0
shrinkage=1


Tree=1
num_leaves=12
num_cat=0
split_feature=3 22 15 4 22 7 3 22 15 4 3
split_gain=29.4768 33.263 16.2576 13.3053 12.6731 13.6232 10.3489 5.1087 8.18182 3.48485 0.488095
threshold=270.41666666666669 60.000000000000007 3.5000000000000004 171.14583333333337 36.000000000000007 0.49690002677035122 196.66666666666671 36.000000000000007 3.5000000000000004 279.89583333333337 255.41666666666671
decision_type=2 2 2 2 2 2 2 2 2 2 2
left_child=1 2 10 -3 5 -4 -6 8 -2 -10 -1
right_child=7 3 4 -5 6 -7 -8 -9 9 -11 -12
leaf_value=-4.0375000000000005 0 -0.95000000000000007 1.1875 4.75 -0.95000000000000007 -3.8000000000000003 4.75 7.125 -0.35625000000000001 2.375 -1.1875
leaf_weight=164 24 24 39 95 22 82 52 94 20 46 28
leaf_count=164 24 24 39 95 22 82 52 94 20 46 28
internal_value=-0.000289855 -0.00652174 -0.0136305 0.0165966 -0.00346154 -0.0134298 0.0128378 0.0168478 0.00833333 0.0174242 -0.0239583
internal_weight=690 506 387 119 195 121 74 184 90 66 192
internal_count=690 506 387 119 195 121 74 184 90 66 192
is_linear=0
shrinkage=0.05


Tree=2
num_leaves=10
num_cat=0
split_feature=2 22 15 22 2 7 3 15 22
split_gain=32.2456 32.2426 18.4172 17.3604 16.5812 13.03 10.8701 3.58442 13.7143
threshold=260.00000000000006 60.000000000000007 3.5000000000000004 36.000000000000007 157.50000000000003 0.49690002677035122 196.66666666666671 3.5000000000000004 36.000000000000007
decision_type=2 2 2 2 2 2 2 2 2
left_child=1 2 -1 5 -3 -4 -5 8 -2
right_child=7 4 3 6 -6 -7 -8 -9 -10
leaf_value=-3.585624999999999 0 -0.90250000000000064 1.128125 -0.90250000000000064 4.5125000000000002 -2.8599999999999994 4.5125000000000002 6.7687500000000007 4.2687499999999998
leaf_weight=184 28 20 37 22 97 92 62 92 56
leaf_count=184 28 20 37 22 97 92 62 92 56
internal_value=-0.000289855 -0.00661479 -0.0134131 -0.00340376 0.016453 -0.0149225 0.0142857 0.0181818 0.0107143
internal_weight=690 514 397 213 117 129 84 176 84
internal_count=690 514 397 213 117 129 84 176 84
is_linear=0
shrinkage=0.05


Tree=3
num_leaves=10
num_cat=0
split_feature=22 15 2 2 22 2 7 2 6
split_gain=32.0971 39.0788 20.6069 17.3856 12.3275 19.6672 19.102 1.97143 3.42857
threshold=60.000000000000007 3.5000000000000004 190.00000000000003 157.50000000000003 36.000000000000007 260.00000000000006 0.49690002677035122 272.50000000000006 1.7500000000000002
decision_type=2 2 2 2 2 2 2 2 2
left_child=1 7 -3 -2 5 6 -4 -1 -9
right_child=3 2 4 -5 -6 -7 -8 8 -10
leaf_value=-3.4063437499999996 -0.85737500000000189 -1.1782812500000006 1.9467187499999996 5.5368750000000011 5.2931250000000007 5.6678125000000001 -2.7169999999999987 -0.097343750000000284 0.20421874999999973
leaf_weight=184 20 49 26 133 92 58 72 32 24
leaf_count=184 20 49 26 133 92 58 72 32 24
internal_value=-0.00173913 -0.00749534 0.00462963 0.0184641 0.0104839 0.00192308 -0.0117347 -0.0225 -0.0142857
internal_weight=690 537 297 153 248 156 98 240 56
internal_count=690 537 297 153 248 156 98 240 56
is_linear=0
shrinkage=0.05


Tree=4
num_leaves=13
num_cat=0
split_feature=22 2 2 7 22 15 3 4 2 22 15 6
split_gain=33.9655 21.3384 17.3856 16.8224 12.3238 22.8571 7.63636 5.33333 3.4575 5.8959 10.4762 1.52381
threshold=60.000000000000007 205.00000000000003 157.50000000000003 0.49690002677035122 36.000000000000007 3.5000000000000004 282.08333333333343 301.14583333333337 190.00000000000003 36.000000000000007 3.5000000000000004 1.7500000000000002
decision_type=2 2 2 2 2 2 2 2 2 2 2 2
left_child=1 8 -2 -3 6 11 -5 -8 -1 -10 -11 -6
right_child=2 3 -4 4 5 -7 7 -9 9 10 -12 -13
leaf_value=-4.2360265624999984 -0.81450625000000232 5.3844218749999984 5.2600312500000008 -1.3610265624999984 -0.33792343749999959 5.2722187500000022 0.0048671874999996591 -0.11557812500000182 -3.3311499999999996 -2.4860265624999984 0.27221875000000184 -0.34546249999999934
leaf_weight=137 20 56 133 84 32 70 24 24 44 20 22 24
leaf_count=137 20 56 133 84 32 70 24 24 44 20 22 24
internal_value=-0.00231884 -0.00824022 0.0184641 0.000159236 -0.00523256 0.00595238 -0.0159091 0 -0.0200673 -0.0122093 0.00119048 -0.0178571
internal_weight=690 537 153 314 258 126 132 48 223 86 42 56
internal_count=690 537 153 314 258 126 132 48 223 86 42 56
is_linear=0
shrinkage=0.05


Tree=5
num_leaves=17
num_cat=0
split_feature=4 22 7 22 3 4 4 3 4 3 4 21 22 6 9 9
split_gain=31.8145 23.1232 18.6459 17.1261 8.57143 5.33333 4.08116 3.96796 4.06102 4.09378 4.05115 11.4783 2.22317 3.36623 0.370667 0.135171
threshold=201.14583333333337 60.000000000000007 0.49690002677035122 36.000000000000007 282.08333333333343 301.14583333333337 301.14583333333337 282.08333333333343 261.14583333333337 242.08333333333334 221.14583333333337 1.5000000000000002 60.000000000000007 1.7500000000000002 15.700000000000001 24.300000000000004
decision_type=2 2 2 2 2 2 2 2 2 2 2 2 2 2 2 2
left_child=12 2 -2 4 -4 -6 7 8 9 10 11 -5 14 -14 -1 -16
right_child=1 -3 3 6 5 -7 -8 -9 -10 -11 -12 -13 13 -15 15 -17
leaf_value=-3.0944088671874996 5.1152007812499996 5.4970296875000004 -2.1380986718749995 0.25860781250000286 0.0046238281249998186 -0.10979921875000116 5.9020453125000021 -0.17292414062499972 5.0086078125000029 -0.46913039062499706 3.7586078125000029 -2.3617252343749984 -0.0029703124999997501 0.082029687499999684 -4.024225234374998 -3.2194088671874996
leaf_weight=28 54 98 120 22 24 24 22 24 22 24 22 24 35 20 103 24
leaf_count=28 54 98 120 22 24 24 22 24 22 24 22 24 35 20 103 24
internal_value=-0.00376812 0.00333333 -0.00222513 -0.00670732 -0.0178571 0 0.005 0.00181159 0.00570175 0.00108696 0.00735294 -0.00108696 -0.02 -0.0113636 -0.0230645 -0.0242126
internal_weight=690 480 382 328 168 48 160 138 114 92 68 46 210 55 155 127
internal_count=690 480 382 328 168 48 160 138 114 92 68 46 210 55 155 127
is_linear=0
shrinkage=0.05


Tree=6
num_leaves=11
num_cat=0
split_feature=2 22 7 22 15 2 4 2 22 9
split_gain=38.6363 24.829 18.8725 14.3284 34.6605 12.5968 6.88095 1.48571 0.411877 0.634921
threshold=182.50000000000003 60.000000000000007 0.49690002677035122 36.000000000000007 3.5000000000000004 272.50000000000006 301.14583333333337 272.50000000000006 60.000000000000007 18.700000000000006
decision_type=2 2 2 2 2 2 2 2 2 2
left_child=8 2 -2 5 7 -4 -7 -5 -1 -10
right_child=1 -3 3 4 -6 6 -8 -9 9 -11
leaf_value=-3.8230139726562471 4.8594407421874992 4.7221782031249999 -2.4061937382812491 -1.5609079941406236 4.5144274218750011 0.0043926367187509642 -0.10430925781249983 -0.16427793359374904 -0.0028217968749999047 -0.39035210937500014
leaf_weight=129 56 108 124 52 92 32 24 28 21 24
leaf_count=129 56 108 124 52 92 32 24 28 21 24
internal_value=-0.00318841 0.00368217 -0.00196078 -0.00625 0.00406977 -0.0161111 0.00357143 -0.02 -0.0235632 -0.0194444
internal_weight=690 516 408 352 172 180 56 80 174 45
internal_count=690 516 408 352 172 180 56 80 174 45
is_linear=0
shrinkage=0.05


Tree=7
num_leaves=22
num_cat=0
split_feature=2 7 2 1 2 4 9 5 0 2 2 3 20 9 2 4 4 13 3 4 3
split_gain=32.3501 11.1468 6.3958 2.35263 3.36749 1.68992 1.02984 0.655761 0.512006 0.321474 0.339003 0.257611 0.412698 0.236811 0.318627 0.2 0.457875 0.143254 0.108272 0.0409357 0.0261905
threshold=190.00000000000003 0.49690002677035122 272.50000000000006 275.00000000000006 312.50000000000006 191.14583333333337 16.500000000000004 14.515109568897591 307.50000000000006 242.50000000000003 232.50000000000003 228.33333333333334 0.47619047619047622 17.550000000000004 172.50000000000003 206.14583333333337 221.77083333333337 0.12940952255126045 200.41666666666671 297.39583333333337 215.41666666666671
decision_type=2 2 2 2 2 2 2 2 2 2 2 2 2 2 2 2 2 2 2 2 2
left_child=5 -2 6 -4 8 13 15 -8 19 10 11 12 -9 14 -1 -3 -17 -10 -7 -5 -14
right_child=1 2 3 4 -6 18 7 9 17 -11 -12 -13 20 -15 -16 16 -18 -19 -20 -21 -22
leaf_value=-4.3818632740234333 4.6164687050781259 0.01995605078125209 0.44717010371093413 0.0041730048828128473 1.7390948798828134 -2.8818632740234338 -0.94076061386718379 -2.1655935729492173 -0.099093794921876116 4.2887060507812524 -0.65975151826172018 3.3449560507812524 -1.4797375944335927 -4.3818632740234333 -2.7914593913085923 -1.1907606138671838 3.3449560507812524 5.3812216757812541 -2.8818632740234338 0.0041730048828128473 -0.75796400029296651
leaf_weight=34 56 30 22 36 22 24 24 39 21 33 45 29 20 79 26 21 39 24 23 21 22
leaf_count=34 56 30 22 36 22 24 24 39 21 33 45 29 20 79 26 21 39 24 23 21 22
internal_value=-0.0026087 0.00396825 0.00133929 0.00993151 0.00725806 -0.0204301 -0.00281457 -0.00471698 0.00343137 -0.0037234 -0.00467742 -0.00318182 -0.00462963 -0.0232014 -0.0208333 0.00166667 0 -0.000555556 -0.012234 0.00657895 -0.00119048
internal_weight=690 504 448 146 124 186 302 212 102 188 155 110 81 139 60 90 60 45 47 57 42
internal_count=690 504 448 146 124 186 302 212 102 188 155 110 81 139 60 90 60 45 47 57 42
is_linear=0
shrinkage=0.05


Tree=8
num_leaves=19
num_cat=0
split_feature=2 4 8 6 15 2 8 13 2 4 4 6 4 13 14 0 3 9
split_gain=20.313 8.43413 4.01076 3.08161 1.94722 2.64816 5.26033 0.892128 0.673401 0.357849 0.400906 0.301395 0.286416 0.279837 0.134921 0.100513 0.0300752 0.0272727
threshold=242.50000000000003 171.14583333333337 -0.57142972056497388 1.9500000000000002 3.5000000000000004 222.50000000000003 -0.60946782647798781 -1.0000000180025095e-35 285.00000000000006 304.89583333333337 289.89583333333337 1.4500000000000002 267.39583333333337 -0.78656609248549303 -0.60355339059327384 212.50000000000003 305.41666666666674 21.300000000000001
decision_type=2 2 2 2 2 2 2 2 2 2 2 2 2 2 2 2 2 2
left_child=1 14 17 9 -3 6 -6 13 -5 10 12 -9 -4 -8 -1 -13 -12 -2
right_child=2 4 3 8 5 -7 7 11 -10 -11 16 15 -14 -15 -16 -17 -18 -19
leaf_value=-3.2738519404003883 5.321582769824218 -1.1196154997900365 4.0742707482421912 0.42481159852538614 -0.11391331025390627 3.7256062073242191 -1.2342885787939453 -1.214168169614257 5.3861763655273478 -0.09413910517578189 0.0039643546386713526 0.01895824824218835 -0.083693228759766217 -2.4531318539062483 -4.1627701103222625 1.3589919735498057 0.0039643546386713526 4.3856452698242183
leaf_weight=21 24 204 21 22 24 21 30 36 27 28 36 26 32 22 51 24 21 20
leaf_count=21 24 204 21 22 24 21 30 36 27 28 36 26 32 22 51 24 21 20
internal_value=-0.00181159 -0.0078976 0.0102814 0.00708556 -0.00497416 -0.00122951 -0.00339506 0.000362319 0.0178571 0.00326087 0.00454545 0.00348837 0.00141509 -0.00480769 -0.0236111 0.006 0.00745614 0.0238636
internal_weight=690 459 231 187 387 183 162 138 49 138 110 86 53 52 72 50 57 44
internal_count=690 459 231 187 387 183 162 138 49 138 110 86 53 52 72 50 57 44
is_linear=0
shrinkage=0.05


Tree=9
num_leaves=12
num_cat=0
split_feature=22 15 22 7 4 4 0 22 3 4 3
split_gain=33.7291 21.0774 35.1401 15.9175 14.0523 13.5568 8.8265 3.5 0.628571 0.425974 0.178261
threshold=60.000000000000007 3.5000000000000004 36.000000000000007 0.49690002677035122 171.14583333333337 236.14583333333337 275.00000000000006 36.000000000000007 308.33333333333343 204.89583333333337 255.41666666666671
decision_type=2 2 2 2 2 2 2 2 2 2 2
left_child=1 6 3 5 -2 -3 10 -8 -5 -4 -1
right_child=4 2 9 8 -6 -7 7 -9 -10 -11 -12
leaf_value=-2.6817893353327609 -0.34625966281396647 -0.063457885952148282 0.085503923158447043 -2.3924234454255355 4.5750376438713376 4.3998786313330074 0.003766136906736506 -0.15647090489013921 -0.089432149916993359 4.0784554096801804 -0.57116012048413156
leaf_weight=164 24 26 28 99 129 41 28 28 21 82 20
leaf_count=164 24 26 28 99 129 41 28 28 21 82 20
internal_value=-0.00224638 -0.00814711 0.000757576 -0.0124332 0.0184641 0.00708955 -0.0191667 -0.00178571 -0.0233333 0.0231818 -0.0244565
internal_weight=690 537 297 187 153 67 240 56 120 110 184
internal_count=690 537 297 187 153 67 240 56 120 110 184
is_linear=0
shrinkage=0.05


Tree=10
num_leaves=22
num_cat=0
split_feature=4 22 22 4 7 22 3 0 3 0 22 6 4 4 0 3 0 1 4 4 6
split_gain=24.6916 13.4835 11.5072 9.76043 8.75089 10.076 6.5058 5.66154 3.50292 6.02771 3.28504 3.0026 2.24635 8.56126 2.13333 6.4 1.63975 0.818467 1.88153 0.171631 0.0331263
threshold=221.14583333333337 60.000000000000007 60.000000000000007 201.14583333333337 0.82065054250373815 36.000000000000007 282.08333333333343 307.50000000000006 242.08333333333334 300.00000000000006 36.000000000000007 1.7500000000000002 185.52083333333337 171.14583333333337 267.50000000000006 282.08333333333343 275.00000000000006 212.50000000000003 201.14583333333337 214.89583333333337 1.7500000000000002
decision_type=2 2 2 2 2 2 2 2 2 2 2 2 2 2 2 2 2 2 2 2 2
left_child=2 4 10 11 16 6 20 -8 -7 14 19 -4 13 -12 -10 -16 -2 18 -14 -1 -6
right_child=1 -3 3 -5 5 8 7 -9 9 -11 12 -13 17 -15 15 -17 -18 -19 -20 -21 -22
leaf_value=-3.1367041084374621 3.3193319653913562 5.2753480427991066 -0.03587884466988385 3.171577864412146 -0.93784921904708085 3.0354999066978765 0.0035778300613998229 -0.084960542421143259 -0.34461755560714097 4.9129447767669694 -3.820542138039511 0.22438089401081529 -2.5476998685661219 0.081228727000524262 3.8745326391961701 -0.14864735964563353 5.1495721997663573 -1.8672436525456164 -0.049271431500366704 -1.7558036588932708 -0.72995102019698099
leaf_weight=121 23 68 35 30 48 21 20 26 20 28 24 20 20 22 20 20 33 29 21 20 21
leaf_count=121 23 68 35 30 48 21 20 26 20 28 24 20 20 22 20 20 33 29 21 20 21
internal_value=-0.00434783 0.00502874 -0.0138889 0.00205882 0.000178571 -0.00424107 -0.0145652 0 0.00665138 0.00227273 -0.0191634 -0.0104545 -0.012931 -0.00434783 -0.00666667 0 0.0178571 -0.0185714 -0.0140244 -0.0242908 -0.0242754
internal_weight=690 348 342 85 280 224 115 46 109 88 257 55 116 46 60 40 56 70 41 141 69
internal_count=690 348 342 85 280 224 115 46 109 88 257 55 116 46 60 40 56 70 41 141 69
is_linear=0
shrinkage=0.05


Tree=11
num_leaves=19
num_cat=0
split_feature=2 22 7 22 22 2 2 21 22 4 2 2 2 2 0 2 4 4
split_gain=25.4974 15.6199 11.4968 10.6747 8.85439 8.06061 6.38077 6.63938 6.38029 6.03679 5.71429 6.31579 5.36421 8.93538 5.16731 3.84465 0.744048 0.025
threshold=205.00000000000003 60.000000000000007 0.49690002677035122 36.000000000000007 36.000000000000007 272.50000000000006 157.50000000000003 1.5000000000000002 60.000000000000007 206.14583333333337 285.00000000000006 277.50000000000006 242.50000000000003 232.50000000000003 300.00000000000006 190.00000000000003 239.89583333333337 193.64583333333337
decision_type=2 2 2 2 2 2 2 2 2 2 2 2 2 2 2 2 2 2
left_child=4 2 16 5 -1 -4 -6 15 9 -9 11 12 13 -5 -7 17 -2 -8
right_child=1 -3 3 10 6 14 7 8 -10 -11 -12 -13 -14 -15 -16 -17 -18 -19
leaf_value=-3.0658646631442483 0.072264950079187429 5.011580640659151 -1.0423944196918939 2.8827188909039991 -1.9908685807242024 0.0033989385583311107 -1.2153427876546332 0.077167290650498904 2.9642573232374363 -1.7738814699183365 4.9413133114637793 -0.14121499166335241 3.6808060072363618 -0.3273866778267831 -0.080712515300086815 0.0085050816493762223 3.9224060897780393 -1.2249397917192326
leaf_weight=119 21 78 76 26 40 27 20 26 31 20 30 20 26 24 29 22 35 20
leaf_count=119 21 78 76 26 40 27 20 26 31 20 30 20 26 24 29 22 35 20
internal_value=-0.0034058 0.00497449 0 -0.00445736 -0.0144295 -0.0143939 -0.00740223 -0.00233813 0.00746753 -0.00434783 0.00595238 0 0.00657895 -0.003 0 -0.0145161 0.0205357 -0.02375
internal_weight=690 392 314 258 298 132 179 139 77 46 126 96 76 50 56 62 56 40
internal_count=690 392 314 258 298 132 179 139 77 46 126 96 76 50 56 62 56 40
is_linear=0
shrinkage=0.05


Tree=12
num_leaves=14
num_cat=0
split_feature=22 2 2 15 22 8 2 22 15 0 0 21 6
split_gain=33.0247 20.941 17.3856 15.2127 13.7548 7.54508 5.81451 3.05231 11.8897 5.06925 9.20027 2.04465 0.225
threshold=60.000000000000007 242.50000000000003 157.50000000000003 3.5000000000000004 36.000000000000007 -0.60946782647798781 300.00000000000006 36.000000000000007 3.5000000000000004 300.00000000000006 275.00000000000006 1.5000000000000002 1.5500000000000003
decision_type=2 2 2 2 2 2 2 2 2 2 2 2 2
left_child=1 3 -2 -1 5 -5 7 9 -9 10 -3 -6 -13
right_child=2 6 -4 4 11 -7 -8 8 -10 -11 -12 12 -14
leaf_value=-2.2926694182251555 -0.22760930840356366 -0.39051532628867847 3.8319393275048586 0.048177207474310535 0.0080798275669067728 -2.6569786677303626 4.6959732852891367 -0.13415424208018578 4.3910281507499551 -0.15856258041030885 0.0054204312153757431 1.4369200283456864 0.63163576645806219
leaf_weight=184 20 30 133 35 22 68 32 24 44 26 32 20 20
leaf_count=184 20 30 133 35 22 68 32 24 44 26 32 20 20
internal_value=-0.00202899 -0.00786778 0.0184641 -0.0151146 -0.00409091 -0.0152913 0.00558511 0.00160256 0.00955882 -0.00454545 0.00322581 0.0145161 0.02125
internal_weight=690 537 153 349 165 103 188 156 68 88 62 62 40
internal_count=690 537 153 349 165 103 188 156 68 88 62 62 40
is_linear=0
shrinkage=0.05


Tree=13
num_leaves=17
num_cat=0
split_feature=2 22 7 22 15 4 22 15 2 22 0 1 21 3 6 7
split_gain=31.1031 14.0686 10.1147 12.4461 17.5 7.87157 6.62527 11.0172 6.875 10 5.92725 1.88347 1.16667 0.744048 0.318815 0.0350749
threshold=205.00000000000003 60.000000000000007 0.49690002677035122 36.000000000000007 3.5000000000000004 274.89583333333337 36.000000000000007 3.5000000000000004 197.50000000000003 60.000000000000007 307.50000000000006 205.00000000000003 1.0000000180025095e-35 245.41666666666671 1.9500000000000002 0.83243768142029106
decision_type=2 2 2 2 2 2 2 2 2 2 2 2 2 2 2 2
left_child=6 2 13 5 12 14 15 8 -8 -10 -7 -9 -5 -2 -4 -1
right_child=1 -3 3 4 -6 10 7 11 9 -11 -12 -13 -14 -15 -16 -17
leaf_value=-2.1191426120982415 0.066242842201512539 4.5694046422509507 -0.90208860409218516 -0.19638387302418608 3.5209642993370469 0.0029579700696444888 -1.1039150931972672 0.039390287350823887 -1.5705539255111605 2.673189138654422 -0.068748760514566243 -0.019929183097752913 -0.1274465299761772 4.2600843207133101 -0.61756394409995896 -2.8729379590757791
leaf_weight=23 21 78 61 24 70 23 88 30 20 20 27 21 32 35 21 96
leaf_count=23 21 78 61 24 70 23 88 30 20 20 27 21 32 35 21 96
internal_value=-0.00326087 0.0059949 0.00127389 -0.00290698 0.00833333 -0.0136364 -0.0154362 -0.00935754 -0.0171875 0 0.002 0.0102941 -0.0125 0.0205357 -0.0231707 -0.0245798
internal_weight=690 392 314 258 126 132 298 179 128 40 50 51 56 56 82 119
internal_count=690 392 314 258 126 132 298 179 128 40 50 51 56 56 82 119
is_linear=0
shrinkage=0.05


Tree=14
num_leaves=17
num_cat=0
split_feature=2 22 7 22 15 2 15 0 2 22 22 7 6 3 3 2
split_gain=29.0725 13.8804 9.94816 12.0206 17.5 7.79019 5.82551 5.81611 4.58333 13.3333 4.40163 3.85 1.53186 0.779315 0.744048 0.147368
threshold=205.00000000000003 60.000000000000007 0.49690002677035122 36.000000000000007 3.5000000000000004 272.50000000000006 3.5000000000000004 300.00000000000006 197.50000000000003 60.000000000000007 36.000000000000007 0.84292192141001665 1.6500000000000001 265.41666666666674 245.41666666666671 252.50000000000003
decision_type=2 2 2 2 2 2 2 2 2 2 2 2 2 2 2 2
left_child=6 2 14 5 13 15 8 -7 -1 -10 11 -8 -12 -5 -2 -4
right_child=1 -3 3 4 -6 7 10 -9 9 -11 12 -13 -14 -15 -16 -17
leaf_value=-2.2351045005095971 0.062930700091436628 4.3409344101384022 -1.1370487373008231 -0.06882664447630589 3.3449160843701948 0.0028100715661622646 0.00042352080320142706 -0.065311322488838641 -1.8035811011932097 2.5395296817217003 -0.00050658966685261935 -2.4830781522526908 0.053096100801305113 -0.12107420347736877 4.0470801046776446 -0.47514269613729143
leaf_weight=132 21 78 56 23 70 27 20 29 40 20 27 35 24 33 35 20
leaf_count=132 21 78 56 23 70 27 20 29 40 20 27 35 24 33 35 20
internal_value=-0.00282609 0.00612245 0.00143312 -0.00271318 0.00833333 -0.0132576 -0.0145973 0.000892857 -0.0197917 -0.00833333 -0.00518868 -0.015 0.00539216 -0.0125 0.0205357 -0.0236842
internal_weight=690 392 314 258 126 132 298 56 192 60 106 55 51 56 56 76
internal_count=690 392 314 258 126 132 298 56 192 60 106 55 51 56 56 76
is_linear=0
shrinkage=0.05


Tree=15
num_leaves=15
num_cat=0
split_feature=22 7 2 2 22 15 2 22 15 15 2 14 1 4
split_gain=28.298 23.7207 17.6254 16.8667 7.62346 12.6845 5.1371 3.77411 9.94737 7.20343 1.91739 0.808173 0.763229 0.169925
threshold=60.000000000000007 0.49690002677035122 242.50000000000003 157.50000000000003 36.000000000000007 3.5000000000000004 197.50000000000003 36.000000000000007 3.5000000000000004 3.5000000000000004 237.50000000000003 0.37940952255126048 227.50000000000003 191.77083333333337
decision_type=2 2 2 2 2 2 2 2 2 2 2 2 2 2
left_child=1 12 4 -2 -3 10 -7 9 -9 -4 -6 -11 -1 -5
right_child=3 2 7 13 5 6 -8 8 -10 11 -12 -13 -14 -15
leaf_value=0.049153260190288962 -0.049277863298044622 -2.2222832414864913 0.0026695679878542935 0.058823959215962424 -2.0774834349552549 -0.00048126018351126734 2.3234429257561517 -0.11502049330350134 3.8524812726418505 -0.33606152989955262 -0.28071519931927896 -0.06204575636439813 3.140884582129468 3.1948254085101468
leaf_weight=22 20 160 28 20 72 36 26 28 48 32 20 20 45 113
leaf_count=22 20 160 28 20 72 36 26 28 48 32 20 20 45 113
internal_value=-0.00115942 -0.00656425 -0.0105319 0.0178105 -0.0173567 -0.00941558 0.00806452 0.00320513 0.0111842 -0.004375 -0.0211957 -0.0153846 0.0212687 0.0242481
internal_weight=690 537 470 153 314 154 62 156 76 80 92 52 67 133
internal_count=690 537 470 153 314 154 62 156 76 80 92 52 67 133
is_linear=0
shrinkage=0.05


Tree=16
num_leaves=22
num_cat=0
split_feature=2 7 2 2 15 10 4 2 6 3 20 4 6 4 3 4 1 1 3 14 4
split_gain=30.6146 6.59765 3.91377 3.68105 4.18404 1.92987 1.15633 1.10223 1.06903 1.02076 0.99328 0.459115 0.460507 0.437318 0.405709 0.474453 0.327923 0.157858 0.133333 0.0892857 0.0125392
threshold=212.50000000000003 0.49690002677035122 312.50000000000006 182.50000000000003 3.5000000000000004 74.050000000000026 181.77083333333337 242.50000000000003 1.9500000000000002 260.41666666666669 0.60714285714285732 304.89583333333337 1.7500000000000002 274.89583333333337 249.16666666666671 231.77083333333337 212.50000000000003 227.50000000000003 205.83333333333334 0.78656609248549303 212.39583333333337
decision_type=2 2 2 2 2 2 2 2 2 2 2 2 2 2 2 2 2 2 2 2 2
left_child=3 -2 7 4 18 10 -6 9 11 14 20 12 13 -9 15 16 -3 -18 -1 -15 -5
right_child=1 2 -4 5 6 -7 -8 8 -10 -11 -12 -13 -14 19 -16 -17 17 -19 -20 -21 -22
leaf_value=-2.506421674022187 2.9838403530229956 -1.0041101226910258 1.1626975251393474 -1.2979730024281793 -0.07102025785556236 0.010769209387925117 0.00054882328464884729 2.5333980176694926 1.477494616481434 -0.36445976808593061 -0.19643027913687947 -0.045242679869420502 1.2602528772746682 0.0025360895884602996 0.030959314706450414 -0.16927606374569848 0.065039314275546198 2.1188769854045235 -1.9931206907774923 0.02626191026321294 -1.2979730024281793
leaf_weight=96 45 22 22 22 31 40 23 31 32 30 37 28 30 36 21 21 21 22 24 20 36
leaf_count=96 45 22 22 22 31 40 23 31 32 30 37 28 30 36 21 21 21 22 24 20 36
internal_value=-0.00246377 0.007021 0.0046131 -0.0141586 -0.0189655 -0.00796296 -0.00740741 0.00318471 0.00579096 -0.000182482 -0.0118421 0.00396552 0.00534188 0.00718391 0.0021028 0.000581395 0.00269231 0.00523256 -0.0241667 0.00982143 -0.00775862
internal_weight=690 381 336 309 174 135 54 314 177 137 95 145 117 87 107 86 65 43 120 56 58
internal_count=690 381 336 309 174 135 54 314 177 137 95 145 117 87 107 86 65 43 120 56 58
is_linear=0
shrinkage=0.05


Tree=17
num_leaves=20
num_cat=0
split_feature=22 2 2 22 7 3 2 20 2 2 2 2 22 3 3 7 5 2 5
split_gain=36.7609 17.7779 8.45968 8.40844 11.3911 4.10634 5.625 3.83198 5.46584 5.46713 2.65098 4.69444 1.82945 2.10727 6.18312 1.71867 0.717391 0.664935 0.267857
threshold=60.000000000000007 205.00000000000003 300.00000000000006 36.000000000000007 0.49690002677035122 282.08333333333343 292.50000000000006 0.34523809523809529 285.00000000000006 272.50000000000006 182.50000000000003 172.50000000000003 36.000000000000007 178.33333333333334 193.33333333333334 0.83243768142029106 15.602338639271176 197.50000000000003 15.012072436561853
decision_type=2 2 2 2 2 2 2 2 2 2 2 2 2 2 2 2 2 2 2
left_child=1 12 3 4 -3 18 -7 -5 9 16 11 -2 15 -14 -15 -1 -9 -16 -6
right_child=10 2 -4 7 5 6 -8 8 -10 -11 -12 -13 13 14 17 -17 -18 -19 -20
leaf_value=-1.7469936142379341 0.078507113567965803 2.4881890289425486 3.7395801529975103 2.1156250196907451 -0.47339231884947708 0.0024092851090358638 -0.14035464018124771 0.04346180375139852 3.9410402895291101 -0.10939627311774985 3.0533071264889347 -0.0080073765039884396 -3.0191918960558528 0.0030938157184408513 -0.07453253355336642 -2.3811005903210769 0.13522715985094891 -1.2330743523067698 -0.67079458654391722
leaf_weight=23 25 40 32 26 24 20 20 24 22 24 108 20 27 22 35 96 22 20 60
leaf_count=23 25 40 32 26 24 20 20 24 22 24 108 20 27 22 35 96 22 20 60
internal_value=-0.000869565 -0.0070298 0.000636943 -0.00212766 -0.00945122 -0.0169355 -0.00375 0.00805085 0.00326087 -0.00357143 0.0207516 0.0105556 -0.0178251 -0.0129808 -0.00876623 -0.0220588 0.00652174 -0.0177273 -0.0232143
internal_weight=690 537 314 282 164 124 40 118 92 70 153 45 223 104 77 119 46 55 84
internal_count=690 537 314 282 164 124 40 118 92 70 153 45 223 104 77 119 46 55 84
is_linear=0
shrinkage=0.05


Tree=18
num_leaves=24
num_cat=0
split_feature=2 2 8 20 15 9 2 2 3 1 15 0 1 9 4 0 6 8 8 13 3 8 0
split_gain=15.445 6.36924 4.16322 3.61945 3.26184 1.87968 1.1198 1.05567 0.68786 0.690088 0.848485 0.587605 0.52628 0.51385 0.363636 0.347853 0.323232 0.292012 0.217143 0.143254 0.094553 0.025 4.44089e-16
threshold=212.50000000000003 300.00000000000006 -0.60946782647798781 0.60714285714285732 3.5000000000000004 16.500000000000004 242.50000000000003 172.50000000000003 260.41666666666669 252.50000000000003 3.5000000000000004 307.50000000000006 227.50000000000003 18.700000000000006 225.52083333333337 287.50000000000006 1.7500000000000002 -0.34119984676935938 -0.44228852180796224 0.12940952255126045 270.41666666666669 -0.40967331980510607 212.50000000000003
decision_type=2 2 2 2 2 2 2 2 2 2 2 2 2 2 2 2 2 2 2 2 2 2 2
left_child=3 2 -2 4 16 -5 8 17 9 10 -4 13 18 20 -12 -15 22 -6 -7 -13 -8 -17 -1
right_child=1 -3 6 5 7 12 11 -9 -10 -11 14 19 -14 15 -16 21 -18 -19 -20 -21 -22 -23 -24
leaf_value=-2.8682323012530606 2.5996983442540711 3.5526011453476345 -0.16298535074598136 -0.067621409839173904 0.00036669133449436232 -0.31101821662716134 2.695492526598446 0.13627793379631045 -0.35299813767418303 0.034263486173693992 0.77259849394084912 -0.035962813866885317 -1.8669893378935882 -0.14686528182098471 -1.5195026921100352 0.0022888208535846387 -1.5332292522979742 -1.619883298026106 -1.8450414030319451 3.3997925506695683 0.016752290301838002 0.0022888208535846387 -1.1714206346914324
leaf_weight=51 29 38 33 28 23 25 23 21 30 30 22 21 22 31 22 20 36 20 38 24 38 20 45
leaf_count=51 29 38 33 28 23 25 23 21 30 30 22 21 22 31 22 20 36 20 38 24 38 20 45
internal_value=-0.00115942 0.00557743 0.00342566 -0.00946602 -0.00535714 -0.0165929 0.00175159 0.00390625 -0.00164234 0.000233645 -0.00227273 0.00437853 -0.0202941 0.00606061 0.00227273 0.00316901 -0.00984848 -0.000581395 -0.022619 -0.000555556 0.00942623 0.00625 -0.00833333
internal_weight=690 381 343 309 196 113 314 64 137 107 77 177 85 132 44 71 132 43 63 45 61 40 96
internal_count=690 381 343 309 196 113 314 64 137 107 77 177 85 132 44 71 132 43 63 45 61 40 96
is_linear=0
shrinkage=0.05


Tree=19
num_leaves=13
num_cat=0
split_feature=22 15 22 7 4 2 22 4 2 1 4 2
split_gain=45.7831 22.8264 29.5758 24.1444 9.15605 5.24129 3.12963 0.948913 0.833333 0.29899 0.173856 0.0439024
threshold=60.000000000000007 3.5000000000000004 36.000000000000007 0.49690002677035122 259.27083333333337 222.50000000000003 36.000000000000007 252.39583333333337 292.50000000000006 212.50000000000003 168.64583333333337 237.50000000000003
decision_type=2 2 2 2 2 2 2 2 2 2 2 2
left_child=1 4 3 5 7 -3 -6 11 -5 -4 -2 -1
right_child=10 2 9 8 6 -7 -8 -9 -10 -11 -12 -13
leaf_value=-1.8236129960980407 0.19292398008112743 -0.064240339347216499 0.059208957047349034 -1.8312955072338071 0.0021743798109042701 2.7500259270413667 -0.10404090050454329 -0.2855848448393431 -0.047865461850298635 2.6516203180213114 2.8791576417161853 -0.33665441976549887
leaf_weight=144 20 24 36 96 27 43 27 22 24 74 133 20
leaf_count=144 20 24 36 96 27 43 27 22 24 74 133 20
internal_value=0.000217391 -0.00665736 0.00260943 -0.00949198 -0.018125 0.0145522 0 -0.0233871 -0.0229167 0.0231818 0.0243464 -0.0246951
internal_weight=690 537 297 187 240 67 54 186 120 110 153 164
internal_count=690 537 297 187 240 67 54 186 120 110 153 164
is_linear=0
shrinkage=0.05


Tree=20
num_leaves=17
num_cat=0
split_feature=22 2 7 22 15 2 2 2 15 0 22 7 3 0 1 13
split_gain=27.4356 19.678 9.51003 13.3827 15.0893 7.9904 8.10697 7.90912 5.96549 5.61641 5.00949 3.0303 2.12003 0.278804 0.111111 0.1
threshold=60.000000000000007 212.50000000000003 0.49690002677035122 36.000000000000007 3.5000000000000004 190.00000000000003 157.50000000000003 277.50000000000006 3.5000000000000004 307.50000000000006 36.000000000000007 0.49690002677035122 263.33333333333343 267.50000000000006 282.50000000000006 0.12940952255126045
decision_type=2 2 2 2 2 2 2 2 2 2 2 2 2 2 2 2
left_child=1 8 14 7 12 6 -2 13 -1 -9 11 -10 -5 -4 -3 -12
right_child=5 2 3 4 -6 -7 -8 9 10 -11 15 -13 -14 -15 -16 -17
leaf_value=-1.8191839513531627 0.18327778107707218 2.2502456133750002 -0.75610648761589516 0.028785560139158409 2.6850299338730781 2.9721925749929472 -0.059312819613001014 0.0020656608203580618 -0.043729514269350039 -0.045472188757784693 0.031330692018141808 -2.1316792402886535 -0.099200442215521892 -0.49293255387523516 3.2374697917281852 0.014377998235787004
leaf_weight=128 20 20 57 22 70 104 29 25 22 27 20 44 34 23 25 20
leaf_count=128 20 20 57 22 70 104 29 25 22 27 20 44 34 23 25 20
internal_value=-0.00152174 -0.00684358 0.00156766 -0.00213178 0.00952381 0.0171569 0.000510204 -0.0132576 -0.017735 0.00192308 -0.00896226 -0.0174242 -0.00982143 -0.023125 0.0227778 0.005
internal_weight=690 537 303 258 126 153 49 132 234 52 106 66 56 80 45 40
internal_count=690 537 303 258 126 153 49 132 234 52 106 66 56 80 45 40
is_linear=0
shrinkage=0.05


Tree=21
num_leaves=17
num_cat=0
split_feature=22 2 7 22 15 2 4 2 15 0 22 7 3 0 1 14
split_gain=26.6936 19.678 9.51003 13.3827 15.0893 7.90912 7.27867 6.49351 5.96549 5.61641 5.00949 3.0303 2.12003 0.278804 0.111111 0.1
threshold=60.000000000000007 212.50000000000003 0.49690002677035122 36.000000000000007 3.5000000000000004 277.50000000000006 201.14583333333337 157.50000000000003 3.5000000000000004 307.50000000000006 36.000000000000007 0.49690002677035122 263.33333333333343 267.50000000000006 282.50000000000006 -0.12940952255126037
decision_type=2 2 2 2 2 2 2 2 2 2 2 2 2 2 2 2
left_child=1 8 14 5 12 13 7 -2 -1 -7 11 -10 -5 -4 -3 -12
right_child=6 2 3 4 -6 9 -8 -9 10 -11 15 -13 -14 -15 -16 -17
leaf_value=-1.7282247537855042 0.17411389202321745 2.1377333327062504 -0.71830116323509974 0.027346282132199917 2.5507784371794244 0.0019623777793412954 3.2132123090577411 -0.037496294155405965 -0.041543038555883531 -0.04319857931989475 0.047305487041256811 -2.0250952782742218 -0.094240420104745232 -0.46828592618147413 3.0755963021417756 0.013659098323998364
leaf_weight=128 20 20 57 22 70 25 98 35 22 27 20 44 34 23 25 20
leaf_count=128 20 20 57 22 70 25 98 35 22 27 20 44 34 23 25 20
internal_value=-0.0015942 -0.00684358 0.00156766 -0.00213178 0.00952381 -0.0132576 0.0168301 0.00227273 -0.017735 0.00192308 -0.00896226 -0.0174242 -0.00982143 -0.023125 0.0227778 0.005
internal_weight=690 537 303 258 126 132 153 55 234 52 106 66 56 80 45 40
internal_count=690 537 303 258 126 132 153 55 234 52 106 66 56 80 45 40
is_linear=0
shrinkage=0.05


Tree=22
num_leaves=17
num_cat=0
split_feature=22 2 7 22 15 2 4 4 15 22 4 7 1 2 1 13
split_gain=27.6489 19.343 9.65858 13.8315 15.0893 7.23445 6.70802 6.79916 5.96549 5.00949 4.59487 3.0303 1.44643 0.147368 0.111111 0.1
threshold=60.000000000000007 212.50000000000003 0.49690002677035122 36.000000000000007 3.5000000000000004 272.50000000000006 201.14583333333337 174.27083333333337 3.5000000000000004 36.000000000000007 299.89583333333337 0.49690002677035122 275.00000000000006 252.50000000000003 282.50000000000006 0.12940952255126045
decision_type=2 2 2 2 2 2 2 2 2 2 2 2 2 2 2 2
left_child=1 8 14 5 12 13 7 -2 -1 11 -7 -10 -5 -4 -3 -11
right_child=6 2 3 4 -6 10 -8 -9 9 15 -12 -13 -14 -15 -16 -17
leaf_value=-1.6418135160962288 0.12584096653636154 2.030846666070937 -0.79672876922383018 -0.1231275480724051 2.4232395153204536 0.001864258890373094 3.0525516936048547 -0.054160125552164123 -0.039465886628090634 0.028240042783103547 -0.041038650353900155 -1.9238405143605093 -0.089166812363302483 -0.43204190060254322 2.921816487034687 0.012976143407797736
leaf_weight=128 29 20 56 28 70 30 98 26 22 20 26 44 28 20 25 20
leaf_count=128 29 20 56 28 70 30 98 26 22 20 26 44 28 20 25 20
internal_value=-0.0015942 -0.00693669 0.00140264 -0.00232558 0.00952381 -0.0136364 0.0171569 0.00318182 -0.017735 -0.00896226 0 -0.0174242 -0.00982143 -0.0236842 0.0227778 0.005
internal_weight=690 537 303 258 126 132 153 55 234 106 56 66 56 76 45 40
internal_count=690 537 303 258 126 132 153 55 234 106 56 66 56 76 45 40
is_linear=0
shrinkage=0.05


Tree=23
num_leaves=17
num_cat=0
split_feature=22 2 7 22 15 2 4 2 15 4 22 7 1 2 1 13
split_gain=27.2232 20.0159 9.36262 12.9414 15.0893 8.36648 6.70802 5.98442 5.96549 5.10907 5.00949 3.0303 1.44643 0.147368 0.111111 0.1
threshold=60.000000000000007 212.50000000000003 0.49690002677035122 36.000000000000007 3.5000000000000004 272.50000000000006 201.14583333333337 157.50000000000003 3.5000000000000004 301.77083333333337 36.000000000000007 0.49690002677035122 275.00000000000006 252.50000000000003 282.50000000000006 0.12940952255126045
decision_type=2 2 2 2 2 2 2 2 2 2 2 2 2 2 2 2
left_child=1 8 14 5 12 13 7 -2 -1 -7 11 -10 -5 -4 -3 -12
right_child=6 2 3 4 -6 9 -8 -9 10 -11 15 -13 -14 -15 -16 -17
leaf_value=-1.5597228402914176 0.15911614909523736 1.92930433276739 -0.75689233076263918 -0.11697117066878349 2.3020775395544306 0.0017710459458555761 2.8999241089246115 -0.032913473170026464 -0.037492592296686666 -0.038986717836203867 0.026828040643947306 -1.827648488642484 -0.084708471745136654 -0.41043980557241611 2.7757256626829534 0.01232733623740785
leaf_weight=128 20 20 56 28 70 33 98 35 22 23 20 44 28 20 25 20
leaf_count=128 20 20 56 28 70 33 98 35 22 23 20 44 28 20 25 20
internal_value=-0.00144928 -0.00675047 0.00173267 -0.00193798 0.00952381 -0.0128788 0.0171569 0.00318182 -0.017735 0.00178571 -0.00896226 -0.0174242 -0.00982143 -0.0236842 0.0227778 0.005
internal_weight=690 537 303 258 126 132 153 55 234 56 106 66 56 76 45 40
internal_count=690 537 303 258 126 132 153 55 234 56 106 66 56 76 45 40
is_linear=0
shrinkage=0.05


Tree=24
num_leaves=18
num_cat=0
split_feature=22 2 7 22 15 2 1 15 0 22 20 7 3 3 2 1 13
split_gain=27.2232 20.0159 9.36262 12.9414 15.0893 8.36648 6.15131 5.96549 5.12397 5.00949 3.6492 3.0303 2.12003 0.161538 0.147368 0.111111 0.1
threshold=60.000000000000007 212.50000000000003 0.49690002677035122 36.000000000000007 3.5000000000000004 272.50000000000006 197.50000000000003 3.5000000000000004 307.50000000000006 36.000000000000007 0.60714285714285732 0.49690002677035122 263.33333333333343 215.41666666666671 252.50000000000003 282.50000000000006 0.12940952255126045
decision_type=2 2 2 2 2 2 2 2 2 2 2 2 2 2 2 2 2
left_child=1 7 15 5 12 14 10 -1 -7 11 -2 -9 -5 -8 -4 -3 -11
right_child=6 2 3 4 -6 8 13 9 -10 16 -12 -13 -14 -15 -16 -17 -18
leaf_value=-1.481736698276847 0.092216595129784196 1.8328391161290201 -0.71904771422450731 0.037983903962648925 2.1869736625767091 0.0016824936485619448 1.3676307932220781 -0.035617962681851627 -0.037037381944392676 0.025486638611751291 -0.049494207243637338 -1.7362660642103607 -0.080834634894083032 3.0590715819553256 -0.38991781529379499 2.6369393795488065 0.011710969425536177
leaf_weight=128 26 20 56 22 70 29 20 22 27 20 23 44 34 84 20 25 20
leaf_count=128 26 20 56 22 70 29 20 22 27 20 23 44 34 84 20 25 20
internal_value=-0.00144928 -0.00675047 0.00173267 -0.00193798 0.00952381 -0.0128788 0.0171569 -0.017735 0.00178571 -0.00896226 0.00255102 -0.0174242 -0.00982143 0.0240385 -0.0236842 0.0227778 0.005
internal_weight=690 537 303 258 126 132 153 234 56 106 49 66 56 104 76 45 40
internal_count=690 537 303 258 126 132 153 234 56 106 49 66 56 104 76 45 40
is_linear=0
shrinkage=0.05


Tree=25
num_leaves=18
num_cat=0
split_feature=22 2 15 22 8 2 2 2 5 22 15 0 2 2 22 6 3
split_gain=26.1692 20.5283 9.71353 9.9013 8.31845 7.37526 8.10697 5.34643 2.55544 1.88921 13.049 4.90909 8.19493 1.86322 2.52083 0.625 0.161538
threshold=60.000000000000007 242.50000000000003 3.5000000000000004 36.000000000000007 -0.60946782647798781 190.00000000000003 157.50000000000003 300.00000000000006 15.805658498769064 36.000000000000007 3.5000000000000004 307.50000000000006 260.00000000000006 232.50000000000003 36.000000000000007 1.4500000000000002 215.41666666666671
decision_type=2 2 2 2 2 2 2 2 2 2 2 2 2 2 2 2 2
left_child=1 2 13 4 -4 6 -2 9 -5 11 -11 12 -3 -1 -15 -14 -7
right_child=5 7 3 8 -6 16 -8 -9 -10 10 -12 -13 15 14 -16 -17 -18
leaf_value=-1.3594887630647123 0.1175364526629636 -0.34350831105545443 0.13804830965970324 0.076037945264067736 -1.5453805154095592 1.2992492535609743 -0.047643973626287563 2.5050924105713648 0.002775808082328979 -0.076431316413174966 2.5541800172379228 -0.22121875156294238 0.80083439972734149 -0.24675226174949502 -0.13051573703254746 0.0040717836299108967 2.9061180028575593
leaf_weight=136 20 26 35 32 68 20 29 32 30 24 44 22 20 24 24 20 84
leaf_count=136 20 26 35 32 68 20 29 32 30 24 44 22 20 24 24 20 84
internal_value=-0.00173913 -0.00693669 -0.0141117 -0.00530303 -0.0148058 0.0165033 0.000510204 0.00638298 0.0104839 0.0025641 0.00882353 -0.00227273 0.00454545 -0.0220109 -0.0135417 0.01875 0.0240385
internal_weight=690 537 349 165 103 153 49 188 62 156 68 88 66 184 48 40 104
internal_count=690 537 349 165 103 153 49 188 62 156 68 88 66 184 48 40 104
is_linear=0
shrinkage=0.05


Tree=26
num_leaves=16
num_cat=0
split_feature=22 15 22 7 4 4 2 4 2 5 6 2 3 6 2
split_gain=27.5359 21.3499 17.2778 21.5341 8.48984 7.71857 5.24129 4.58943 4.58237 3.12096 2.71723 1.49586 0.853806 0.933333 0.156522
threshold=60.000000000000007 3.5000000000000004 36.000000000000007 0.49690002677035122 201.14583333333337 185.52083333333337 222.50000000000003 214.27083333333337 232.50000000000003 15.805658498769064 1.9500000000000002 285.00000000000006 260.41666666666669 1.4500000000000002 252.50000000000003
decision_type=2 2 2 2 2 2 2 2 2 2 2 2 2 2 2
left_child=1 8 3 6 5 -2 -3 9 -1 -4 12 14 -10 -14 -5
right_child=4 2 7 11 -6 -7 -8 -9 10 -11 -12 -13 13 -15 -16
leaf_value=-1.2915143249114764 0.081728942740144819 -0.058038288141250408 0.047511715214389488 -1.4681114896390826 2.4566684242377366 -0.045741625148204436 1.9268018018245301 1.9958515183514323 -0.051671903032408296 -0.017927283312958765 0.006996185683904344 -0.024124575269024718 -0.072609750592516772 -0.095784544478642888 -0.35324650897633064
leaf_weight=136 31 24 21 72 98 24 43 67 22 22 22 28 28 32 20
leaf_count=136 31 24 21 72 98 24 43 67 22 22 22 28 28 32 20
internal_value=-0.00253623 -0.00786778 0.00109428 -0.00815508 0.0161765 0.000454545 0.0145522 0.0168182 -0.0189583 0.00406977 -0.0110577 -0.0208333 -0.0152439 -0.0183333 -0.023913
internal_weight=690 537 297 187 153 55 67 110 240 43 104 120 82 60 92
internal_count=690 537 297 187 153 55 67 110 240 43 104 120 82 60 92
is_linear=0
shrinkage=0.05


Tree=27
num_leaves=25
num_cat=0
split_feature=2 15 2 20 2 15 4 4 9 3 15 2 20 13 13 3 14 4 6 1 6 1 14 5
split_gain=17.8808 7.14541 4.57327 4.49125 1.34064 2.80391 1.32834 1.9787 1.1866 1.12297 1.0989 0.900577 0.653619 0.612749 0.681977 0.422363 0.38723 0.37037 0.284444 0.214286 0.146321 0.134921 0.0783647 0.0184471
threshold=222.50000000000003 4.5000000000000009 312.50000000000006 0.60714285714285732 172.50000000000003 3.5000000000000004 201.14583333333337 211.77083333333337 16.500000000000004 185.41666666666671 3.5000000000000004 212.50000000000003 0.60714285714285732 -0.78656609248549303 0.60355339059327384 305.41666666666674 -0.78656609248549325 191.77083333333337 1.5500000000000003 267.50000000000006 1.3500000000000003 212.50000000000003 -0.70710678118654757 13.947040099470323
decision_type=2 2 2 2 2 2 2 2 2 2 2 2 2 2 2 2 2 2 2 2 2 2 2 2
left_child=3 2 8 4 9 21 17 -8 10 22 -2 -7 13 -10 16 -14 -15 -5 -13 -12 -17 -6 -1 -24
right_child=1 -3 -4 6 5 11 7 -9 12 -11 19 18 15 14 -16 20 -18 -19 -20 -21 -22 -23 23 -25
leaf_value=-2.1340017024926312 -0.021551875689574729 1.830461711733304 0.62034407742110609 -1.1011149039066539 -0.76792219937397732 0.13856800271952352 -0.056435685407649316 -0.2863633401827741 -0.28734643540680338 -0.10022021941597359 1.46590706834333 -0.8765713164955401 -0.034812863490608949 0.056212857345445857 -0.28479295666049326 -0.022918346505574051 0.06848367986183064 -1.1175244406864777 1.0965773873476181 2.3240149243809269 0.0054608335361592715 -0.47758471076298437 -2.0895557939965386 -2.0895557939965386
leaf_weight=20 36 43 22 27 21 21 30 23 25 22 21 25 31 30 21 22 23 45 20 21 29 51 26 35
leaf_count=20 36 43 22 27 21 21 30 23 25 22 21 25 31 30 21 22 23 45 20 21 29 51 26 35
internal_value=-0.00253623 0.00601852 0.00311388 -0.0101093 -0.00612033 -0.00289855 -0.0178 -0.0117925 0.00125483 -0.0104369 0.00641026 0.00454545 -0.000966851 0.00176768 0.00405405 -0.00426829 0.00707547 -0.0222222 0.000555556 0.0119048 -0.00147059 -0.00972222 -0.00771605 -0.00860656
internal_weight=690 324 281 366 241 138 125 53 259 103 78 66 181 99 74 82 53 72 45 42 51 72 81 61
internal_count=690 324 281 366 241 138 125 53 259 103 78 66 181 99 74 82 53 72 45 42 51 72 81 61
is_linear=0
shrinkage=0.05


Tree=28
num_leaves=15
num_cat=0
split_feature=22 15 22 7 2 2 4 5 4 4 6 4 3 6
split_gain=40.034 21.5205 19.0604 23.0824 5.24129 3.97212 3.94091 2.54848 1.96815 3.09156 1.61234 1.07652 0.853806 0.933333
threshold=60.000000000000007 3.5000000000000004 36.000000000000007 0.49690002677035122 222.50000000000003 232.50000000000003 221.14583333333337 15.946866031665435 201.14583333333337 188.64583333333337 1.9500000000000002 270.52083333333337 260.41666666666669 1.4500000000000002
decision_type=2 2 2 2 2 2 2 2 2 2 2 2 2 2
left_child=1 5 3 4 -3 -1 7 -4 9 -2 12 -5 -7 -14
right_child=8 2 6 11 -6 10 -8 -9 -10 -11 -12 -13 13 -15
leaf_value=-1.1714726250510743 0.15119825722799193 -0.040818206725049322 0.045678864907080202 -1.2354636764158529 1.73893862614664 -0.051898950748059752 1.893248299566588 -0.011600698786320153 2.3329684784844518 -0.0064749872782385864 -0.008323428643581111 -0.049009507519392065 -0.067238619888360066 -0.092537159526750665
leaf_weight=136 35 24 24 87 43 22 66 20 98 20 22 33 28 32
leaf_count=136 35 24 24 87 43 22 66 20 98 20 22 33 28 32
internal_value=-0.00181159 -0.00824022 0.000757576 -0.00895722 0.0145522 -0.019375 0.0172727 0.00568182 0.0207516 0.0131818 -0.0120192 -0.0220833 -0.0152439 -0.0183333
internal_weight=690 537 297 187 67 240 110 44 153 55 104 120 82 60
internal_count=690 537 297 187 67 240 110 44 153 55 104 120 82 60
is_linear=0
shrinkage=0.05


Tree=29
num_leaves=16
num_cat=0
split_feature=22 15 22 7 2 4 2 4 4 3 5 3 2 22 3
split_gain=37.8756 23.3577 16.1857 20.0396 5.24129 4.41818 3.97212 2.39334 2.28259 2.82223 2.27273 1.27237 0.980981 1.18519 0.0378049
threshold=60.000000000000007 3.5000000000000004 36.000000000000007 0.49690002677035122 222.50000000000003 221.14583333333337 232.50000000000003 267.39583333333337 201.14583333333337 190.41666666666669 15.805658498769064 260.41666666666669 272.50000000000006 36.000000000000007 237.08333333333334
decision_type=2 2 2 2 2 2 2 2 2 2 2 2 2 2 2
left_child=1 6 3 4 -3 10 -1 14 9 -2 -4 -8 -13 -14 -5
right_child=8 2 5 7 -6 -7 11 -9 -10 -11 -12 12 13 -15 -16
leaf_value=-1.1128989937985203 0.17456037244156733 -0.038777296388798281 0.044907245830489731 -1.28910416551156 1.6519916948393076 1.7985858845882576 -0.044368946518295621 -0.01932195380432802 2.216320054560228 -0.0061413232555736393 -0.010179504129072826 -0.38184872664708963 -0.029710289321658936 -0.063876688893941491 -0.51551816726724553
leaf_weight=136 32 24 22 62 43 66 30 38 98 23 22 20 27 27 20
leaf_count=136 32 24 22 62 43 66 30 38 98 23 22 20 27 27 20
internal_value=-0.00152174 -0.00777467 0.00159933 -0.00735294 0.0145522 0.0168182 -0.019375 -0.0195833 0.0204248 0.0122727 0.00454545 -0.0120192 -0.0155405 -0.012037 -0.0243902
internal_weight=690 537 297 187 67 110 240 120 153 55 44 104 74 54 82
internal_count=690 537 297 187 67 110 240 120 153 55 44 104 74 54 82
is_linear=0
shrinkage=0.05


Tree=30
num_leaves=16
num_cat=0
split_feature=22 15 22 8 2 4 2 1 4 3 5 6 1 3 6
split_gain=37.6259 23.7341 15.8296 19.5534 5.24129 4.41818 3.97212 2.72222 2.28259 2.82223 2.27273 1.61234 1.28444 0.853806 0.933333
threshold=60.000000000000007 3.5000000000000004 36.000000000000007 -0.60946782647798781 222.50000000000003 221.14583333333337 232.50000000000003 267.50000000000006 201.14583333333337 190.41666666666669 15.805658498769064 1.9500000000000002 300.00000000000006 260.41666666666669 1.4500000000000002
decision_type=2 2 2 2 2 2 2 2 2 2 2 2 2 2 2
left_child=1 6 3 4 -3 10 -1 -5 9 -2 -4 13 -9 -8 -15
right_child=8 2 5 7 -6 -7 11 12 -10 -11 -12 -13 -14 14 -16
leaf_value=-1.0572540441085942 0.16583235381948783 -0.036838431569358933 0.042661883538966099 -1.2246489572359822 1.5693921100973427 1.7086565903588451 -0.047085555884740421 -0.016543095224993466 2.1055040518322161 -0.005834257092794815 -0.0096705289226179051 -0.0052011163260957012 -0.018355856114112612 -0.060682854449242998 -0.08557062709502504
leaf_weight=136 32 24 22 75 43 66 22 20 98 23 22 22 25 28 32
leaf_count=136 32 24 22 75 43 66 22 20 98 23 22 22 25 28 32
internal_value=-0.00144928 -0.00768156 0.00176768 -0.00708556 0.0145522 0.0168182 -0.019375 -0.0191667 0.0204248 0.0122727 0.00454545 -0.0120192 -0.00944444 -0.0152439 -0.0183333
internal_weight=690 537 297 187 67 110 240 120 153 55 44 104 45 82 60
internal_count=690 537 297 187 67 110 240 120 153 55 44 104 45 82 60
is_linear=0
shrinkage=0.05


Tree=31
num_leaves=22
num_cat=0
split_feature=2 7 2 20 15 2 3 1 2 9 7 2 4 4 6 7 4 6 9 15 4
split_gain=15.0879 6.80111 2.69688 2.61347 1.68615 1.83295 1.61286 1.58627 1.75241 1.29243 0.96 0.900577 0.879487 0.880645 0.614757 0.514706 0.335695 0.284444 0.206119 0.169497 0.160173
threshold=222.50000000000003 0.49690002677035122 312.50000000000006 0.60714285714285732 3.5000000000000004 172.50000000000003 185.41666666666671 287.50000000000006 242.50000000000003 16.500000000000004 0.86733110115226575 212.50000000000003 194.27083333333337 206.77083333333337 1.4500000000000002 0.92619960784091615 297.39583333333337 1.5500000000000003 16.500000000000004 3.5000000000000004 160.52083333333337
decision_type=2 2 2 2 2 2 2 2 2 2 2 2 2 2 2 2 2 2 2 2 2
left_child=3 -2 7 4 20 6 -6 8 15 -5 -10 -7 -11 -14 19 -3 -16 -13 -12 -9 -1
right_child=1 2 -4 9 5 11 -8 14 10 12 18 17 13 -15 16 -17 -18 -19 -20 -21 -22
leaf_value=-1.1901956507374123 1.4909225045924757 -0.050141858571895175 0.59148861526461471 -0.041377453577882764 0.053294951353322517 0.13746129931770953 -0.093636671853272457 -0.025190632133114833 0.020125919253996472 -0.89456693550424404 1.4608679707601029 -0.78264495285436908 -0.89408708530101255 -0.26622347643947253 -0.056717514742015855 0.060569887135730485 1.8760900910856209 0.77172397925455272 0.15469413978171362 -0.011297148471071239 -0.45909425636322254
leaf_weight=21 43 34 22 34 21 21 22 33 25 21 27 25 39 31 31 36 30 20 23 20 111
leaf_count=21 43 34 22 34 21 21 22 33 25 21 27 25 39 31 31 36 30 20 23 20 111
internal_value=-0.00137681 0.00648148 0.00364769 -0.00833333 -0.00529046 -0.000688073 -0.00872093 0.00222008 0.00568966 -0.0142 0.011 0.00454545 -0.0173077 -0.02 -0.00219298 0 0.00122951 0.000555556 0.015 -0.00613208 -0.00909091
internal_weight=690 324 281 366 241 109 43 259 145 125 75 66 91 70 114 70 61 45 50 53 132
internal_count=690 324 281 366 241 109 43 259 145 125 75 66 91 70 114 70 61 45 50 53 132
is_linear=0
shrinkage=0.05


Tree=32
num_leaves=16
num_cat=0
split_feature=22 15 22 7 2 4 2 4 6 3 2 3 14 6 3
split_gain=45.4978 27.3337 18.7123 20.0396 5.24129 2.67273 2.63718 2.39334 1.64771 1.41966 0.564706 1 0.363636 0.348718 0.0378049
threshold=60.000000000000007 3.5000000000000004 36.000000000000007 0.49690002677035122 222.50000000000003 221.14583333333337 232.50000000000003 267.39583333333337 1.9500000000000002 260.41666666666669 182.50000000000003 186.66666666666671 -0.12940952255126037 1.5500000000000003 237.08333333333334
decision_type=2 2 2 2 2 2 2 2 2 2 2 2 2 2 2
left_child=1 6 3 4 -3 12 -1 14 9 -8 11 -2 -4 -11 -5
right_child=10 2 5 7 -6 -7 8 -9 -10 13 -12 -13 -14 -15 -16
leaf_value=-0.97845787981944321 0.21705051866538272 -0.032927637311996709 0.033826543710360112 -1.1242842617314666 1.4163763793628505 1.6154890538518174 -0.044991978804598889 -0.098960738188017677 -0.055682264761949797 -0.05668654304475354 1.4307465914757829 0.029071361263025609 0.0031761951657870214 -0.13016139206231828 -0.48836427060010124
leaf_weight=136 25 24 22 62 43 66 22 38 22 34 108 20 22 26 20
leaf_count=136 25 24 22 62 43 66 22 38 22 34 108 20 22 26 20
internal_value=-0.00101449 -0.00786778 0.00227273 -0.00735294 0.0145522 0.0186364 -0.0204167 -0.0195833 -0.0144231 -0.0176829 0.0230392 0.0183333 0.00909091 -0.0216667 -0.0243902
internal_weight=690 537 297 187 67 110 240 120 104 82 153 45 44 60 82
internal_count=690 537 297 187 67 110 240 120 104 82 153 45 44 60 82
is_linear=0
shrinkage=0.05


Tree=33
num_leaves=17
num_cat=0
split_feature=22 15 22 8 4 2 4 4 4 2 14 1 9 9 4 3
split_gain=37.2505 26.4337 19.0993 17.8606 6.02526 2.88237 2.82623 2.67273 2.23752 2.3776 1.64842 1.2349 1.14361 0.214286 0.04 0.0378049
threshold=60.000000000000007 3.5000000000000004 36.000000000000007 -0.60946782647798781 236.14583333333337 232.50000000000003 267.39583333333337 221.14583333333337 199.89583333333337 172.50000000000003 -0.70710678118654757 205.00000000000003 15.700000000000001 20.000000000000004 213.64583333333337 237.08333333333334
decision_type=2 2 2 2 2 2 2 2 2 2 2 2 2 2 2 2
left_child=1 5 3 4 -3 -1 15 11 9 -2 -7 -4 -12 -14 -10 -5
right_child=8 2 7 6 -6 10 -8 -9 14 -11 12 -13 13 -15 -16 -17
leaf_value=-0.92953498582847094 0.2061979927321147 -0.031281255446396018 0.14347650404181991 -1.0680700486448929 1.4821902162206755 -0.021096773374222267 -0.094012701278617786 1.5347146011592259 0.69422842541296748 0.014195084041695338 -0.05346586192231087 0.0011697341142962614 -0.0545111655533475 -0.23350040893169111 2.2361087519494762 -0.46394605707009479
leaf_weight=136 25 26 21 62 41 28 38 66 20 28 20 23 32 24 80 20
leaf_count=136 25 26 21 62 41 28 38 66 20 28 20 23 32 24 80 20
internal_value=-0.00166667 -0.00786778 0.00210438 -0.00762032 0.0130597 -0.0202083 -0.0191667 0.0186364 0.020098 0.0117925 -0.0139423 0.00909091 -0.0177632 -0.0214286 0.0245 -0.0243902
internal_weight=690 537 297 187 67 240 120 110 153 53 104 44 76 56 100 82
internal_count=690 537 297 187 67 240 120 110 153 53 104 44 76 56 100 82
is_linear=0
shrinkage=0.05


Tree=34
num_leaves=19
num_cat=0
split_feature=22 15 22 7 2 2 2 1 14 1 2 9 1 9 2 9 9 5
split_gain=37.9983 25.2506 15.2333 16.9489 4.80001 4.43879 2.88237 2.88 1.64842 1.55473 1.28364 1.14361 1 0.214286 0.213462 0.127764 0.106977 0.0342857
threshold=60.000000000000007 3.5000000000000004 36.000000000000007 0.49690002677035122 197.50000000000003 222.50000000000003 232.50000000000003 267.50000000000006 -0.70710678118654757 197.50000000000003 172.50000000000003 15.700000000000001 300.00000000000006 20.000000000000004 212.50000000000003 23.500000000000004 16.500000000000004 16.12900888263853
decision_type=2 2 2 2 2 2 2 2 2 2 2 2 2 2 2 2 2 2
left_child=1 6 3 5 -4 -3 -1 17 -8 10 -2 -10 -9 -13 -11 -6 -7 -5
right_child=9 2 4 7 15 16 8 12 11 14 -12 13 -14 -15 -16 -17 -18 -19
leaf_value=-0.88305823653704751 0.19588809309551039 -0.029717192674075934 0.0027186658401276986 -1.0146665462126492 1.23086061260521 1.621936771402767 -0.020041934705511723 -0.017658033698398867 -0.050792568826196316 0.6005134186958202 0.013533607047585862 -0.051785607275681406 -0.089312066214685626 -0.22182538848510519 2.1253351588368687 1.457978871101264 0.95123615230525338 -1.166479061963301
leaf_weight=136 20 24 36 54 52 20 28 20 20 30 29 32 25 24 74 22 23 21
leaf_count=136 20 24 36 54 52 20 28 20 20 30 29 32 25 24 74 22 23 21
internal_value=-0.00188406 -0.00814711 0.00159933 -0.00708556 0.0163636 0.0130597 -0.0202083 -0.0183333 -0.0139423 0.020098 0.0127551 -0.0177632 -0.00833333 -0.0214286 0.0235577 0.0236486 0.0226744 -0.0243333
internal_weight=690 537 297 187 110 67 240 120 104 153 49 76 45 56 104 74 43 75
internal_count=690 537 297 187 110 67 240 120 104 153 49 76 45 56 104 74 43 75
is_linear=0
shrinkage=0.05


Tree=35
num_leaves=28
num_cat=0
split_feature=4 2 15 2 7 20 7 3 2 6 3 2 3 6 4 6 7 9 14 6 7 7 6 13 9 3 3
split_gain=15.4467 4.87842 3.35313 2.08557 2.37363 1.46914 1.54286 1.29893 1.00143 0.793981 0.729798 0.623377 1.58038 1.05281 0.881228 0.387174 0.379737 0.380952 0.360948 0.377415 0.333333 0.307583 0.298137 0.182035 0.0300752 2.22045e-16 2.22045e-16
threshold=221.14583333333337 300.00000000000006 3.5000000000000004 222.50000000000003 0.49690002677035122 0.60714285714285732 0.82065054250373815 280.41666666666674 205.00000000000003 1.3500000000000003 260.41666666666669 197.50000000000003 185.41666666666671 1.9500000000000002 171.14583333333337 1.3500000000000003 0.91156447724216172 20.000000000000004 -0.5 1.2500000000000002 0.95125306026985224 0.92619960784091615 1.7500000000000002 -1.0000000180025095e-35 17.550000000000004 170.41666666666671 225.41666666666671
decision_type=2 2 2 2 2 2 2 2 2 2 2 2 2 2 2 2 2 2 2 2 2 2 2 2 2 2 2
left_child=5 2 10 9 -5 6 -1 21 18 -4 -2 12 14 26 22 -9 17 -12 -7 -20 -21 -6 25 -17 -18 -8 -13
right_child=1 -3 3 4 7 8 11 15 -10 -11 16 13 -14 -15 -16 23 24 -19 19 20 -22 -23 -24 -25 -26 -27 -28
leaf_value=0.084273526128328058 0.061847927123159258 1.6769222301866791 -0.24821599834587574 0.90367434468999197 0.99355030809632305 -0.7102860336197836 -1.6654252018620597 -0.0027589306007882899 -0.10751344969835941 0.54514058006551236 -0.017099834054437223 -0.15473774812656915 -0.090074326730231746 0.07775194988983572 0.019673373561005292 0.59700566571352598 -0.044768313490320115 0.0016695164966193943 -0.78653133524694996 -0.71509609938395047 -0.76842063914689052 1.3850799275462009 -0.92092698657954775 1.563232373150524 -0.03902115468820995 -1.6554894532213937 -0.12411692414951717
leaf_weight=21 33 38 21 25 20 30 27 20 30 27 21 36 22 20 21 20 21 21 23 28 21 23 21 22 36 21 21
leaf_count=21 33 38 21 25 20 30 27 20 30 27 21 36 22 20 21 20 21 21 23 28 21 23 21 22 36 21 21
internal_value=-0.00195652 0.00545977 0.0033871 0.00786517 0.0111538 -0.00950292 -0.00690476 0.00785714 -0.0136364 -0.00104167 -0.00265152 -0.00833333 -0.0107143 -0.00487013 -0.00777778 0.00322581 -0.00479798 -0.00119048 -0.0112745 -0.0131944 -0.0107143 0.0145349 -0.0105072 0.00595238 -0.00745614 -0.00833333 -0.00833333
internal_weight=690 348 310 178 130 342 210 105 132 48 132 189 112 77 90 62 99 42 102 72 49 43 69 42 57 48 57
internal_count=690 348 310 178 130 342 210 105 132 48 132 189 112 77 90 62 99 42 102 72 49 43 69 42 57 48 57
is_linear=0
shrinkage=0.05


Tree=36
num_leaves=24
num_cat=0
split_feature=4 7 6 7 15 13 15 1 3 4 3 9 3 4 5 3 6 3 7 5 21 5 3
split_gain=10.282 5.02747 1.84008 1.18519 0.791146 0.752193 1.00119 2.34722 0.824127 0.75 0.706522 0.628057 0.625 0.600178 0.645315 0.311111 0.609524 0.231579 0.368421 0.138593 0.129109 0.104762 0.025
threshold=221.14583333333337 0.49690002677035122 1.9500000000000002 0.96245486997788221 3.5000000000000004 -0.25881904510252113 3.5000000000000004 205.00000000000003 220.41666666666671 185.52083333333337 276.66666666666669 16.500000000000004 260.41666666666669 181.77083333333337 15.034682127223961 215.41666666666671 1.8500000000000003 283.75000000000006 0.97041967358014236 15.980910260483412 1.5000000000000002 15.369836826003446 215.41666666666671
decision_type=2 2 2 2 2 2 2 2 2 2 2 2 2 2 2 2 2 2 2 2 2 2 2
left_child=5 10 4 -4 12 8 15 9 13 -8 -2 -6 -3 -1 -15 16 -7 -14 -19 20 -13 -22 -9
right_child=1 2 3 -5 11 6 7 22 -10 -11 -12 19 17 14 -16 -17 -18 18 -20 -21 21 -23 -24
leaf_value=-0.9347082081447845 0.81547570282717607 0.058755530767001574 0.48290912163413396 0.48606510776757261 1.0120020647814785 -0.67453180683717884 0.0011190422775015918 -0.025445779235562328 -0.10991409076368229 0.10330525900160126 1.559541087722468 0.088237010073569877 -0.21054304190255665 -0.6654948898560733 -0.36465300290296843 -0.094576742045200043 -0.42899904002211431 -0.0060045776852533095 -0.017088780235826561 0.57212940832818338 -0.0026209840707480227 0.29257322931915297 -0.065871554680370537
leaf_weight=36 20 30 27 27 36 84 30 20 31 20 26 20 33 29 30 21 21 36 21 30 20 22 20
leaf_count=36 20 30 27 27 36 84 30 20 31 20 26 20 33 29 30 21 21 36 21 30 20 22 20
internal_value=-0.00188406 0.00416667 0.00182119 0.0101852 0 -0.00804094 -0.00625 -0.00222222 -0.0111111 0.005 0.0195652 0.00273438 -0.00291667 -0.0134211 -0.0165254 -0.00912698 -0.0102381 -0.005 -0.00307018 0.000543478 -0.000806452 -0.00238095 -0.01125
internal_weight=690 348 302 54 248 342 216 90 126 50 46 128 120 95 59 126 105 90 57 92 62 42 40
internal_count=690 348 302 54 248 342 216 90 126 50 46 128 120 95 59 126 105 90 57 92 62 42 40
is_linear=0
shrinkage=0.05


Tree=37
num_leaves=15
num_cat=0
split_feature=22 15 22 7 4 2 4 3 4 4 22 2 14 9
split_gain=41.7306 25.5487 25.1561 20.7393 6.02526 3.13846 1.39522 1.20748 0.985749 0.963009 0.864865 0.79968 0.439547 0.0361248
threshold=60.000000000000007 3.5000000000000004 36.000000000000007 0.49690002677035122 236.14583333333337 232.50000000000003 211.14583333333337 260.41666666666669 206.14583333333337 270.52083333333337 36.000000000000007 157.50000000000003 0.37940952255126048 23.500000000000004
decision_type=2 2 2 2 2 2 2 2 2 2 2 2 2 2
left_child=1 5 3 4 -3 -1 -4 -7 11 13 -9 -2 -13 -5
right_child=8 2 6 9 -6 7 -8 10 -10 -11 -12 12 -14 -15
leaf_value=-0.76954418104324418 0.30052104762665127 -0.02158337159367818 0.046866838289190582 -0.9657984473258211 1.2410263644636446 -0.045562189525188049 1.1556373483315709 -0.026746363298119039 1.9172808511257118 -0.14330321660603715 -0.10429895611921723 0.075259069216514263 0.074911536937111126 -0.77261128748790364
leaf_weight=136 20 26 38 66 41 30 72 37 92 33 37 20 21 21
leaf_count=136 20 26 38 66 41 30 72 37 92 33 37 20 21 21
internal_value=-0.00130435 -0.00786778 0.00193603 -0.0092246 0.0130597 -0.02 0.0209091 -0.0134615 0.021732 -0.0216667 -0.0168919 0.0168033 0.0128049 -0.0244253
internal_weight=690 537 297 187 67 240 110 104 153 120 74 61 41 87
internal_count=690 537 297 187 67 240 110 104 153 120 74 61 41 87
is_linear=0
shrinkage=0.05


Tree=38
num_leaves=17
num_cat=0
split_feature=22 15 22 7 4 4 2 4 1 6 4 3 3 22 4 3
split_gain=39.7823 27.1414 18.9828 16.9489 6.02526 3.79991 3.13846 2.30455 1.61044 1.39724 1.21886 1.33333 1.11885 0.6 0.0402913 0.0378049
threshold=60.000000000000007 3.5000000000000004 36.000000000000007 0.49690002677035122 236.14583333333337 267.39583333333337 232.50000000000003 221.14583333333337 205.00000000000003 1.9500000000000002 198.02083333333337 186.66666666666671 260.41666666666669 36.000000000000007 211.77083333333337 237.08333333333334
decision_type=2 2 2 2 2 2 2 2 2 2 2 2 2 2 2 2
left_child=1 6 3 4 -3 15 -1 8 -4 12 11 -2 -8 -14 -12 -5
right_child=10 2 7 5 -6 -7 9 -9 -10 -11 14 -13 13 -15 -16 -17
leaf_value=-0.73106697199108206 0.24261738954569836 -0.020504203013993562 0.15182470335976178 -0.91786115808438928 1.1789750462404613 -0.1147803914905353 -0.043284080048928787 1.264988126173435 0.0065006579700138904 -0.062145739215527844 0.49651781012868668 0.064611724534836421 -0.028037236344492556 -0.085577717935105116 1.8643549812587255 -0.46907779768691288
leaf_weight=136 30 26 21 62 41 38 22 66 23 22 20 20 30 30 83 20
leaf_count=136 30 26 21 62 41 38 22 66 23 22 20 20 30 30 83 20
internal_value=-0.00108696 -0.00749534 0.00260943 -0.00708556 0.0130597 -0.0183333 -0.02 0.0190909 0.0102273 -0.0134615 0.0214052 0.015 -0.0164634 -0.02 0.0245146 -0.0243902
internal_weight=690 537 297 187 67 120 240 110 44 104 153 50 82 60 103 82
internal_count=690 537 297 187 67 120 240 110 44 104 153 50 82 60 103 82
is_linear=0
shrinkage=0.05


Tree=39
num_leaves=26
num_cat=0
split_feature=4 15 2 7 20 7 2 7 6 6 3 6 3 3 3 13 13 3 9 2 4 0 7 4 4
split_gain=12.3094 4.4174 3.08833 2.96187 0.949343 1.90476 1.64848 0.994978 0.793981 0.672222 0.625 0.471563 0.757423 0.463768 0.828157 0.454119 0.456316 0.349264 0.632507 0.342938 0.298137 0.231579 0.368421 2.22045e-16 2.22045e-16
threshold=221.14583333333337 3.5000000000000004 222.50000000000003 0.49690002677035122 0.60714285714285732 0.82065054250373815 205.00000000000003 0.98368063778518444 1.3500000000000003 1.9500000000000002 260.41666666666669 1.8500000000000003 180.41666666666671 185.41666666666671 204.58333333333334 -0.78656609248549303 -0.25881904510252113 270.41666666666669 16.500000000000004 190.00000000000003 170.52083333333337 292.50000000000006 0.97041967358014236 163.64583333333337 214.27083333333337
decision_type=2 2 2 2 2 2 2 2 2 2 2 2 2 2 2 2 2 2 2 2 2 2 2 2 2
left_child=4 9 8 -4 5 -1 7 19 -3 10 -2 13 -13 20 -15 -5 -17 -18 -19 -6 23 -12 -23 -7 -16
right_child=1 2 3 15 6 11 -8 -9 -10 -11 21 12 -14 14 24 16 17 18 -20 -21 -22 22 -24 -25 -26
leaf_value=0.076998965602217598 0.060260067707355348 -0.27447460483955693 1.1200262939284387 0.47857033710001251 -0.63889946634008232 -1.4733967937753818 -0.080721764480207986 -0.63673639939268156 0.34625217409791276 0.080906160932482873 -0.19052205610471162 -0.327617005859905 0.033824184370124043 -0.11334280058815836 -0.03815168318806457 0.16883544909227624 0.9278859854996484 2.0499587327929931 0.73184000583708275 -0.040596016235858207 -1.4504522250693341 -0.0029651688188593543 -0.01349516124190302 -1.4509490125013671 -0.03738481575214081
leaf_weight=21 30 21 41 20 45 27 30 25 27 24 33 21 30 21 27 20 23 27 25 32 21 36 21 21 21
leaf_count=21 30 21 41 20 45 27 30 25 27 24 33 21 30 21 27 20 23 27 25 32 21 36 21 21 21
internal_value=-0.00130435 0.00531609 0.010049 0.0134615 -0.00804094 -0.00595238 -0.0113636 -0.00833333 -0.00104167 -0.00138889 -0.00291667 -0.00753968 -0.00343137 -0.00905797 -0.0119565 0.00934783 0.0107895 0.009 0.00673077 -0.00551948 -0.00615942 -0.005 -0.00307018 -0.00833333 -0.00833333
internal_weight=690 348 204 156 342 210 132 102 48 144 120 189 51 138 69 115 95 75 52 77 69 90 57 48 48
internal_count=690 348 204 156 342 210 132 102 48 144 120 189 51 138 69 115 95 75 52 77 69 90 57 48 48
is_linear=0
shrinkage=0.05


Tree=40
num_leaves=22
num_cat=0
split_feature=4 8 2 15 2 2 15 9 2 4 4 14 9 5 6 8 5 4 4 2 0
split_gain=10.0246 4.74996 2.38866 1.38453 0.771491 1.89394 1.42712 1.39324 1.21362 0.873661 0.706522 0.583649 0.52541 0.309191 0.203125 0.147996 0.128571 0.0523708 0.0280112 0.0213218 8.88178e-16
threshold=221.14583333333337 -0.60946782647798781 312.50000000000006 3.5000000000000004 205.00000000000003 222.50000000000003 3.5000000000000004 15.700000000000001 172.50000000000003 206.14583333333337 277.39583333333337 -0.60355339059327384 17.550000000000004 15.369836826003477 1.8500000000000003 -0.47002257592586733 13.430915559023687 274.89583333333337 289.89583333333337 252.50000000000003 187.50000000000003
decision_type=2 2 2 2 2 2 2 2 2 2 2 2 2 2 2 2 2 2 2 2 2
left_child=4 10 3 11 6 -6 14 -8 -9 -10 -2 -3 19 16 20 -14 -13 -17 -15 -5 -1
right_child=1 2 -4 12 5 -7 7 8 9 -11 -12 13 15 18 -16 17 -18 -19 -20 -21 -22
leaf_value=-1.3781655878460832 0.59770053245418786 0.023665231927617471 0.46066205604486754 0.32893956539301716 -0.13401744055614415 -0.043922510367325175 0.073149017322106144 -0.11271717048183234 0.05101101563212751 -0.63081511654791322 1.3045626481047152 -0.025197873084685796 0.37246134152747179 -0.18874205066461941 -0.41004747740800696 -0.024445956009944328 0.004773707979123288 0.045130020301554913 -0.023332425253892099 0.88149168622466623 -0.31040964351431061
leaf_weight=54 20 36 22 22 20 24 20 37 23 26 26 24 32 30 36 37 21 20 21 37 102
leaf_count=54 20 36 22 22 20 24 20 37 23 26 26 24 32 30 36 37 21 20 21 37 102
internal_value=-0.00137681 0.0045977 0.00231788 0.00107143 -0.00745614 -0.0136364 -0.00654362 -0.00188679 -0.00465116 0.000510204 0.0195652 -0.00265152 0.00439189 -0.0046875 -0.00911458 0.00196629 -0.00166667 0.000438596 -0.00735294 0.00805085 -0.00833333
internal_weight=690 348 302 280 342 44 298 106 86 49 46 132 148 96 192 89 45 57 51 59 156
internal_count=690 348 302 280 342 44 298 106 86 49 46 132 148 96 192 89 45 57 51 59 156
is_linear=0
shrinkage=0.05


Tree=41
num_leaves=16
num_cat=0
split_feature=22 15 22 7 4 3 14 9 4 1 1 4 4 3 5
split_gain=44.1375 24.0232 25.9207 20.7393 6.02526 2.41449 2.2257 1.23216 0.963009 0.906554 0.78652 0.619799 0.35487 0.651215 0.0361248
threshold=60.000000000000007 3.5000000000000004 36.000000000000007 0.49690002677035122 236.14583333333337 211.66666666666671 -0.70710678118654757 15.700000000000001 270.52083333333337 227.50000000000003 205.00000000000003 259.27083333333337 206.14583333333337 190.41666666666669 16.250696752063799
decision_type=2 2 2 2 2 2 2 2 2 2 2 2 2 2 2
left_child=1 5 3 4 -3 -1 -7 -8 14 10 -4 -9 13 -2 -5
right_child=12 2 9 8 -6 6 7 11 -10 -11 -12 -13 -14 -15 -16
leaf_value=-0.9703493485752781 0.35298541777763576 -0.0087420326114767029 0.19654235229675976 -0.80185806278313132 1.0014317083868889 -0.023953928421774153 -0.074363375411546431 -0.29419032936125122 -0.15658405407128556 1.1565667183902804 0.034835268183316261 -0.03624947245479291 1.7274171559663429 0.10288742585309479 -0.75433591775489084
leaf_weight=102 32 26 21 66 41 36 20 48 33 67 22 34 92 29 21
leaf_count=102 32 26 21 66 41 36 20 48 33 67 22 34 92 29 21
internal_value=-0.000652174 -0.00740223 0.00210438 -0.0092246 0.0130597 -0.0191667 -0.0148551 -0.0186275 -0.0216667 0.0213636 0.0156977 -0.0213415 0.0230392 0.020082 -0.0244253
internal_weight=690 537 297 187 67 240 138 102 120 110 43 82 153 61 87
internal_count=690 537 297 187 67 240 138 102 120 110 43 82 153 61 87
is_linear=0
shrinkage=0.05


Tree=42
num_leaves=19
num_cat=0
split_feature=22 4 7 22 22 2 4 3 7 4 4 4 2 13 4 2 5 4
split_gain=41.3403 13.6039 11.494 10.9662 5.61604 4.02655 3.34999 9.01539 3.1839 2.87323 2.34962 1.85188 1.2326 1.12073 0.841724 1.00867 0.124528 0.040566
threshold=60.000000000000007 224.27083333333337 0.49690002677035122 36.000000000000007 36.000000000000007 190.00000000000003 301.14583333333337 282.08333333333343 0.49690002677035122 267.39583333333337 259.27083333333337 296.14583333333337 172.50000000000003 -0.25881904510252113 196.14583333333337 157.50000000000003 15.980910260483402 209.89583333333337
decision_type=2 2 2 2 2 2 2 2 2 2 2 2 2 2 2 2 2 2
left_child=1 4 -3 9 8 12 7 10 -1 16 -5 -11 -6 -7 15 -2 -4 -16
right_child=14 2 3 6 5 13 -8 -9 -10 11 -12 -13 -14 -15 17 -17 -18 -19
leaf_value=-0.0083049309809041464 0.39773177942837634 0.95136012296754302 -0.28148207552287946 0.057261499146693498 -1.236058782622186 -0.0048681746415610407 1.8910541992768657 -0.038509394228182718 -0.88439937292831416 0.0036878791006870418 0.90109165665036817 -0.067705313846572329 -0.52077517717184918 0.011002874006592833 0.21488080589558367 0.087995901090030776 -0.4170923738507526 1.6853594004996353
leaf_weight=26 20 41 33 38 38 22 22 24 125 30 25 32 24 37 20 27 20 86
leaf_count=26 20 41 33 38 38 22 22 24 125 30 25 32 24 37 20 27 20 86
internal_value=-0.000869565 -0.00740223 0.000660377 -0.00379464 -0.0152574 -0.0072314 0.00756881 0.00316092 -0.0216887 -0.0145652 0.0130952 -0.00725806 -0.016129 0.00211864 0.0220588 0.0164894 -0.0231132 0.0245283
internal_weight=690 537 265 224 272 121 109 87 151 115 63 62 62 59 153 47 53 106
internal_count=690 537 265 224 272 121 109 87 151 115 63 62 62 59 153 47 53 106
is_linear=0
shrinkage=0.05


Tree=43
num_leaves=27
num_cat=0
split_feature=4 7 15 20 4 4 6 4 14 3 6 6 3 3 13 0 3 3 6 0 7 6 4 14 4 3
split_gain=8.82986 4.39219 2.10155 1.71483 1.78889 1.33382 0.957021 0.890675 0.834139 0.706522 0.694444 0.672222 0.625 0.600709 0.404177 0.426491 0.724844 0.4 0.28 0.231579 0.368421 0.214286 0.134921 0.12 0.112978 2.22045e-16
threshold=221.14583333333337 0.49690002677035122 3.5000000000000004 0.60714285714285732 171.14583333333337 211.77083333333337 1.9500000000000002 201.14583333333337 -0.5 276.66666666666669 1.7500000000000002 1.9500000000000002 260.41666666666669 190.41666666666669 -0.60355339059327362 252.50000000000003 280.41666666666674 215.41666666666671 1.7500000000000002 292.50000000000006 0.97041967358014236 1.5500000000000003 160.52083333333337 0.37940952255126048 212.39583333333337 200.41666666666671
decision_type=2 2 2 2 2 2 2 2 2 2 2 2 2 2 2 2 2 2 2 2 2 2 2 2 2 2
left_child=3 9 11 4 22 7 14 10 24 -2 25 12 -3 -10 -4 -16 -17 -9 23 -14 -21 -18 -1 -15 -6 -5
right_child=1 2 6 5 8 -7 -8 17 13 -11 -12 -13 19 18 15 16 21 -19 -20 20 -22 -23 -24 -25 -26 -27
leaf_value=-0.71898579387091965 0.47017591426375421 0.02490097255771815 0.22831585019137324 -0.44410105551251466 0.12246182721523838 -0.048884289784533054 1.3581960694722341 0.0043576804805894659 0.068590151229287244 1.1416949241317582 -0.25585610696476097 0.078600647484353206 -0.15971240925551627 -0.0065642440852144547 0.26094173138702531 0.38398132825909814 0.01093044046381806 -0.067281623667057033 -0.0043679106391955715 -0.00011497438419922902 -0.012990362310137017 1.0144858106944328 -1.1991728759241227 -0.040580794521955711 0.010452730306263903 -0.50501730608370254
leaf_weight=21 20 30 30 27 23 20 30 20 24 26 24 24 33 30 30 26 21 20 20 36 21 21 51 20 21 21
leaf_count=21 20 30 30 27 23 20 30 20 24 26 24 24 33 30 30 26 21 20 20 36 21 21 51 20 21 21
internal_value=-0.000434783 0.00517241 0.00298013 -0.00614035 -0.00333333 -0.0106061 0.00696203 -0.00848214 0 0.0195652 -0.0118056 -0.00138889 -0.00291667 -0.00265957 0.00507813 0.00663265 0.00882353 -0.0025 -0.005 -0.005 -0.00307018 0.0047619 -0.00972222 -0.007 0.00568182 -0.00833333
internal_weight=690 348 302 342 210 132 158 112 138 46 72 144 120 94 128 98 68 40 70 90 57 42 72 50 44 48
internal_count=690 348 302 342 210 132 158 112 138 46 72 144 120 94 128 98 68 40 70 90 57 42 72 50 44 48
is_linear=0
shrinkage=0.05


Tree=44
num_leaves=16
num_cat=0
split_feature=22 15 22 7 4 3 14 4 4 1 6 4 4 6 14
split_gain=43.5991 23.0913 24.7116 20.2446 6.02526 2.77174 1.93414 1.25217 1.14736 1.7981 0.741994 0.869088 0.35487 0.47853 0.124113
threshold=60.000000000000007 3.5000000000000004 36.000000000000007 0.49690002677035122 236.14583333333337 211.66666666666671 -0.70710678118654757 274.89583333333337 214.27083333333337 205.00000000000003 1.8500000000000003 259.27083333333337 206.14583333333337 1.7500000000000002 -0.70710678118654757
decision_type=2 2 2 2 2 2 2 2 2 2 2 2 2 2 2
left_child=1 5 3 4 -3 -1 -7 14 9 -4 11 -8 13 -2 -5
right_child=12 2 8 7 -6 6 10 -9 -10 -11 -12 -13 -14 -15 -16
leaf_value=-0.85667972823518435 0.20770591618468473 -0.0054454699426315758 0.20905909678873513 -0.51373126374590616 0.84670737061257739 -0.021308199216774428 -0.19763108013215175 -0.14979647370973767 0.96376152015971006 0.0197526141997173 -0.071859988961881532 -0.024358341561246277 1.5760539933726621 0.11516767825558533 -0.72736720722754455
leaf_weight=102 37 26 21 24 41 36 42 26 67 22 28 32 92 24 70
leaf_count=102 37 26 21 24 41 36 42 26 67 22 28 32 92 24 70
internal_value=-0.000507246 -0.00721601 0.00210438 -0.00895722 0.0130597 -0.01875 -0.0141304 -0.02125 0.0209091 0.0145349 -0.0176471 -0.0202703 0.0230392 0.020082 -0.0239362
internal_weight=690 537 297 187 67 240 138 120 110 43 102 74 153 61 94
internal_count=690 537 297 187 67 240 138 120 110 43 102 74 153 61 94
is_linear=0
shrinkage=0.05


Tree=45
num_leaves=21
num_cat=0
split_feature=22 22 2 4 20 4 2 20 4 4 4 3 4 4 2 2 9 4 6 5
split_gain=40.3067 11.1786 14.7404 7.7886 9.83653 11.8916 4.97602 2.8398 2.29847 5.47391 1.30347 5.71164 1.22265 2.81069 0.767425 1.81736 0.743034 0.483017 0.723748 0.225
threshold=60.000000000000007 36.000000000000007 300.00000000000006 171.14583333333337 0.60714285714285732 301.14583333333337 222.50000000000003 0.34523809523809529 267.39583333333337 287.39583333333337 259.27083333333337 242.08333333333334 204.27083333333337 288.64583333333337 182.50000000000003 172.50000000000003 21.300000000000001 206.14583333333337 1.7500000000000002 15.805658498769064
decision_type=2 2 2 2 2 2 2 2 2 2 2 2 2 2 2 2 2 2 2 2
left_child=1 2 6 -3 10 12 14 -8 19 -10 11 16 -6 -14 15 -1 -5 18 -2 -9
right_child=17 3 -4 4 5 -7 7 8 9 -11 -12 -13 13 -15 -16 -17 -18 -19 -20 -21
leaf_value=-1.8305117587585209 0.19732062037545006 -1.1023234612169979 1.0590423248719787 0.088424089706509792 -0.37895386297775957 1.7307150251176269 0.16615197078682514 -0.12780154912979214 0.040524578469437245 -0.03647615618756106 0.79643320530029493 -0.13832527363389602 0.0054281029968052509 -0.034868996440428644 -0.50069877975590771 -0.77777681096301743 0.24827125302619493 1.4972512937040279 0.10940929434280521 -0.25446863359222932
leaf_weight=40 37 24 24 38 29 22 21 20 28 38 25 21 21 20 85 31 30 92 24 20
leaf_count=40 37 24 24 38 29 22 21 20 28 38 25 21 21 20 85 31 30 92 24 20
internal_value=7.24638e-05 -0.00637803 -0.0126221 0.00195652 0.00509709 -0.00706522 -0.0158127 -0.00846457 -0.0117925 -0.00606061 0.0149123 0.0120787 -0.0171429 -0.0115854 -0.0217949 -0.0179577 0.0191176 0.0227124 0.0192623 -0.02125
internal_weight=690 537 307 230 206 92 283 127 106 66 114 89 70 41 156 71 68 153 61 40
internal_count=690 537 307 230 206 92 283 127 106 66 114 89 70 41 156 71 68 153 61 40
is_linear=0
shrinkage=0.05


Tree=46
num_leaves=20
num_cat=0
split_feature=22 7 22 4 20 2 4 4 3 2 3 4 4 4 4 4 4 9 4
split_gain=39.6617 16.5696 18.8255 5.87203 5.49236 7.66519 5.07967 2.95392 3.78125 3.46196 6.9592 2.84788 1.90807 5.72324 1.2248 0.633686 1.29078 0.481541 0.040566
threshold=60.000000000000007 0.49690002677035122 36.000000000000007 301.14583333333337 0.60714285714285732 157.50000000000003 267.39583333333337 261.14583333333337 242.08333333333334 212.50000000000003 201.66666666666671 236.14583333333337 201.14583333333337 213.64583333333337 296.14583333333337 196.14583333333337 172.39583333333337 24.300000000000004 209.89583333333337
decision_type=2 2 2 2 2 2 2 2 2 2 2 2 2 2 2 2 2 2 2
left_child=1 11 6 4 5 -4 17 8 9 10 -7 -1 -6 -14 -8 16 -2 -3 -17
right_child=15 2 3 -5 12 7 14 -9 -10 -11 -12 -13 13 -15 -16 18 -18 -19 -20
leaf_value=0.019861742542295249 0.36484513269803359 -0.66426466176495402 -1.0698746613126346 1.6441792738617467 -0.40770387344842335 0.10785071761157639 -0.00012105747159694147 0.7925468884655118 -0.093268858733547691 0.49560199441650354 -0.0043564857211734424 0.80234577315847566 0.015108607623236027 -0.033125546618407498 -0.059193105976780208 0.18556107205272385 0.11738810182335442 -0.40216672372795731 1.4477537995381753
leaf_weight=26 26 150 20 22 24 26 30 22 24 26 20 41 20 26 32 20 21 28 86
leaf_count=26 26 150 20 22 24 26 30 22 24 26 20 41 20 26 32 20 21 28 86
internal_value=-7.24638e-05 -0.00647114 -0.00978723 0.000434783 -0.00216346 0.00362319 -0.0195833 0.00847458 0.0046875 0.0104167 0.00217391 0.016791 -0.0135714 -0.0076087 -0.00725806 0.0223856 0.0175532 -0.0238764 0.0245283
internal_weight=690 537 470 230 208 138 240 118 96 72 46 67 70 46 62 153 47 178 106
internal_count=690 537 470 230 208 138 240 118 96 72 46 67 70 46 62 153 47 178 106
is_linear=0
shrinkage=0.05


Tree=47
num_leaves=19
num_cat=0
split_feature=22 15 22 7 4 3 4 6 4 1 5 22 4 4 4 6 9 9
split_gain=34.2214 25.7944 19.6872 22.0949 3.48036 3.47588 1.42214 1.1936 1.10455 1.68083 1.10149 0.857143 0.814921 0.815331 0.696029 0.314647 0.255663 0.108374
threshold=60.000000000000007 3.5000000000000004 36.000000000000007 0.82065054250373815 236.14583333333337 215.41666666666671 267.39583333333337 1.9500000000000002 221.14583333333337 205.00000000000003 15.369836826003477 36.000000000000007 219.27083333333337 172.39583333333337 197.39583333333337 1.8500000000000003 20.000000000000004 23.500000000000004
decision_type=2 2 2 2 2 2 2 2 2 2 2 2 2 2 2 2 2 2
left_child=1 5 3 4 -3 17 15 10 9 -4 11 -7 13 -2 -15 -5 -12 -1
right_child=12 2 8 6 -6 7 -8 -9 -10 -11 16 -13 -14 14 -16 -17 -18 -19
leaf_value=-0.70415183106233892 0.34660287606313323 0.018868655415181481 0.18879240158339317 -0.74246042955993097 0.68559865377453377 -0.00077309290111315931 -0.13752318691603449 -0.0060257697071548939 0.79627285161918593 0.016064863828916032 -0.15340296910789136 -0.026623033046570301 1.4353303968312021 0.095989586758284423 0.17438950114613194 -0.44571257795145131 -0.080582383284271947 -0.46583259985693748
leaf_weight=88 26 29 21 58 43 21 36 24 66 23 24 21 71 23 33 21 34 28
leaf_count=88 26 29 21 58 43 21 36 24 66 23 24 21 71 23 33 21 34 28
internal_value=0.000217391 -0.00572626 0.00412458 -0.00574866 0.0159722 -0.0179167 -0.0193478 -0.0120968 0.0209091 0.0147727 -0.0145 -0.00833333 0.0210784 0.0176829 0.0142857 -0.0231013 -0.0189655 -0.0241379
internal_weight=690 537 297 187 72 240 115 124 110 44 100 42 153 82 56 79 58 116
internal_count=690 537 297 187 72 240 115 124 110 44 100 42 153 82 56 79 58 116
is_linear=0
shrinkage=0.05


Tree=48
num_leaves=18
num_cat=0
split_feature=22 15 22 7 3 4 2 3 22 22 4 5 4 1 3 2 2
split_gain=28.0949 19.8449 19.6872 21.2174 4.91305 2.84788 2.4381 1.68047 3.0625 1.94595 1.44875 1.11031 1.10455 1.68083 1.03285 0.51585 0.320856
threshold=60.000000000000007 3.5000000000000004 36.000000000000007 0.49690002677035122 211.66666666666671 236.14583333333337 222.50000000000003 260.41666666666669 36.000000000000007 36.000000000000007 219.27083333333337 16.250696752063799 221.14583333333337 205.00000000000003 276.66666666666669 182.50000000000003 182.50000000000003
decision_type=2 2 2 2 2 2 2 2 2 2 2 2 2 2 2 2 2
left_child=1 4 3 5 16 -3 -5 8 -6 -9 11 15 13 -4 -8 -2 -1
right_child=10 2 12 6 7 -7 14 9 -10 -11 -12 -13 -14 -15 -16 -17 -18
leaf_value=-0.91085113781948557 0.20715749843500078 0.017925222644421979 0.17935278150422393 -0.79064529036954534 -0.26960680295388217 0.72794855181182361 -0.018704785024000616 -0.0094069189057790943 0.0071122903817808954 -0.081185427910870092 1.3635638769896419 0.090156322279661083 0.75645920903822772 0.015261620637471652 -0.29281619487415472 0.16945706069673463 -0.12874162343403059
leaf_weight=80 37 26 21 64 32 41 22 37 32 37 71 20 66 23 34 25 22
leaf_count=80 37 26 21 64 32 41 22 37 32 37 71 20 66 23 34 25 22
internal_value=0.000869565 -0.00451583 0.00412458 -0.00574866 -0.0152083 0.016791 -0.0183333 -0.00905797 -0.003125 -0.0141892 0.0197712 0.0152439 0.0209091 0.0147727 -0.0107143 0.0185484 -0.0235294
internal_weight=690 537 297 187 240 67 120 138 64 74 153 82 110 44 56 62 102
internal_count=690 537 297 187 240 67 120 138 64 74 153 82 110 44 56 62 102
is_linear=0
shrinkage=0.05


Tree=49
num_leaves=21
num_cat=0
split_feature=22 7 22 2 2 20 4 4 2 0 2 6 14 21 2 4 4 6 4 1
split_gain=25.152 13.9011 15.5569 8.56065 6.2646 7.64948 11.4919 2.84788 2.14753 2.03955 5.86081 1.52071 2.57314 1.71958 1.4881 1.37143 3.11688 1.16349 0.52381 0.458009
threshold=60.000000000000007 0.49690002677035122 36.000000000000007 222.50000000000003 157.50000000000003 0.60714285714285732 301.14583333333337 236.14583333333337 222.50000000000003 235.00000000000003 242.50000000000003 1.2500000000000002 -0.60355339059327384 1.5000000000000002 157.50000000000003 203.64583333333337 288.64583333333337 1.6500000000000001 218.64583333333337 197.50000000000003
decision_type=2 2 2 2 2 2 2 2 2 2 2 2 2 2 2 2 2 2 2 2
left_child=1 7 3 -3 -4 9 15 -1 14 18 -11 -5 -13 -14 -2 -7 -17 -16 19 -6
right_child=8 2 4 11 5 6 -8 -9 -10 10 -12 12 13 -15 17 16 -18 -19 -20 -21
leaf_value=0.017028961512201592 0.35961755501402026 -0.6659733624034474 -0.93563077980291076 0.0015531568075616065 0.15722338574470884 -0.26464296006456395 1.4843337071357894 0.69155112422123188 1.2949915762056408 -0.081895239188807534 0.65581969056395062 0.021584681883881275 -0.20221198906927784 -0.030527730383036557 0.12360825174773425 0.0086667414240395157 -0.02541093618829109 0.06619572904232314 0.39318529166280886 0.0082577710514193832
leaf_weight=26 20 132 20 32 22 28 22 41 69 26 28 22 26 28 33 22 20 31 22 20
leaf_count=26 20 132 20 32 22 28 22 41 69 26 28 22 26 28 33 22 20 31 22 20
internal_value=0.00057971 -0.00451583 -0.00755319 -0.0164583 0.00173913 0.00428571 -0.00652174 0.016791 0.0184641 0.0127119 0.00555556 -0.00601852 -0.00986842 -0.0157407 0.0130952 -0.0164286 -0.0107143 0.009375 0.01875 0.0154762
internal_weight=690 537 470 240 230 210 92 67 153 118 54 108 76 54 84 70 42 64 64 42
internal_count=690 537 470 240 230 210 92 67 153 118 54 108 76 54 84 70 42 64 64 42
is_linear=0
shrinkage=0.05


Tree=50
num_leaves=27
num_cat=0
split_feature=2 7 13 3 13 6 4 3 15 4 3 2 0 6 5 21 7 3 15 4 5 13 9 4 9 1
split_gain=12.9869 4.34638 2.58727 1.83023 1.80146 1.71831 1.69543 1.57992 1.49482 2.00208 0.967151 1.49099 0.920731 0.681488 0.601186 0.58991 0.511605 0.431891 0.403333 0.4 0.333584 0.223591 0.204969 0.132275 0.106977 0.0342857
threshold=222.50000000000003 0.49690002677035122 -0.25881904510252113 200.41666666666671 -0.78656609248549303 1.9500000000000002 252.39583333333337 271.66666666666669 3.5000000000000004 209.89583333333337 221.25000000000003 172.50000000000003 227.50000000000003 1.8500000000000003 14.663364294067163 1.5000000000000002 0.88212594187618454 297.08333333333343 3.5000000000000004 224.27083333333337 15.946866031665435 0.37940952255126054 18.700000000000006 213.64583333333337 16.500000000000004 197.50000000000003
decision_type=2 2 2 2 2 2 2 2 2 2 2 2 2 2 2 2 2 2 2 2 2 2 2 2 2 2
left_child=2 24 3 20 18 6 -6 14 9 13 11 -10 23 25 -8 -7 -13 22 -3 -12 -1 -19 -9 -5 -2 -4
right_child=1 4 8 12 5 15 7 17 10 -11 19 16 -14 -15 -16 -17 -18 21 -20 -21 -22 -23 -24 -25 -26 -27
leaf_value=-0.66499065336045227 0.83925852516128863 -0.033512037269451865 -0.51061078260418713 -0.28305549555823578 -0.080579315987432676 0.014065202534393962 0.066771155584741851 0.0045004129748804191 -0.052702466351749425 0.013814168123024474 -0.20417365919798131 0.10239129201373204 -0.074100521321572896 -0.12397774707968381 0.070868791233363024 0.38635081148677558 0.095907277316894135 0.20324647452374336 0.2582683773301625 0.0032962801046579671 -0.052722917879017929 0.012693859799799158 -0.005023766281712483 -0.02445888552357758 0.19382591505578831 -0.14929277487827761
leaf_weight=35 20 30 54 21 31 25 22 23 29 24 20 25 25 21 23 34 22 21 20 20 22 31 21 27 23 21
leaf_count=35 20 30 54 21 31 25 22 23 29 24 20 25 25 21 23 34 22 21 20 20 22 31 21 27 23 21
internal_value=0.00057971 0.00787037 -0.00587432 -0.0115385 0.00560498 0.00746753 0.00494186 0.0072695 -0.00275424 -0.00666667 0.0012931 0.00460526 -0.0167808 -0.00989583 0.015 0.0148305 0.0101064 0.00364583 -0.003 -0.005 -0.00482456 0.00673077 0 -0.0208333 0.0226744 -0.00766667
internal_weight=690 324 366 130 281 231 172 141 236 120 116 76 73 96 45 59 47 96 50 40 57 52 44 48 43 75
internal_count=690 324 366 130 281 231 172 141 236 120 116 76 73 96 45 59 47 96 50 40 57 52 44 48 43 75
is_linear=0
shrinkage=0.05


Tree=51
num_leaves=21
num_cat=0
split_feature=22 15 22 7 4 4 2 2 14 2 13 4 3 4 4 4 4 4 9 3
split_gain=25.152 22.2326 20.6465 20.717 4.225 2.84788 2.75238 2.14753 2.08333 1.4881 1.64091 1.40076 1.39811 0.848485 1.24675 0.534545 0.692078 0.265152 0.125 0.104762
threshold=60.000000000000007 3.5000000000000004 36.000000000000007 0.49690002677035122 206.14583333333337 236.14583333333337 222.50000000000003 222.50000000000003 -0.70710678118654757 157.50000000000003 -0.25881904510252113 193.02083333333337 276.66666666666669 259.27083333333337 217.39583333333337 224.89583333333337 204.89583333333337 291.14583333333337 23.500000000000004 260.41666666666669
decision_type=2 2 2 2 2 2 2 2 2 2 2 2 2 2 2 2 2 2 2 2
left_child=1 4 3 5 18 -3 -5 9 -6 -2 -11 -12 -8 14 -10 16 -4 -15 -1 -16
right_child=7 2 15 6 8 -7 12 -9 13 10 11 -13 -14 17 19 -17 -18 -19 -20 -21
leaf_value=-0.72450314385187298 0.36199376296928709 0.011057948835903631 0.063004472602912642 -0.71773204393881407 -0.0014612567826361557 0.61501064175210451 -0.0083622064460556096 1.2304931857094461 -0.041371677361793507 -0.0034416396912277493 0.090063028444230045 0.16582550680534497 -0.27802183682530596 -0.007920262250084421 -0.07950615090481819 0.72109856586947674 0.062203428264034244 -0.018165640032827925 -0.53969297821213047 -0.18429763099208005
leaf_weight=72 20 26 28 64 36 41 22 69 24 20 20 24 34 22 20 60 22 20 24 22
leaf_count=72 20 26 28 64 36 41 22 69 24 20 20 24 34 22 20 60 22 20 24 22
internal_value=0.00057971 -0.00451583 0.00462963 -0.00548128 -0.0158333 0.016791 -0.0179167 0.0184641 -0.0104167 0.0130952 0.009375 0.0147727 -0.00982143 -0.0138889 -0.0174242 0.0218182 0.018 -0.00833333 -0.0239583 -0.022619
internal_weight=690 537 297 187 240 67 120 153 144 84 64 44 56 108 66 110 50 42 96 42
internal_count=690 537 297 187 240 67 120 153 144 84 64 44 56 108 66 110 50 42 96 42
is_linear=0
shrinkage=0.05


Tree=52
num_leaves=21
num_cat=0
split_feature=22 15 22 7 2 2 4 2 14 2 4 4 22 4 20 4 14 14 5 4
split_gain=25.3562 16.555 17.4633 15.197 5.41875 3.80952 3.29022 2.14753 1.99375 1.4881 1.30411 1.12902 4.66667 1.18259 0.825 0.806565 0.634921 0.572511 0.857143 0.0306699
threshold=60.000000000000007 3.5000000000000004 36.000000000000007 0.49690002677035122 182.50000000000003 222.50000000000003 242.39583333333337 222.50000000000003 -0.70710678118654757 157.50000000000003 225.52083333333337 259.27083333333337 36.000000000000007 218.64583333333337 0.47619047619047622 201.14583333333337 -0.5 -0.12940952255126037 14.811619019236765 264.89583333333337
decision_type=2 2 2 2 2 2 2 2 2 2 2 2 2 2 2 2 2 2 2 2
left_child=1 4 3 6 -1 -5 -3 9 14 -2 15 13 -13 -10 -6 -4 -7 -11 -19 -12
right_child=7 2 10 5 8 16 -8 -9 11 17 19 12 -14 -15 -16 -17 -18 18 -20 -21
leaf_value=-0.76964875247693953 0.34389407482082252 0.010505051394108024 0.14513187255319906 -0.68184544174187212 0.019863338369586359 -0.01325910646802555 0.77123702965696461 1.1689685264239729 -0.07868359321792795 0.10844585541393031 0.42088447870055462 0.0022192534085974103 -0.019278801836387062 -0.13840528725611706 -0.014214210267455486 0.010211718777529201 -0.11349504122486707 0.098549833754506724 -0.00029624647164041564 1.0381150644481836
leaf_weight=80 20 36 22 64 24 20 31 69 36 22 21 21 21 38 20 29 36 21 21 38
leaf_count=80 20 36 22 64 24 20 31 69 36 22 21 21 21 38 20 29 36 21 21 38
internal_value=0.000507246 -0.00460894 0.00328283 -0.00601604 -0.014375 -0.0166667 0.0130597 0.0184641 -0.0090625 0.0130952 0.0190909 -0.0125 -0.00595238 -0.0162162 0 0.0132353 -0.00714286 0.009375 0.00595238 0.0241525
internal_weight=690 537 297 187 240 120 67 153 160 84 110 116 42 74 44 51 56 64 42 59
internal_count=690 537 297 187 240 120 67 153 160 84 110 116 42 74 44 51 56 64 42 59
is_linear=0
shrinkage=0.05


Tree=53
num_leaves=21
num_cat=0
split_feature=22 2 22 7 20 7 2 2 4 2 4 1 4 22 4 0 6 9 5 7
split_gain=22.0826 11.0114 8.26492 8.10497 5.61039 4.36504 3.56518 3.10559 4.05392 2.63505 2.69829 2.56397 2.04971 1.88185 3.90789 9.075 1.5682 1.31688 1.18218 0.568443
threshold=60.000000000000007 242.50000000000003 36.000000000000007 0.49690002677035122 0.34523809523809529 0.49690002677035122 222.50000000000003 157.50000000000003 185.52083333333337 190.00000000000003 213.64583333333337 252.50000000000003 214.27083333333337 36.000000000000007 301.14583333333337 275.00000000000006 1.6500000000000001 20.000000000000004 15.070743934340937 0.95125306026985224
decision_type=2 2 2 2 2 2 2 2 2 2 2 2 2 2 2 2 2 2 2 2
left_child=1 2 3 -1 17 -3 -5 -6 -9 -10 -11 12 16 18 15 -15 -2 -4 -7 -20
right_child=11 5 4 6 7 13 -8 8 9 10 -12 -13 -14 14 -16 -17 -18 -19 19 -21
leaf_value=0.012001087596644311 0.15213111038027877 0.73267517817411665 0.011655842432955411 -0.56051808229625377 -0.79764405705926222 0.0050727116573455085 -0.0912337427625559 0.093608883436107959 -0.22300375195991082 0.0093453323088752427 -0.068610578996772628 1.1108267996973098 -0.0062360935150522325 0.55866237565048782 1.3119940165369315 -0.021450324067281201 0.10789581521108005 0.031628041382496974 -0.026364469830282646 -0.046671299682009254
leaf_weight=35 39 32 20 132 20 29 28 26 20 24 22 59 20 24 22 30 35 22 22 29
leaf_count=35 39 32 20 132 20 29 28 26 20 24 22 59 20 24 22 30 35 22 22 29
internal_value=7.24638e-05 -0.00470205 -0.00995702 -0.0167949 -0.0012987 0.00505319 -0.0215625 -0.00714286 -0.00326087 -0.00984848 -0.00326087 0.0168301 0.0117021 0.00160256 0.00723684 0 0.0155405 0.0142857 -0.00375 -0.00833333
internal_weight=690 537 349 195 154 188 160 112 92 66 46 153 94 156 76 54 74 42 80 51
internal_count=690 537 349 195 154 188 160 112 92 66 46 153 94 156 76 54 74 42 80 51
is_linear=0
shrinkage=0.05


Tree=54
num_leaves=22
num_cat=0
split_feature=22 15 22 7 3 4 4 4 4 4 3 14 3 6 9 7 9 6 4 3 6
split_gain=21.6059 15.2443 15.6178 15.197 4.41961 3.29022 2.8926 2.47966 2.50464 2.10144 1.7127 2.05382 1.69553 1.44644 1.23985 0.773244 0.701546 0.587979 0.1 0.0371795 0.0330508
threshold=60.000000000000007 3.5000000000000004 36.000000000000007 0.49690002677035122 211.66666666666671 242.39583333333337 267.39583333333337 249.89583333333337 216.14583333333337 225.52083333333337 260.41666666666669 0.25881904510252057 283.75000000000006 1.6500000000000001 21.300000000000001 0.95125306026985224 23.500000000000004 1.7500000000000002 191.77083333333337 201.66666666666671 1.7500000000000002
decision_type=2 2 2 2 2 2 2 2 2 2 2 2 2 2 2 2 2 2 2 2 2
left_child=1 4 3 5 16 -3 17 8 13 14 11 -6 -12 18 -4 -14 19 -5 -2 -1 -11
right_child=7 2 9 6 10 -7 -8 -9 -10 20 12 -13 15 -15 -16 -17 -18 -19 -20 -21 -22
leaf_value=-0.71216334778779433 0.29128256484703174 0.0093797444445726796 0.0092338662232066323 -0.53007511630992643 0.0046375766119084007 0.69604141926540997 -0.099002607558338701 1.0552101592207634 -0.0048072545403329064 0.52208036370260513 -0.13145727607772245 -0.0065299464955288046 -0.0018042087604669633 0.11454902409920464 0.092866280890299899 -0.019082049261167813 -0.46508585111810063 -0.28364770025539771 0.11501861044008024 -0.20334722881471309 1.2084256950743282
leaf_weight=58 20 36 31 54 36 31 38 55 21 39 28 28 26 37 20 20 24 28 20 20 20
leaf_count=58 20 36 31 54 36 31 38 55 21 39 28 28 26 37 20 20 24 28 20 20 20
internal_value=-7.24638e-05 -0.00479516 0.00277778 -0.00601604 -0.0141667 0.0130597 -0.0166667 0.0165033 0.0117347 0.0177273 -0.00833333 -0.00234375 -0.0135135 0.0159091 0.0102941 -0.0076087 -0.0220588 -0.0219512 0.0225 -0.024359 0.0241525
internal_weight=690 537 297 187 240 67 120 153 98 110 138 64 74 77 51 46 102 82 40 78 59
internal_count=690 537 297 187 240 67 120 153 98 110 138 64 74 77 51 46 102 82 40 78 59
is_linear=0
shrinkage=0.05


Tree=55
num_leaves=22
num_cat=0
split_feature=22 2 22 7 2 2 22 2 2 14 2 3 4 4 4 20 4 6 2 6 4
split_gain=21.9853 9.64583 5.74701 7.4014 5.38898 5.18971 3.49807 4.29008 8.33681 3.32082 2.73745 2.75068 2.77376 2.47966 2.50464 2.39358 3.32458 2.03469 1.53358 1.44644 0.1
threshold=60.000000000000007 212.50000000000003 36.000000000000007 0.49690002677035122 300.00000000000006 182.50000000000003 36.000000000000007 285.00000000000006 272.50000000000006 -0.12940952255126037 222.50000000000003 256.25000000000006 267.39583333333337 249.89583333333337 216.14583333333337 0.34523809523809529 259.89583333333337 1.4500000000000002 172.50000000000003 1.6500000000000001 191.77083333333337
decision_type=2 2 2 2 2 2 2 2 2 2 2 2 2 2 2 2 2 2 2 2 2
left_child=1 2 3 -1 6 18 10 8 15 -7 -3 -12 -13 14 19 -8 -17 -14 -4 20 -2
right_child=13 4 5 -5 -6 9 7 -9 -10 -11 11 12 17 -15 -16 16 -18 -19 -20 -21 -22
leaf_value=0.018596169774875194 0.27671843660467915 -0.56158576515415182 -0.67629436699658785 -0.50064121647286164 0.69414267903221549 0.033108600841011082 0.28907594556541766 1.2133733475915307 -0.020017747522808806 -0.002065170437511199 0.022007776910335508 -0.16594919355387391 0.0046449516026200403 1.0024496512597239 -0.0045668918133173978 -0.070158524645408712 0.35886777585394897 -0.094052477180420632 -0.18281268872913686 0.10882157289424299 0.10926767991807651
leaf_weight=22 20 26 38 108 32 22 26 22 24 24 34 27 38 55 21 26 20 28 20 37 20
leaf_count=22 20 26 38 108 32 22 26 22 24 24 34 27 38 55 21 26 20 28 20 37 20
internal_value=-0.000217391 -0.00498138 -0.0126068 -0.0196154 0.000907591 -0.00384615 -0.00138376 0.00508475 0.000520833 0.00869565 -0.00637255 -0.00334646 -0.0077957 0.0165033 0.0117347 0.00902778 0.00217391 -0.00227273 -0.0137931 0.0159091 0.0225
internal_weight=690 537 234 130 303 104 271 118 96 46 153 127 93 153 98 72 46 66 58 77 40
internal_count=690 537 234 130 303 104 271 118 96 46 153 127 93 153 98 72 46 66 58 77 40
is_linear=0
shrinkage=0.05


Tree=56
num_leaves=24
num_cat=0
split_feature=2 2 5 15 7 13 4 20 2 13 2 5 7 15 9 2 3 4 3 9 2 5 0
split_gain=8.85018 3.89205 1.87984 2.05391 1.40695 1.31364 1.07821 0.984531 0.764893 0.568926 1.38028 1.32354 0.527829 0.371607 0.351619 0.301042 0.274524 0.219608 0.154429 0.119134 0.118788 0.0964286 0.0113821
threshold=222.50000000000003 300.00000000000006 15.369836826003477 3.5000000000000004 0.82065054250373815 -1.0000000180025095e-35 239.89583333333337 0.60714285714285732 252.50000000000003 -0.25881904510252113 197.50000000000003 15.034682127223961 0.98368063778518444 3.5000000000000004 21.300000000000001 285.00000000000006 228.33333333333334 212.39583333333337 289.16666666666669 18.700000000000006 190.00000000000003 15.963888146074423 172.50000000000003
decision_type=2 2 2 2 2 2 2 2 2 2 2 2 2 2 2 2 2 2 2 2 2 2 2
left_child=4 2 3 5 -1 -2 -4 9 -8 11 19 -6 14 -13 20 -5 17 -12 -10 22 -9 -20 -11
right_child=1 -3 6 15 7 -7 8 12 18 10 16 13 -14 -15 -16 -17 -18 -19 21 -21 -22 -23 -24
leaf_value=0.01766636128613186 0.0076358137017891181 0.69233887581067965 0.031113543748084282 0.30586551774221393 -0.17019943056847567 -0.0048897622276925295 -0.083240347734451353 -0.17367205429267971 0.0431541582804357 -0.64953935757020254 0.0091857414386609555 -0.02513916108109129 -0.11045938168717484 0.026253253278606083 -0.10601680357489372 0.36293500543856683 -0.032459952403868897 0.02815933044072523 -0.00099156271580795878 -0.70566822768595971 -0.046880209994583311 0.0029158750895902589 -0.070020552605737404
leaf_weight=32 30 38 26 40 32 36 35 30 39 21 30 27 28 22 28 24 20 21 21 30 25 35 20
leaf_count=32 30 38 26 40 32 36 35 30 39 21 30 27 28 22 28 24 20 21 21 30 25 35 20
internal_value=0 0.00601852 0.00402098 0.00846154 -0.00532787 0.00227273 0.000320513 -0.00628743 -0.00153846 -0.0043722 -0.00246479 -0.00771605 -0.0101351 -0.00255102 -0.00813253 0.0148438 0.00246479 0.00441176 0.000789474 -0.00739437 -0.0104545 -0.000892857 -0.00914634
internal_weight=690 324 286 130 366 66 156 334 130 223 142 81 111 49 83 64 71 51 95 71 55 56 41
internal_count=690 324 286 130 366 66 156 334 130 223 142 81 111 49 83 64 71 51 95 71 55 56 41
is_linear=0
shrinkage=0.05


Tree=57
num_leaves=21
num_cat=0
split_feature=22 7 15 22 2 2 3 13 13 13 3 4 4 6 9 15 7 13 9 5
split_gain=22.1159 13.6142 10.1541 18.7042 8.37189 4.00417 9.44239 2.56824 2.1819 2.49428 1.86911 4.92982 1.81858 1.52774 1.31688 0.772496 0.66628 0.643752 0.231818 0.0361111
threshold=36.000000000000007 0.49690002677035122 3.5000000000000004 60.000000000000007 222.50000000000003 182.50000000000003 255.41666666666671 0.60355339059327384 -0.78656609248549303 -1.0000000180025095e-35 255.41666666666671 214.89583333333337 225.52083333333337 1.6500000000000001 20.000000000000004 3.5000000000000004 0.88212594187618454 0.60355339059327384 23.500000000000004 16.250696752063799
decision_type=2 2 2 2 2 2 2 2 2 2 2 2 2 2 2 2 2 2 2 2
left_child=1 7 3 5 18 -2 14 -1 -6 -10 11 13 16 -5 -7 -11 -4 -18 -3 -14
right_child=2 4 12 10 8 6 -8 -9 9 15 -12 -13 19 -15 -16 -17 17 -19 -20 -21
leaf_value=0.21665398994092869 -0.46046088321541279 -0.47470847333076027 0.064619451633662103 0.17890130298620477 -0.14853824169714613 0.0040553135839452642 -0.080236577869418124 0.012366211383357495 0.017038684893638845 -0.0010803550183851485 0.95109463626794766 -0.0054696573929746252 0.65010326048067102 0.085742624171186332 0.020793383138553168 -0.18482508562651676 0.10249217853897222 0.087049882941181531 -0.45736765867306989 1.1716958711741143
leaf_weight=32 40 102 24 37 20 22 38 35 30 28 38 20 52 25 20 30 22 25 30 20
leaf_count=32 40 102 24 37 20 22 38 35 30 28 38 20 52 25 20 30 22 25 30 20
internal_value=0.000144928 -0.00985342 0.00815927 0.001875 -0.0154167 -0.0120833 -0.005625 0.0100746 -0.00509259 -0.00170455 0.0158333 0.0115854 0.0187063 0.0185484 0.0107143 -0.00775862 0.0130282 0.0164894 -0.0238636 0.0243056
internal_weight=690 307 383 240 240 120 80 67 108 88 120 82 143 62 42 58 71 47 132 72
internal_count=690 307 383 240 240 120 80 67 108 88 120 82 143 62 42 58 71 47 132 72
is_linear=0
shrinkage=0.05


Tree=58
num_leaves=27
num_cat=0
split_feature=4 21 3 13 4 6 4 3 3 7 6 5 3 3 14 4 7 6 14 4 5 7 4 7 5 4
split_gain=9.00255 3.37548 2.01695 1.93904 1.59826 1.42531 1.40076 1.16263 1.06293 1.02962 1.18319 0.833087 0.825131 0.803315 0.500828 0.483247 0.434134 0.380952 0.332235 0.304513 0.294184 0.274894 0.25882 0.025 0.0181457 0.00284553
