tree
version=v4
num_class=1
num_tree_per_iteration=1
label_index=0
max_feature_idx=22
objective=quantile
feature_names=aqi_lag_1h aqi_lag_3h aqi_lag_24h aqi_rolling_mean_6h aqi_rolling_mean_24h aqi_rolling_std_24h wind_speed wind_direction_sin wind_direction_cos temperature humidity precipitation boundary_layer_height hour_of_day_sin hour_of_day_cos day_of_week month_of_year fire_count_50km fire_count_100km fire_upwind_flag road_density_500m land_use_category_code horizon_hours
feature_infos=[150:360] [150:360] [150:345] [152.5:336.66666666666669] [156.45833333333334:324.58333333333331] [13.324272283470439:17.046398744160854] [0.90000000000000002:2] [-0.76266832969568832:0.99619469809174555] [-0.99888987496197001:-0.087155742747658235] [15:25] [40.200000000000003:79.799999999999997] none none [-1:1] [-1:1] [3:5] none none none none [0.2857142857142857:1] [0:3] [24:72]
tree_sizes=764 890 761 702 708 955 974 881 891 972 894 1047 981 982 984 1068 1076 902 1071 1000 1070 1069 985 1062 1151 1150 979 977 1054 905 990 971 1006 987 1008 983 1145 1079 908 1231 1154 1061 998 1232

Tree=0
num_leaves=9
num_cat=0
split_feature=22 15 6 3 9 9 6 3
split_gain=3.0735 7.53036 1.30667 0.691844 1.45686 0.535519 0.16 4.44089e-16
threshold=60.000000000000007 3.5000000000000004 1.9500000000000002 270.41666666666669 15.700000000000001 24.300000000000004 1.7500000000000002 261.66666666666669
decision_type=2 2 2 2 2 2 2 2
left_child=3 2 6 7 -5 -6 -2 -1
right_child=1 -3 -4 4 5 -7 -8 -9
leaf_value=457.5 460 461.89999999999998 461.75 461.75 460 460.5 460.04999977350235 458.75
leaf_weight=353 80 33 20 28 98 24 20 34
leaf_count=353 80 33 20 28 98 24 20 34
internal_value=459.998 460.004 459.998 459.996 459.999 459.997 459.996 459.995
internal_weight=690 153 120 537 150 122 100 387
internal_count=690 153 120 537 150 122 100 387
is_linear=0
shrinkage=1


Tree=1
num_leaves=10
num_cat=0
split_feature=22 15 3 0 5 3 4 3 0
split_gain=3.0735 7.53036 1.15088 0.817156 0.894925 0.102099 0.253378 0.0964286 4.44089e-16
threshold=60.000000000000007 3.5000000000000004 255.41666666666671 300.00000000000006 16.381812894988659 270.41666666666669 279.89583333333337 310.41666666666669 267.50000000000006
decision_type=2 2 2 2 2 2 2 2 2
left_child=3 2 -2 5 7 8 -7 -5 -1
right_child=1 -3 -4 4 -6 6 -8 -9 -10
leaf_value=-4.375 -1.25 1.8050000000000013 0.84699898022414255 0 1.6625000000000001 -0.086250911653041842 -1.25 0 -1.1875
leaf_weight=361 82 33 38 21 20 24 50 35 26
leaf_count=361 82 33 38 21 20 24 50 35 26
internal_value=-0.00210145 0.00415033 -0.00166667 -0.00388268 0.000921051 -0.00467462 -0.00297297 -0.00232143 -0.005
internal_weight=690 153 120 537 76 461 74 56 387
internal_count=690 153 120 537 76 461 74 56 387
is_linear=0
shrinkage=0.05


Tree=2
num_leaves=8
num_cat=0
split_feature=2 4 22 15 2 6 3
split_gain=4.93488 3.88889 1.38894 4.08233 0.528736 0.393939 0.214286
threshold=285.00000000000006 304.89583333333337 60.000000000000007 3.5000000000000004 272.50000000000006 1.3500000000000003 300.41666666666669
decision_type=2 2 2 2 2 2 2
left_child=2 6 -1 4 -4 -3 -2
right_child=1 5 3 -5 -6 -7 -8
leaf_value=-2.15625 1.6201500484138471 0 -1.1875 1.6447499713897713 0.37015005098879217 1.6356249687075604 1.7051500430494237
leaf_weight=459 21 26 92 25 24 22 21
leaf_count=459 21 26 92 25 24 22 21
internal_value=-0.00202899 0.00888889 -0.00366667 0.000673758 -0.00327586 -0.000833335 0.02
internal_weight=690 90 600 141 116 48 42
internal_count=690 90 600 141 116 48 42
is_linear=0
shrinkage=0.05


Tree=3
num_leaves=7
num_cat=0
split_feature=2 22 15 2 3 2
split_gain=4.85834 2.1847 7.29703 0.530636 0.685714 0.528736
threshold=312.50000000000006 60.000000000000007 3.5000000000000004 285.00000000000006 311.66666666666669 272.50000000000006
decision_type=2 2 2 2 2 2
left_child=1 3 5 -1 -5 -3
right_child=-2 2 -4 4 -6 -7
leaf_value=-2.0484374999999999 1.626612511277385 -1.128125 1.6325124656677248 0.31834874520105233 0 0.35164254843935228
leaf_weight=459 24 92 31 28 32 24
leaf_count=459 24 92 31 28 32 24
internal_value=-0.00210145 -0.0028979 0.00248299 -0.00442197 -1.19209e-09 -0.00327586
internal_weight=690 666 147 519 60 116
internal_count=690 666 147 519 60 116
is_linear=0
shrinkage=0.05


Tree=4
num_leaves=7
num_cat=0
split_feature=2 22 15 2 4 2
split_gain=4.85834 2.1847 7.29703 0.530636 1.2 0.528736
threshold=312.50000000000006 60.000000000000007 3.5000000000000004 285.00000000000006 305.52083333333337 272.50000000000006
decision_type=2 2 2 2 2 2
left_child=1 3 5 -1 -5 -3
right_child=-2 2 -4 4 -6 -7
leaf_value=-1.9460156250000011 1.5452818857135171 -1.0717187499999994 1.5508868423843383 0.31988760590190851 0 0.33406042101738365
leaf_weight=459 24 92 31 20 40 24
leaf_count=459 24 92 31 20 40 24
internal_value=-0.00210145 -0.0028979 0.00248299 -0.00442197 -1.19209e-09 -0.00327586
internal_weight=690 666 147 519 60 116
internal_count=690 666 147 519 60 116
is_linear=0
shrinkage=0.05


Tree=5
num_leaves=10
num_cat=0
split_feature=22 4 9 0 5 6 3 4 0
split_gain=3.0735 6.40523 5.55129 0.817156 0.894925 0.18544 0.102099 0.253378 4.44089e-16
threshold=60.000000000000007 221.14583333333337 16.500000000000004 300.00000000000006 16.381812894988659 1.4500000000000002 270.41666666666669 279.89583333333337 267.50000000000006
decision_type=2 2 2 2 2 2 2 2 2
left_child=3 -2 -3 6 5 -5 8 -8 -1
right_child=1 2 -4 4 -6 -7 7 -9 -10
leaf_value=-3.8487148437500025 -2.2681328124999993 1.4792050247289159 0.67865213626648013 0 1.3358704017949681 0.66843237045591231 -0.068721112616911162 -0.8799648437500025 -0.82058984375000255
leaf_weight=361 85 30 38 30 20 26 24 50 26
leaf_count=361 85 30 38 30 20 26 24 50 26
internal_value=-0.00210145 0.00415033 0.0155882 -0.00388268 0.000921051 -0.00232143 -0.00467462 -0.00297297 -0.005
internal_weight=690 153 68 537 76 56 461 74 387
internal_count=690 153 68 537 76 56 461 74 387
is_linear=0
shrinkage=0.05


Tree=6
num_leaves=10
num_cat=0
split_feature=2 2 4 9 6 22 4 4 3
split_gain=4.70035 2.20677 5.1232 0.69057 0.416898 0.172807 0.772727 0.168254 4.44089e-16
threshold=312.50000000000006 242.50000000000003 265.52083333333337 16.500000000000004 1.9500000000000002 60.000000000000007 221.14583333333337 271.77083333333337 260.41666666666669
decision_type=2 2 2 2 2 2 2 2 2
left_child=1 5 4 -4 -3 8 -7 -5 -1
right_child=-2 2 3 7 -6 6 -8 -9 -10
leaf_value=-5.0562927867889416 1.418236904791879 1.2843822573733263 0.96465164240362056 -0.68038854965844875 1.4003662810653417 -2.154726171875001 1.2493822847914631 -0.0079587584776600172 -7.9625291298747074
leaf_weight=329 24 24 34 20 23 85 25 106 20
leaf_count=329 24 24 34 20 23 85 25 106 20
internal_value=-0.00173913 -0.00252252 0.00176328 -0.0025 0.0162766 -0.00445534 -0.00272727 -0.00420635 -0.005
internal_weight=690 666 207 160 47 459 110 126 349
internal_count=690 666 207 160 47 459 110 126 349
is_linear=0
shrinkage=0.05


Tree=7
num_leaves=9
num_cat=0
split_feature=2 13 7 2 4 4 4 3
split_gain=9.80118 2.37573 1.44278 1.13507 4.4283 0.155618 1.03992 0.139431
threshold=285.00000000000006 0.60355339059327384 0.88212594187618454 242.50000000000003 265.52083333333337 221.14583333333337 225.52083333333337 258.75000000000006
decision_type=2 2 2 2 2 2 2 2
left_child=3 2 -2 5 7 -1 -7 -5
right_child=1 -3 -4 4 -6 6 -8 -9
leaf_value=-3.9900971189762924 1.2714533714552112 1.3202610947588729 -0.01551951799678946 1.1995831864820514 -0.12867726892292525 1.1869131705518896 -1.2069201649977306 1.2351631480809375
leaf_weight=340 31 38 21 20 100 20 99 21
leaf_count=340 31 38 21 20 100 20 99 21
internal_value=-0.00094203 0.0144444 0.0075 -0.00325 0.000673758 -0.00445534 -0.00289916 0.0145122
internal_weight=690 90 52 600 141 459 119 41
internal_count=690 90 52 600 141 459 119 41
is_linear=0
shrinkage=0.05


Tree=8
num_leaves=9
num_cat=0
split_feature=2 2 4 9 3 4 4 4
split_gain=4.85834 1.43284 2.63168 0.69057 0.494247 0.168254 0.155618 1.03992
threshold=312.50000000000006 242.50000000000003 265.52083333333337 16.500000000000004 258.75000000000006 271.77083333333337 221.14583333333337 225.52083333333337
decision_type=2 2 2 2 2 2 2 2
left_child=1 6 4 -4 -3 -5 -1 -8
right_child=-2 2 3 5 -6 -7 7 -9
leaf_value=-3.7905922630274782 1.2830202737917544 1.1396040271579477 0.85040600554549695 -0.64693588021864135 1.2174215949908764 -0.065615116814058183 1.1275675120242965 -1.1465741567478449
leaf_weight=340 24 20 34 20 27 106 20 99
leaf_count=340 24 20 34 20 27 106 20 99
internal_value=-0.00210145 -0.0028979 0.000555554 -0.0025 0.0109574 -0.00420635 -0.00445534 -0.00289916
internal_weight=690 666 207 160 47 126 459 119
internal_count=690 666 207 160 47 126 459 119
is_linear=0
shrinkage=0.05


Tree=9
num_leaves=10
num_cat=0
split_feature=22 15 6 3 6 4 3 4 0
split_gain=4.32251 6.6284 2.94 0.703246 0.36 0.124675 0.115825 0.351852 4.44089e-16
threshold=60.000000000000007 3.5000000000000004 1.9500000000000002 310.41666666666669 1.7500000000000002 311.77083333333337 270.41666666666669 278.64583333333337 267.50000000000006
decision_type=2 2 2 2 2 2 2 2 2
left_child=3 2 4 6 -2 -5 8 -8 -1
right_child=1 -3 -4 5 -6 -7 7 -9 -10
leaf_value=-3.014429993122866 -0.11896264963607735 1.2106656478912703 1.1016866621311585 1.1408779885117226 0.098747759185028122 -0.059893974808173316 0.09466000403519266 -0.39029149693433035 -0.70676026662250424
leaf_weight=361 80 33 20 20 20 22 32 76 26
leaf_count=361 80 33 20 20 20 22 32 76 26
internal_value=-0.00195652 0.00545752 -1.19209e-09 -0.0040689 -0.0035 0.00214286 -0.00459596 -0.00314815 -0.005
internal_weight=690 153 120 537 100 42 495 108 387
internal_count=690 153 120 537 100 42 495 108 387
is_linear=0
shrinkage=0.05


Tree=10
num_leaves=9
num_cat=0
split_feature=4 22 9 9 9 5 4 9
split_gain=2.75522 6.05877 4.92678 1.1967 1.38846 2.62238 0.105769 0.0355376
threshold=221.14583333333337 60.000000000000007 16.500000000000004 24.800000000000004 15.700000000000001 15.012072436561853 307.39583333333337 24.800000000000004
decision_type=2 2 2 2 2 2 2 2
left_child=7 3 -3 4 5 -2 -6 -1
right_child=1 2 -4 -5 6 -7 -8 -9
leaf_value=-3.7436387560588305 -0.37247691731924304 1.1552170048328185 0.43885162504589081 0.43900313688969539 -0.80633946950505342 1.0677727797097516 -0.056899276067764508 -2.863708493466723
leaf_weight=316 30 30 38 20 176 22 32 26
leaf_count=316 30 30 38 20 176 22 32 26
internal_value=-0.00166667 0.00146552 0.0148529 -0.00178572 -0.00269231 0.00461538 -0.00451923 -0.0048538
internal_weight=690 348 68 280 260 52 208 342
internal_count=690 348 68 280 260 52 208 342
is_linear=0
shrinkage=0.05


Tree=11
num_leaves=11
num_cat=0
split_feature=2 22 2 6 21 2 4 2 4 1
split_gain=4.63789 2.31217 4.08163 3.07692 0.923077 0.478624 0.778235 0.36 0.6 4.44089e-16
threshold=312.50000000000006 60.000000000000007 212.50000000000003 1.4500000000000002 1.5000000000000002 242.50000000000003 261.14583333333337 285.00000000000006 308.64583333333337 257.50000000000006
decision_type=2 2 2 2 2 2 2 2 2 2
left_child=1 5 -3 -4 -5 9 -7 -8 -9 -1
right_child=-2 2 3 4 -6 6 7 8 -10 -11
leaf_value=-4.4265265556637816 1.1343330303335526 -1.464825323896318 -0.13495709840656786 1.0545781514764083 1.0611820373158112 0.012439202038653806 -0.76602249602979955 0.056318816899256045 -0.054054312264375431 -1.0947512730043798
leaf_weight=329 24 75 20 27 25 20 90 30 30 20
leaf_count=329 24 75 20 27 25 20 90 30 30 20
internal_value=-0.0015942 -0.00237237 0.00316326 0.0116667 0.0180769 -0.00394027 -0.00176471 -0.003 -1.19209e-09 -0.005
internal_weight=690 666 147 72 52 519 170 150 60 349
internal_count=690 666 147 72 52 519 170 150 60 349
is_linear=0
shrinkage=0.05


Tree=12
num_leaves=10
num_cat=0
split_feature=2 22 15 6 2 3 2 3 1
split_gain=4.66907 2.09604 7.06849 0.478927 0.478624 0.778235 0.36 0.685714 4.44089e-16
threshold=312.50000000000006 60.000000000000007 3.5000000000000004 1.7500000000000002 242.50000000000003 261.66666666666669 285.00000000000006 311.66666666666669 257.50000000000006
decision_type=2 2 2 2 2 2 2 2 2
left_child=1 4 3 -3 8 -6 -7 -8 -1
right_child=-2 2 -4 -5 5 6 7 -9 -10
leaf_value=-4.2052002278805931 1.0776163788168751 -0.12820924348623919 1.0326867836040565 0.061584815371175043 0.011817241936721332 -0.72772137122831004 0.061530180249222216 -0.051595637071357975 -1.0400137093541617
leaf_weight=329 24 80 31 36 20 90 28 32 20
leaf_count=329 24 80 31 36 20 90 28 32 20
internal_value=-0.00166667 -0.00244745 0.00282313 -0.00284483 -0.00394027 -0.00176471 -0.003 -1.19209e-09 -0.005
internal_weight=690 666 147 116 519 170 150 60 349
internal_count=690 666 147 116 519 170 150 60 349
is_linear=0
shrinkage=0.05


Tree=13
num_leaves=10
num_cat=0
split_feature=2 22 15 6 2 3 2 3 1
split_gain=4.66907 2.09604 7.06849 0.478927 0.478624 0.778235 0.36 0.685714 4.44089e-16
threshold=312.50000000000006 60.000000000000007 3.5000000000000004 1.7500000000000002 242.50000000000003 261.66666666666669 285.00000000000006 311.66666666666669 257.50000000000006
decision_type=2 2 2 2 2 2 2 2 2
left_child=1 4 3 -3 8 -6 -7 -8 -1
right_child=-2 2 -4 -5 5 6 7 -9 -10
leaf_value=-3.9949402164865635 1.0237355598760323 -0.12179878131192652 0.98105244442385409 0.058505574602615497 0.011226379839884346 -0.69133530266689436 0.058453671236760443 -0.049015855217791483 -0.9880130238864524
leaf_weight=329 24 80 31 36 20 90 28 32 20
leaf_count=329 24 80 31 36 20 90 28 32 20
internal_value=-0.00166667 -0.00244745 0.00282313 -0.00284483 -0.00394027 -0.00176471 -0.003 -1.19209e-09 -0.005
internal_weight=690 666 147 116 519 170 150 60 349
internal_count=690 666 147 116 519 170 150 60 349
is_linear=0
shrinkage=0.05


Tree=14
num_leaves=10
num_cat=0
split_feature=2 22 15 6 2 3 2 3 1
split_gain=4.66907 2.09604 7.06849 0.478927 0.478624 0.778235 0.36 0.685714 4.44089e-16
threshold=312.50000000000006 60.000000000000007 3.5000000000000004 1.7500000000000002 242.50000000000003 261.66666666666669 285.00000000000006 311.66666666666669 257.50000000000006
decision_type=2 2 2 2 2 2 2 2 2
left_child=1 4 3 -3 8 -6 -7 -8 -1
right_child=-2 2 -4 -5 5 6 7 -9 -10
leaf_value=-3.7951932056622355 0.97254878188222937 -0.11570884224632892 0.93199982220265998 0.055580295872483788 0.010665060847888784 -0.65676853753354869 0.055530987674923038 -0.046565062456900619 -0.93861237269213127
leaf_weight=329 24 80 31 36 20 90 28 32 20
leaf_count=329 24 80 31 36 20 90 28 32 20
internal_value=-0.00166667 -0.00244745 0.00282313 -0.00284483 -0.00394027 -0.00176471 -0.003 -1.19209e-09 -0.005
internal_weight=690 666 147 116 519 170 150 60 349
internal_count=690 666 147 116 519 170 150 60 349
is_linear=0
shrinkage=0.05


Tree=15
num_leaves=11
num_cat=0
split_feature=2 22 15 20 9 9 1 9 5 5
split_gain=4.73174 2.21717 7.06849 0.462019 0.395265 0.306483 0.444444 0.034585 0.0227376 0.025
threshold=312.50000000000006 60.000000000000007 3.5000000000000004 0.34523809523809529 24.800000000000004 15.200000000000001 220.00000000000003 23.500000000000004 16.381812894988659 16.564704453008783
decision_type=2 2 2 2 2 2 2 2 2 2
left_child=1 4 3 -3 5 6 -1 -5 -7 -10
right_child=-2 2 -4 7 -6 8 -8 -9 9 -11
leaf_value=-3.6054335453791229 0.92392134278811877 0.061600596292285141 0.88539983109252651 -0.10992340013401361 -0.16005797920574422 -0.2961786780984747 0.01088243824775091 -0.11590412575671377 -0.11051523111689901 -0.80985473578612044
leaf_weight=25 24 24 31 70 32 402 20 22 20 20
leaf_count=25 24 24 31 70 32 402 20 22 20 20
internal_value=-0.0018116 -0.0025976 0.00282313 -0.00284483 -0.00413295 -0.00448665 -0.000555557 -0.00445652 -0.00488688 -0.00375
internal_weight=690 666 147 116 519 487 45 92 442 40
internal_count=690 666 147 116 519 487 45 92 442 40
is_linear=0
shrinkage=0.05


Tree=16
num_leaves=11
num_cat=0
split_feature=2 2 10 15 10 7 21 10 4 1
split_gain=4.66907 1.50236 1.82432 1.49435 1.20709 0.925726 0.156481 0.0996384 0.121236 0.0952381
threshold=312.50000000000006 212.50000000000003 74.050000000000026 3.5000000000000004 40.850000000000009 0.83243768142029106 1.5000000000000002 69.950000000000017 307.39583333333337 252.50000000000003
decision_type=2 2 2 2 2 2 2 2 2 2
left_child=1 -1 4 9 -3 -5 -7 8 -6 -4
right_child=-2 2 3 5 7 6 -8 -9 -10 -11
leaf_value=-3.5906246114741975 0.8777252756487135 0.10536827931294859 -1.1176470738634721 -0.041637033879372606 -0.2216554375409861 0.78495392307488887 0.80086530974272074 -0.068025769044686754 -0.029183835008927874 -0.33451167648794355
leaf_weight=309 24 30 21 20 157 24 30 26 28 21
leaf_count=309 24 30 21 20 157 24 30 26 28 21
internal_value=-0.00166667 -0.00244745 -0.000238096 0.00491379 -0.00271784 0.00918919 0.0125926 -0.00405213 -0.00445946 -0.00261905
internal_weight=690 666 357 116 241 74 54 211 185 42
internal_count=690 666 357 116 241 74 54 211 185 42
is_linear=0
shrinkage=0.05


Tree=17
num_leaves=9
num_cat=0
split_feature=2 22 2 9 2 3 9 7
split_gain=4.73174 2.21717 3.74858 3.4438 0.463538 0.685714 0.125569 0.0393465
threshold=312.50000000000006 60.000000000000007 212.50000000000003 17.550000000000004 285.00000000000006 311.66666666666669 24.800000000000004 -0.37597158858362056
decision_type=2 2 2 2 2 2 2 2
left_child=1 4 -3 -4 6 -6 7 -1
right_child=-2 2 3 -5 5 -7 -8 -9
leaf_value=-0.25697478810693042 0.83383901186627929 -1.1968470135901812 0.80415284950198385 -0.060978388002794641 0.035617532292335365 -0.027774472573104288 -1.8966955735140858 -0.81325740717559114
leaf_weight=24 24 75 38 34 28 32 28 407
leaf_count=24 24 75 38 34 28 32 28 407
internal_value=-0.0018116 -0.0025976 0.00282313 0.0109722 -0.00413295 -1.19209e-09 -0.0046732 -0.00488399
internal_weight=690 666 147 72 519 60 459 431
internal_count=690 666 147 72 519 60 459 431
is_linear=0
shrinkage=0.05


Tree=18
num_leaves=11
num_cat=0
split_feature=2 2 9 15 9 8 21 9 4 1
split_gain=4.70035 1.41528 1.62407 1.32823 1.20709 0.794595 0.3 0.0996384 0.121236 0.0952381
threshold=312.50000000000006 212.50000000000003 16.500000000000004 3.5000000000000004 24.800000000000004 -0.55411798834567161 1.5000000000000002 17.550000000000004 307.39583333333337 252.50000000000003
decision_type=2 2 2 2 2 2 2 2 2 2
left_child=1 -1 3 9 7 -5 -7 -4 -9 -3
right_child=-2 2 4 5 -6 6 -8 8 -10 -11
leaf_value=-3.3704305105417092 0.79214706127296408 -1.1019723626453981 -0.084033964809038714 -0.039873103825171265 0.13898310610838591 0.70549858444604474 0.72061440178048519 -0.18672299402048587 -0.026335919629823935 -0.35799373513864624
leaf_weight=309 24 21 26 20 30 24 30 157 28 21
leaf_count=309 24 21 26 20 30 24 30 157 28 21
internal_value=-0.00173913 -0.00252252 -0.000378152 0.00448276 -0.00271784 0.00851351 0.0116667 -0.00405213 -0.00445946 -0.00261905
internal_weight=690 666 357 116 241 74 54 211 185 42
internal_count=690 666 357 116 241 74 54 211 185 42
is_linear=0
shrinkage=0.05


Tree=19
num_leaves=10
num_cat=0
split_feature=2 22 15 20 10 2 3 7 10
split_gain=4.76323 2.27901 7.06849 0.462019 0.40954 0.142522 0.276923 0.0393678 0.034585
threshold=312.50000000000006 60.000000000000007 3.5000000000000004 0.34523809523809529 40.850000000000009 292.50000000000006 311.66666666666669 -0.37597158858362056 45.95000000000001
decision_type=2 2 2 2 2 2 2 2 2
left_child=1 4 3 -3 -1 7 -7 -6 -5
right_child=-2 2 -4 8 5 6 -8 -9 -10
leaf_value=-0.069437870840819163 0.75253970820931704 0.10531125822443199 0.75152020239050588 -0.086641078490666074 -0.23699265137983955 0.015109133273719523 -0.025019123648331743 -0.76531261805077455 -0.080959389149100502
leaf_weight=32 24 24 31 22 24 20 32 411 70
leaf_count=32 24 24 31 22 24 20 32 411 70
internal_value=-0.00188406 -0.00267267 0.00282313 -0.00284483 -0.00422929 -0.00458932 -0.00211539 -0.00488506 -0.00445652
internal_weight=690 666 147 116 519 487 52 435 92
internal_count=690 666 147 116 519 487 52 435 92
is_linear=0
shrinkage=0.05


Tree=20
num_leaves=11
num_cat=0
split_feature=2 22 15 2 3 20 2 3 9 1
split_gain=4.66907 2.09604 7.06849 0.478624 0.778235 0.462019 0.36 0.685714 0.034585 4.44089e-16
threshold=312.50000000000006 60.000000000000007 3.5000000000000004 242.50000000000003 261.66666666666669 0.34523809523809529 285.00000000000006 311.66666666666669 23.500000000000004 257.50000000000006
decision_type=2 2 2 2 2 2 2 2 2 2
left_child=1 3 5 9 -5 -3 -6 -8 -7 -1
right_child=-2 2 -4 4 6 8 7 -9 -10 -11
leaf_value=-3.1636433541120854 0.71491272279885065 0.10004569531320967 0.71394419227098049 0.044947759413366518 -0.55986255163720278 -0.076911419691646193 0.034601052322740002 -0.023768167465914303 -0.082309024566131761 -0.77752539731320958
leaf_weight=329 24 24 31 20 90 70 28 32 22 20
leaf_count=329 24 24 31 20 90 70 28 32 22 20
internal_value=-0.00166667 -0.00244745 0.00282313 -0.00394027 -0.00176471 -0.00284483 -0.003 -1.19209e-09 -0.00445652 -0.005
internal_weight=690 666 147 519 170 116 150 60 92 349
internal_count=690 666 147 519 170 116 150 60 92 349
is_linear=0
shrinkage=0.05


Tree=21
num_leaves=11
num_cat=0
split_feature=2 22 15 6 2 3 2 3 0 4
split_gain=4.63789 2.03676 7.06849 0.478927 0.437173 0.778235 0.36 0.685714 0.0198619 0.0272727
threshold=312.50000000000006 60.000000000000007 3.5000000000000004 1.7500000000000002 242.50000000000003 261.66666666666669 285.00000000000006 311.66666666666669 252.50000000000003 252.39583333333337
decision_type=2 2 2 2 2 2 2 2 2 2
left_child=1 4 3 -3 8 -6 -7 -8 -1 -10
right_child=-2 2 -4 -5 5 6 7 -9 9 -11
leaf_value=-2.8616908878131402 0.67916708665890924 -0.073065848707062744 0.67824698265743255 0.053272244328405993 0.04270037144269704 -0.53186942405534299 0.032870999706603614 -0.022579759092619157 -0.43256629093765464 -6.2513197382698031
leaf_weight=305 24 80 31 36 20 90 28 32 20 24
leaf_count=305 24 80 31 36 20 90 28 32 20 24
internal_value=-0.0015942 -0.00237237 0.00282313 -0.00284483 -0.00384393 -0.00176471 -0.003 -1.19209e-09 -0.00485673 -0.00386364
internal_weight=690 666 147 116 519 170 150 60 349 44
internal_count=690 666 147 116 519 170 150 60 349 44
is_linear=0
shrinkage=0.05


Tree=22
num_leaves=10
num_cat=0
split_feature=2 20 2 22 4 22 9 2 4
split_gain=4.51822 6.64788 4.26026 3.58164 2.07439 1.43949 1.91412 0.301988 0.416667
threshold=212.50000000000003 0.34523809523809529 312.50000000000006 36.000000000000007 231.77083333333337 60.000000000000007 16.500000000000004 285.00000000000006 308.64583333333337
decision_type=2 2 2 2 2 2 2 2 2
left_child=-1 3 5 4 -2 7 -7 -3 -9
right_child=1 2 -4 -5 -6 6 -8 8 -10
leaf_value=-2.8623766420158234 -6.7540713445054994 -0.52874122293923465 0.64520873232596243 0.48481176093772549 0.14176480612085526 0.59737296731335865 -0.069071356607070353 0.017729167063728658 -0.021450771137989478
leaf_weight=309 21 158 24 37 20 24 37 30 30
leaf_count=309 21 158 24 37 20 24 37 30 30
internal_value=-0.000507248 0.00313648 -0.000214523 0.0161538 0.00597561 -0.00195341 0.00483606 -0.00385321 -0.000833335
internal_weight=690 381 303 78 41 279 61 218 60
internal_count=690 381 303 78 41 279 61 218 60
is_linear=0
shrinkage=0.05


Tree=23
num_leaves=11
num_cat=0
split_feature=2 20 2 22 4 2 22 22 2 5
split_gain=4.24207 4.05166 5.35674 2.73618 2.07439 1.36391 1.76441 0.249351 0.914107 4.44089e-16
threshold=312.50000000000006 0.34523809523809529 212.50000000000003 36.000000000000007 231.77083333333337 285.00000000000006 36.000000000000007 60.000000000000007 252.50000000000003 13.390389696789452
decision_type=2 2 2 2 2 2 2 2 2 2
left_child=1 2 -1 4 -4 7 -7 9 -9 -3
right_child=-2 5 3 -5 -6 6 -8 8 -10 -11
leaf_value=-0.83197886052432468 0.61294829570966469 -5.3516082829428706 -6.4163677772802235 0.46057117289084037 0.13467656581481152 -0.020378232581089152 0.55380973711630777 -1.0487061052821047 0.46270533699398925 -2.1394043460383911
leaf_weight=60 24 25 21 37 20 38 28 81 29 327
leaf_count=60 24 25 21 37 20 38 28 81 29 327
internal_value=-0.000652175 -0.0013964 0.00623188 0.0148718 0.00597561 -0.00339015 0.00333333 -0.00435065 -0.00227273 -0.005
internal_weight=690 666 138 78 41 528 66 462 110 352
internal_count=690 666 138 78 41 528 66 462 110 352
is_linear=0
shrinkage=0.05


Tree=24
num_leaves=12
num_cat=0
split_feature=2 20 2 22 7 2 1 22 2 5 5
split_gain=4.33184 3.90734 5.01672 2.35607 2.07439 0.879058 1.84257 0.249351 0.914107 0.0277778 4.44089e-16
threshold=312.50000000000006 0.34523809523809529 212.50000000000003 36.000000000000007 0.85514409737424435 285.00000000000006 307.50000000000006 60.000000000000007 252.50000000000003 15.805658498769075 13.390389696789452
decision_type=2 2 2 2 2 2 2 2 2 2 2
left_child=1 2 -1 4 -4 7 -7 10 -9 -8 -3
right_child=-2 5 3 -5 -6 6 9 8 -10 -11 -12
leaf_value=-0.79037991749810887 0.58230088092418186 -5.0840278687957259 0.12794273752407151 0.43754261424629703 -6.0955500341318531 0.54810020455809572 -0.019359320952034409 -0.99627080001799873 0.43957007014429106 -0.021317009407749311 -2.0324341287364702
leaf_weight=60 24 25 20 37 21 21 25 81 29 20 327
leaf_count=60 24 25 20 37 21 21 25 81 29 20 327
internal_value=-0.000869566 -0.00162162 0.00586956 0.0142308 0.00597561 -0.00357955 0.00181818 -0.00435065 -0.00227273 -0.00388889 -0.005
internal_weight=690 666 138 78 41 528 66 462 110 45 352
internal_count=690 666 138 78 41 528 66 462 110 45 352
is_linear=0
shrinkage=0.05


Tree=25
num_leaves=12
num_cat=0
split_feature=2 20 2 22 8 2 1 2 22 5 5
split_gain=4.30182 3.82941 5.01672 2.35607 2.07439 0.848485 1.84257 0.279766 0.865757 0.0397959 0.0277778
threshold=312.50000000000006 0.34523809523809529 212.50000000000003 36.000000000000007 -0.51789367405032694 285.00000000000006 307.50000000000006 252.50000000000003 60.000000000000007 13.947040099470323 15.805658498769075
decision_type=2 2 2 2 2 2 2 2 2 2 2
left_child=1 2 -1 4 -4 7 -7 -3 9 -9 -8
right_child=-2 5 3 -5 -6 6 10 8 -10 -11 -12
leaf_value=-0.75086092162320317 0.5531858368779714 -2.5106658861762869 0.12154560064786893 0.41566548353398219 -5.7907725324252599 0.52069519433019229 -0.018391354904431979 -0.47458245554110018 0.41759156663707753 -0.2291293481897809 -0.020251158937360972
leaf_weight=60 24 335 20 37 21 21 25 20 29 78 20
leaf_count=60 24 335 20 37 21 21 25 20 29 78 20
internal_value=-0.000797103 -0.00154655 0.00586956 0.0142308 0.00597561 -0.00348485 0.00181818 -0.00424243 -0.0022441 -0.0044898 -0.00388889
internal_weight=690 666 138 78 41 528 66 462 127 98 45
internal_count=690 666 138 78 41 528 66 462 127 98 45
is_linear=0
shrinkage=0.05


Tree=26
num_leaves=10
num_cat=0
split_feature=2 20 2 22 4 2 4 2 4
split_gain=4.30182 3.82941 5.01672 2.35607 2.07439 0.848485 2.14773 0.279766 1.42899
threshold=312.50000000000006 0.34523809523809529 212.50000000000003 36.000000000000007 231.77083333333337 285.00000000000006 304.89583333333337 252.50000000000003 265.52083333333337
decision_type=2 2 2 2 2 2 2 2 2
left_child=1 2 -1 4 -4 7 -7 -3 -9
right_child=-2 5 3 -5 -6 6 -8 8 -10
leaf_value=-0.71331787554204318 0.52552654503407348 -2.385132591867472 -5.5012335494286351 0.39488220935728297 0.11546832061547435 0.48524002562899604 -0.017471787159209384 0.4055780151247298 -0.13195233713012158
leaf_weight=60 24 335 21 37 20 24 42 27 100
leaf_count=60 24 335 21 37 20 24 42 27 100
internal_value=-0.000797103 -0.00154655 0.00586956 0.0142308 0.00597561 -0.00348485 0.00181818 -0.00424243 -0.0022441
internal_weight=690 666 138 78 41 528 66 462 127
internal_count=690 666 138 78 41 528 66 462 127
is_linear=0
shrinkage=0.05


Tree=27
num_leaves=10
num_cat=0
split_feature=2 20 2 5 2 4 6 2 4
split_gain=4.33184 3.53851 4.68785 1.43799 0.848485 2.14773 0.79905 0.279766 1.42899
threshold=312.50000000000006 0.34523809523809529 212.50000000000003 16.12900888263853 285.00000000000006 304.89583333333337 1.4500000000000002 252.50000000000003 265.52083333333337
decision_type=2 2 2 2 2 2 2 2 2
left_child=1 2 -1 6 7 -6 -4 -3 -9
right_child=-2 4 3 -5 5 -7 -8 8 -10
leaf_value=-0.67765198176494157 0.49925021778236867 -2.2658759622740976 0.10642621307366887 0.16198767051103388 0.46097802434754764 -0.016598197801249628 0.37513809888941979 0.3852991143684939 -0.12535472027361436
leaf_weight=60 24 335 23 27 24 42 28 27 100
leaf_count=60 24 335 23 27 24 42 28 27 100
internal_value=-0.000869566 -0.00162162 0.00550725 0.0135897 -0.00348485 0.00181818 0.0185294 -0.00424243 -0.0022441
internal_weight=690 666 138 78 528 66 51 462 127
internal_count=690 666 138 78 528 66 51 462 127
is_linear=0
shrinkage=0.05


Tree=28
num_leaves=11
num_cat=0
split_feature=2 2 4 1 22 22 10 4 10 5
split_gain=4.42256 2.29253 3.37199 2.26154 3.25845 1.47075 2.82857 1.31047 0.114206 0.044186
threshold=312.50000000000006 212.50000000000003 245.20833333333337 212.50000000000003 36.000000000000007 60.000000000000007 74.050000000000026 231.77083333333337 42.800000000000004 13.425856516006947
decision_type=2 2 2 2 2 2 2 2 2 2
left_child=1 -1 3 -3 7 8 -7 -5 -4 -10
right_child=-2 2 5 4 -6 6 -8 -9 9 -11
leaf_value=-2.1525821641603926 0.47428770689324917 -0.92300781502913143 -0.05084372284087 -4.9576605909096649 0.36064419336509251 -0.11908698425993408 0.44870500661332841 0.10437359393101531 -0.23108474756402259 -0.060919133748873838
leaf_weight=309 24 24 26 23 37 35 20 20 20 152
leaf_count=309 24 24 26 23 37 35 20 20 20 152
internal_value=-0.00108696 -0.00184685 0.000882352 0.00846154 0.0125 -0.0022332 0.005 0.00313953 -0.00424243 -0.0047093
internal_weight=690 666 357 104 80 253 55 43 198 172
internal_count=690 666 357 104 80 253 55 43 198 172
is_linear=0
shrinkage=0.05


Tree=29
num_leaves=9
num_cat=0
split_feature=2 15 22 20 9 20 22 4
split_gain=4.63789 2.01286 7.60638 2.35454 1.19545 0.110526 0.259091 4.44089e-16
threshold=312.50000000000006 3.5000000000000004 60.000000000000007 0.34523809523809529 18.700000000000006 0.47619047619047622 36.000000000000007 296.77083333333337
decision_type=2 2 2 2 2 2 2 2
left_child=1 7 3 4 -3 6 -5 -1
right_child=-2 2 -4 5 -6 -7 -8 -9
leaf_value=-0.53614027446867574 0.45057332154858809 -0.023265327582719833 0.48846894704185884 -0.19279039327510361 0.044924784947485821 -0.092095077569754838 0.03381099824911369 -0.11313266178438795
leaf_weight=327 24 26 31 38 33 168 22 21
leaf_count=327 24 26 31 38 33 168 22 21
internal_value=-0.0015942 -0.00237237 0.000503143 -0.00203833 0.00686441 -0.00434211 -0.0025 -0.005
internal_weight=690 666 318 287 59 228 60 348
internal_count=690 666 318 287 59 228 60 348
is_linear=0
shrinkage=0.05


Tree=30
num_leaves=10
num_cat=0
split_feature=2 2 22 15 2 6 6 9 5
split_gain=4.51422 1.97672 3.47575 9.78547 1.95262 4.07463 0.492308 0.0817974 0.0445652
threshold=312.50000000000006 212.50000000000003 60.000000000000007 3.5000000000000004 232.50000000000003 1.4500000000000002 1.7500000000000002 24.300000000000004 13.425856516006947
decision_type=2 2 2 2 2 2 2 2 2
left_child=1 -1 4 6 5 -3 -4 8 -6
right_child=-2 2 3 -5 7 -7 -8 -9 -10
leaf_value=-2.0403483020738862 0.42804465547115939 0.087854930314707327 -0.086325621323504728 0.48727518846342516 -0.2149257563073344 -0.17013730810943689 0.020618266501627135 -0.024081548044929992 -0.059563726973885879
leaf_weight=309 24 28 32 20 20 39 20 34 164
leaf_count=309 24 28 32 20 20 39 20 34 164
internal_value=-0.00130435 -0.00207207 0.000462184 0.0102778 -0.00201755 0.00544776 -0.00115385 -0.00431193 -0.00472826
internal_weight=690 666 357 72 285 67 52 218 184
internal_count=690 666 357 72 285 67 52 218 184
is_linear=0
shrinkage=0.05


Tree=31
num_leaves=10
num_cat=0
split_feature=2 20 2 6 2 4 3 2 4
split_gain=4.45301 2.80066 3.76812 1.37879 0.739667 1.51374 0.540868 0.375 1.2
threshold=312.50000000000006 0.34523809523809529 212.50000000000003 1.2500000000000002 252.50000000000003 265.52083333333337 235.41666666666671 285.00000000000006 305.52083333333337
decision_type=2 2 2 2 2 2 2 2 2
left_child=1 2 -1 -4 -3 -6 -5 -7 -9
right_child=-2 4 3 6 5 7 -8 8 -10
leaf_value=-0.40731584564154844 0.4066424226976002 -1.9383308869701921 0.091222531088981346 0.28956177750143297 0.36140976499393962 -0.10104473275029412 0.12102512780513169 0.33181194766143102 -0.0051393909965611329
leaf_weight=60 24 335 22 29 33 100 27 20 40
leaf_count=60 24 335 22 29 33 100 27 20 40
internal_value=-0.00115942 -0.00192192 0.00442029 0.0116667 -0.00357955 -0.00111399 0.0075 -0.003125 -1.19209e-09
internal_weight=690 666 138 78 528 193 56 160 60
internal_count=690 666 138 78 528 193 56 160 60
is_linear=0
shrinkage=0.05


Tree=32
num_leaves=10
num_cat=0
split_feature=2 22 15 8 0 6 9 7 14
split_gain=4.79483 1.80472 7.5292 0.458939 0.505561 0.172414 0.100396 0.0433495 0.0476415
threshold=312.50000000000006 60.000000000000007 3.5000000000000004 -0.84339016125458122 257.50000000000006 1.7500000000000002 24.800000000000004 -0.58876930126123017 0.98296291314453421
decision_type=2 2 2 2 2 2 2 2 2
left_child=1 3 5 4 -1 -3 7 -5 -9
right_child=-2 2 -4 6 -6 -7 -8 8 -10
leaf_value=0.085368013319530159 0.38631030156272084 -0.098107484254029487 0.42161125458638438 -0.0071319329874825147 -0.004882421446734498 -0.062243931133096647 -0.097834751279023302 -0.30944773622382798 -0.32889247831684582
leaf_weight=23 24 80 31 20 20 36 32 404 20
leaf_count=23 24 80 31 20 20 36 32 404 20
internal_value=-0.00195652 -0.00274775 0.00214286 -0.00413295 0.000813952 -0.0037069 -0.00457983 -0.00477478 -0.00488208
internal_weight=690 666 147 519 43 116 476 444 424
internal_count=690 666 147 519 43 116 476 444 424
is_linear=0
shrinkage=0.05


Tree=33
num_leaves=10
num_cat=0
split_feature=2 20 4 22 2 22 2 4 22
split_gain=4.45301 2.19724 3.21498 2.46723 1.07386 2.05628 0.279766 1.42899 0.111111
threshold=312.50000000000006 0.34523809523809529 221.14583333333337 36.000000000000007 285.00000000000006 36.000000000000007 252.50000000000003 265.52083333333337 60.000000000000007
decision_type=2 2 2 2 2 2 2 2 2
left_child=1 2 8 -4 6 -6 -3 -8 -1
right_child=-2 4 3 -5 5 -7 7 -9 -10
leaf_value=-5.9145310214579574 0.36699478648458433 -1.8259419558104897 0.048749726966252932 0.29751362221533423 -0.0061342274341791622 0.31647496059893587 0.25566065056512527 -0.091087121900080684 -0.036475507980105015
leaf_weight=48 24 335 37 29 38 28 27 100 24
leaf_count=48 24 335 37 29 38 28 27 100 24
internal_value=-0.00115942 -0.00192192 0.00369565 0.0116667 -0.00339015 0.00257576 -0.00424243 -0.0022441 -0.00361111
internal_weight=690 666 138 66 528 66 462 127 72
internal_count=690 666 138 66 528 66 462 127 72
is_linear=0
shrinkage=0.05


Tree=34
num_leaves=10
num_cat=0
split_feature=2 22 15 8 2 20 9 7 14
split_gain=4.82653 1.6144 7.76501 0.458939 0.505561 0.132184 0.100396 0.0433495 0.0476415
threshold=312.50000000000006 60.000000000000007 3.5000000000000004 -0.84339016125458122 242.50000000000003 0.34523809523809529 24.800000000000004 -0.58876930126123017 0.98296291314453421
decision_type=2 2 2 2 2 2 2 2 2
left_child=1 3 5 4 -1 -3 7 -5 -9
right_child=-2 2 -4 6 -6 -7 -8 8 -10
leaf_value=0.07866212630524147 0.34864504716035377 -0.034651732581098597 0.38470694450522869 -0.0064686249663992619 -0.0043315890026889292 -0.092428193481300547 -0.097201338463662773 -0.28942099331763133 -0.3274183417742178
leaf_weight=23 24 24 31 20 20 92 32 404 20
leaf_count=23 24 24 31 20 20 92 32 404 20
internal_value=-0.00202899 -0.00282282 0.00180272 -0.00413295 0.000813952 -0.00413793 -0.00457983 -0.00477478 -0.00488208
internal_weight=690 666 147 519 43 116 476 444 424
internal_count=690 666 147 519 43 116 476 444 424
is_linear=0
shrinkage=0.05


Tree=35
num_leaves=10
num_cat=0
split_feature=2 20 2 6 2 4 3 2 4
split_gain=4.42256 2.42769 3.48383 1.55049 1.07386 1.26263 0.446429 0.279766 1.42899
threshold=312.50000000000006 0.34523809523809529 212.50000000000003 1.2500000000000002 285.00000000000006 308.64583333333337 231.66666666666671 252.50000000000003 265.52083333333337
decision_type=2 2 2 2 2 2 2 2 2
left_child=1 2 -1 -4 7 -6 -5 -3 -9
right_child=-2 4 3 6 5 -7 -8 8 -10
leaf_value=-0.37848831711870901 0.33121279480233645 -1.7201738083540847 0.076022411204981627 0.21989209756101502 0.26482114460929757 -0.0041150095525551936 0.079098196628973841 0.22609919750991644 -0.078038371359079484
leaf_weight=60 24 335 22 28 36 30 28 27 100
leaf_count=60 24 335 22 28 36 30 28 27 100
internal_value=-0.00108696 -0.00184685 0.00405797 0.0110256 -0.00339015 0.00257576 0.00660714 -0.00424243 -0.0022441
internal_weight=690 666 138 78 528 66 56 462 127
internal_count=690 666 138 78 528 66 56 462 127
is_linear=0
shrinkage=0.05


Tree=36
num_leaves=12
num_cat=0
split_feature=4 15 9 1 6 7 6 3 6 4 3
split_gain=2.75303 2.67771 1.80749 1.92045 0.625 0.533333 0.272222 0.0517962 0.0846561 0.0333333 0.0321429
threshold=221.14583333333337 3.5000000000000004 16.500000000000004 257.50000000000006 1.5500000000000003 0.83768681885862362 1.9500000000000002 220.41666666666671 1.7500000000000002 294.89583333333337 276.66666666666669
decision_type=2 2 2 2 2 2 2 2 2 2 2
left_child=7 6 5 -4 -5 -3 9 -1 -9 -2 -7
right_child=1 2 3 4 -6 10 -8 8 -10 -11 -12
leaf_value=-1.7085892374932685 -0.16269682854388634 0.24091261100836137 0.023725318768259715 -0.0039092590749277177 0.20133508418348806 0.28324196927080297 0.073075830849776008 -0.35956390126277427 -0.29416164616179302 -0.080124425704306654 0.25875442117476716
leaf_weight=279 96 27 36 60 36 24 24 36 27 24 21
leaf_count=279 96 27 36 60 36 24 24 36 27 24 21
internal_value=-0.00152174 0.00160919 0.00529412 0.00181818 -0.001875 0.0116667 -0.00361111 -0.0047076 -0.0034127 -0.00458333 0.015
internal_weight=690 348 204 132 96 72 144 342 63 120 45
internal_count=690 348 204 132 96 72 144 342 63 120 45
is_linear=0
shrinkage=0.05


Tree=37
num_leaves=11
num_cat=0
split_feature=2 20 2 22 4 22 15 14 9 3
split_gain=4.60682 2.20746 2.94872 1.90681 0.921951 0.732736 3.99856 0.0428423 0.0391156 4.44089e-16
threshold=312.50000000000006 0.34523809523809529 212.50000000000003 36.000000000000007 231.77083333333337 60.000000000000007 3.5000000000000004 0.98296291314453421 24.800000000000004 320.41666666666674
decision_type=2 2 2 2 2 2 2 2 2 2
left_child=1 2 -1 4 -4 7 -7 8 9 -3
right_child=-2 5 3 -5 -6 6 -8 -9 -10 -11
leaf_value=-0.27413443938811216 0.30233889687011539 -0.38125537280206845 -4.6636633957784932 0.20645487394155937 0.072328422088691016 -0.079485772982378189 0.28508094988452481 -0.22846084956050486 -0.50350948130088913 -0.0037137961211811902
leaf_weight=60 24 343 21 37 20 92 24 20 24 25
leaf_count=60 24 343 21 37 20 92 24 20 24 25
internal_value=-0.00152174 -0.0022973 0.00333333 0.00974359 0.00231707 -0.00376894 -0.000258622 -0.00475728 -0.00487245 -0.005
internal_weight=690 666 138 78 41 528 116 412 392 368
internal_count=690 666 138 78 41 528 116 412 392 368
is_linear=0
shrinkage=0.05


Tree=38
num_leaves=9
num_cat=0
split_feature=2 22 15 4 14 15 3 6
split_gain=4.60682 1.72422 7.29703 0.551261 1.13187 1.26502 0.515385 0.306513
threshold=312.50000000000006 60.000000000000007 3.5000000000000004 236.14583333333337 -0.70710678118654757 3.5000000000000004 258.75000000000006 1.7500000000000002
decision_type=2 2 2 2 2 2 2 2
left_child=1 3 7 -1 5 -5 -6 -3
right_child=-2 2 -4 4 6 -7 -8 -9
leaf_value=-1.5296728874216143 0.28722195202660838 -0.072143915769973435 0.32562812373392758 -4.9814465085940327 0.018922633842936812 0.068711968085950745 -0.080283816889124685 -0.057949836141142977
leaf_weight=308 24 80 31 20 26 31 134 36
leaf_count=308 24 80 31 20 26 31 134 36
internal_value=-0.00152174 -0.0022973 0.00248299 -0.00365125 -0.00168247 0.00480392 -0.00375 -0.00327586
internal_weight=690 666 147 519 211 51 160 116
internal_count=690 666 147 519 211 51 160 116
is_linear=0
shrinkage=0.05


Tree=39
num_leaves=13
num_cat=0
split_feature=2 15 20 14 9 14 3 6 3 3 3 4
split_gain=4.37365 3.80234 1.26057 1.43451 0.916971 1.02273 0.574395 0.507937 0.331699 0.186741 0.148179 0.0272727
threshold=212.50000000000003 3.5000000000000004 0.34523809523809529 -0.37940952255126015 17.550000000000004 -0.70710678118654757 297.08333333333343 1.7500000000000002 237.08333333333334 295.41666666666669 225.41666666666671 306.14583333333337
decision_type=2 2 2 2 2 2 2 2 2 2 2 2
left_child=-1 7 3 -3 6 -6 -4 -2 -5 10 -9 -7
right_child=1 2 4 8 5 11 -8 9 -10 -11 -12 -13
leaf_value=-1.4892196351203759 -0.11341049660068535 0.073778780974697616 0.20528279908871183 0.1683428901682141 0.016431259747259525 -0.18508807491622578 0.22510197645795335 0.0080096767916717805 0.16972394619256129 0.1398537691815715 -0.26315094558117325 -0.0015440996361917314
leaf_weight=309 96 23 39 20 36 24 28 21 23 21 30 20
leaf_count=309 96 23 39 20 36 24 28 21 23 21 30 20
internal_value=-0.000579711 0.00300525 0.00744131 0.0131818 0.00486394 0.00125 0.0091791 -0.00261905 0.0077907 0.000555554 -0.00107843 -0.00386364
internal_weight=690 381 213 66 147 80 67 168 43 72 51 44
internal_count=690 381 213 66 147 80 67 168 43 72 51 44
is_linear=0
shrinkage=0.05


Tree=40
num_leaves=12
num_cat=0
split_feature=2 2 20 15 6 8 13 13 2 5 8
split_gain=4.24207 2.99432 4.47302 1.38926 1.21716 0.846561 0.86163 1.06813 0.225 0.207949 0.0347222
threshold=312.50000000000006 212.50000000000003 0.34523809523809529 3.5000000000000004 1.2500000000000002 -0.60946782647798781 -1.0000000180025095e-35 0.60355339059327384 285.00000000000006 16.12900888263853 -0.54608116712510346
decision_type=2 2 2 2 2 2 2 2 2 2 2
left_child=1 -1 4 10 -3 -5 8 -8 -7 -6 -4
right_child=-2 2 3 5 9 6 7 -9 -10 -11 -12
leaf_value=-1.414758653364357 0.2616057556023817 0.070089841925963015 -0.11785441517553459 -0.0051909950150800261 0.15971403399526651 -0.21899859688586357 0.19111235807982566 0.16718237353434112 0.0055208825903705384 0.1243513710868482 -0.13978671727611711
leaf_weight=309 24 22 24 30 31 20 30 35 20 25 120
leaf_count=309 24 22 24 30 31 20 30 35 20 25 120
internal_value=-0.000652175 -0.0013964 0.00172269 -0.00123656 0.0123077 0.00240741 0.00452381 0.00807692 -0.00125 0.00839286 -0.00465278
internal_weight=690 666 357 279 78 135 105 65 40 56 144
internal_count=690 666 357 279 78 135 105 65 40 56 144
is_linear=0
shrinkage=0.05


Tree=41
num_leaves=11
num_cat=0
split_feature=2 20 2 22 2 22 4 2 4 4
split_gain=4.30182 2.78914 4.06355 3.45081 1.28815 2.4881 0.921951 0.365409 1.32088 0.04
threshold=312.50000000000006 0.34523809523809529 212.50000000000003 36.000000000000007 285.00000000000006 36.000000000000007 231.77083333333337 252.50000000000003 265.52083333333337 273.02083333333337
decision_type=2 2 2 2 2 2 2 2 2 2
left_child=1 2 -1 6 7 -6 -4 -3 -9 -10
right_child=-2 4 3 -5 5 -7 -8 8 9 -11
leaf_value=-0.11162160720597286 0.24852546782226295 -1.3079903286262977 -4.3470566102018564 0.16412750852896185 -0.0068642629622125157 0.20415854322494462 0.058082971434927799 0.17472894786358995 -0.0076881405494503953 -0.055876859287633356
leaf_weight=60 24 335 21 37 38 28 20 27 20 80
leaf_count=60 24 335 21 37 38 28 20 27 20 80
internal_value=-0.000797103 -0.00154655 0.00478261 0.0123077 -0.00320076 0.00333333 0.00231707 -0.0041342 -0.00185039 -0.0045
internal_weight=690 666 138 78 528 66 41 462 127 100
internal_count=690 666 138 78 528 66 41 462 127 100
is_linear=0
shrinkage=0.05


Tree=42
num_leaves=10
num_cat=0
split_feature=2 20 4 22 2 22 9 3 4
split_gain=4.45301 2.48981 4.21218 3.41811 0.841576 2.88913 0.315178 0.0426471 0.0337302
threshold=312.50000000000006 0.34523809523809529 221.14583333333337 36.000000000000007 252.50000000000003 60.000000000000007 24.300000000000004 270.41666666666669 210.52083333333337
decision_type=2 2 2 2 2 2 2 2 2
left_child=1 2 8 -4 -3 6 7 -6 -1
right_child=-2 4 3 -5 5 -7 -8 -9 -10
leaf_value=-0.10604052684567478 0.23609919443114916 -1.2425908121949818 0.019050526832468065 0.19402354516572601 -0.0073037335219765971 0.21730129252899988 9.7778156355642163e-05 -0.038474862274394797 -0.10604052684567478
leaf_weight=21 24 335 37 29 20 35 22 116 51
leaf_count=21 24 335 37 29 20 35 22 116 51
internal_value=-0.00115942 -0.00192192 0.00405797 0.0131818 -0.00348485 -0.000854923 -0.00373418 -0.00463235 -0.00430556
internal_weight=690 666 138 66 528 193 158 136 72
internal_count=690 666 138 66 528 193 158 136 72
is_linear=0
shrinkage=0.05


Tree=43
num_leaves=13
num_cat=0
split_feature=4 15 1 6 13 4 6 6 6 7 1 9
split_gain=4.15053 3.73598 2.22883 1.70609 2.06772 0.586957 0.728428 0.347222 0.322083 0.304839 0.278108 0.0264878
threshold=221.14583333333337 3.5000000000000004 257.50000000000006 1.4500000000000002 -0.70710678118654735 225.52083333333337 1.2500000000000002 1.7500000000000002 1.7500000000000002 0.10004614349684046 292.50000000000006 15.200000000000001
decision_type=2 2 2 2 2 2 2 2 2 2 2 2
left_child=11 7 5 9 -5 -3 -7 -2 -6 -4 -9 -1
right_child=1 2 3 4 8 6 -8 10 -10 -11 -12 -13
leaf_value=-0.88584952617977386 -0.039217390209827993 0.15650262897731604 0.00086221662114645574 -0.084279625621891799 0.21124220576216091 0.054226296521557062 0.13265150232334913 -0.21234091143651104 0.2170907250730871 -0.0069385468458790459 0.095549559829701605 -1.180461271585233
leaf_weight=34 96 23 20 20 24 20 26 27 29 42 21 308
leaf_count=34 96 23 20 20 24 20 26 27 29 42 21 308
internal_value=-0.00094203 0.0029023 0.0072549 0.00351852 0.00869863 0.0145652 0.0178261 -0.00326389 0.0138679 -0.00258065 0.000208332 -0.0048538
internal_weight=690 348 204 135 73 69 46 144 53 62 48 342
internal_count=690 348 204 135 73 69 46 144 53 62 48 342
is_linear=0
shrinkage=0.05


end of trees

feature_importances:
aqi_lag_24h=99
aqi_rolling_mean_24h=53
horizon_hours=45
aqi_rolling_mean_6h=36
wind_speed=28
temperature=28
day_of_week=26
road_density_500m=20
aqi_lag_3h=14
aqi_rolling_std_24h=14
wind_direction_sin=9
aqi_lag_1h=7
humidity=7
wind_direction_cos=6
hour_of_day_cos=6
hour_of_day_sin=4
land_use_category_code=3

parameters:
[boosting: gbdt]
[objective: quantile]
[metric: quantile]
[tree_learner: serial]
[device_type: cpu]
[data_sample_strategy: bagging]
[data: ]
[valid: ]
[num_iterations: 300]
[learning_rate: 0.05]
[num_leaves: 31]
[num_threads: 0]
[seed: 0]
[deterministic: 0]
[force_col_wise: 0]
[force_row_wise: 0]
[histogram_pool_size: -1]
[max_depth: -1]
[min_data_in_leaf: 20]
[min_sum_hessian_in_leaf: 0.001]
[bagging_fraction: 0.8]
[pos_bagging_fraction: 1]
[neg_bagging_fraction: 1]
[bagging_freq: 0]
[bagging_seed: 3]
[bagging_by_query: 0]
[feature_fraction: 0.8]
[feature_fraction_bynode: 1]
[feature_fraction_seed: 2]
[extra_trees: 0]
[extra_seed: 6]
[early_stopping_round: 0]
[early_stopping_min_delta: 0]
[first_metric_only: 0]
[max_delta_step: 0]
[lambda_l1: 0]
[lambda_l2: 0]
[linear_lambda: 0]
[min_gain_to_split: 0]
[drop_rate: 0.1]
[max_drop: 50]
[skip_drop: 0.5]
[xgboost_dart_mode: 0]
[uniform_drop: 0]
[drop_seed: 4]
[top_rate: 0.2]
[other_rate: 0.1]
[min_data_per_group: 100]
[max_cat_threshold: 32]
[cat_l2: 10]
[cat_smooth: 10]
[max_cat_to_onehot: 4]
[top_k: 20]
[monotone_constraints: ]
[monotone_constraints_method: basic]
[monotone_penalty: 0]
[feature_contri: ]
[forcedsplits_filename: ]
[refit_decay_rate: 0.9]
[cegb_tradeoff: 1]
[cegb_penalty_split: 0]
[cegb_penalty_feature_lazy: ]
[cegb_penalty_feature_coupled: ]
[path_smooth: 0]
[interaction_constraints: ]
[verbosity: -1]
[saved_feature_importance_type: 0]
[use_quantized_grad: 0]
[num_grad_quant_bins: 4]
[quant_train_renew_leaf: 0]
[stochastic_rounding: 1]
[linear_tree: 0]
[max_bin: 255]
[max_bin_by_feature: ]
[min_data_in_bin: 3]
[bin_construct_sample_cnt: 200000]
[data_random_seed: 1]
[is_enable_sparse: 1]
[enable_bundle: 1]
[use_missing: 1]
[zero_as_missing: 0]
[feature_pre_filter: 1]
[pre_partition: 0]
[two_round: 0]
[header: 0]
[label_column: ]
[weight_column: ]
[group_column: ]
[ignore_column: ]
[categorical_feature: ]
[forcedbins_filename: ]
[precise_float_parser: 0]
[parser_config_file: ]
[objective_seed: 5]
[num_class: 1]
[is_unbalance: 0]
[scale_pos_weight: 1]
[sigmoid: 1]
[boost_from_average: 1]
[reg_sqrt: 0]
[alpha: 0.9]
[fair_c: 1]
[poisson_max_delta_step: 0.7]
[tweedie_variance_power: 1.5]
[lambdarank_truncation_level: 30]
[lambdarank_norm: 1]
[label_gain: ]
[lambdarank_position_bias_regularization: 0]
[eval_at: ]
[multi_error_top_k: 1]
[auc_mu_weights: ]
[num_machines: 1]
[local_listen_port: 12400]
[time_out: 120]
[machine_list_filename: ]
[machines: ]
[gpu_platform_id: -1]
[gpu_device_id: -1]
[gpu_use_dp: 0]
[num_gpu: 1]

end of parameters

pandas_categorical:[]
