tree
version=v4
num_class=1
num_tree_per_iteration=1
label_index=0
max_feature_idx=24
objective=quantile
feature_names=aqi_lag_1h aqi_lag_3h aqi_lag_24h aqi_rolling_mean_6h aqi_rolling_mean_24h aqi_rolling_std_24h wind_speed wind_direction_sin wind_direction_cos temperature humidity precipitation boundary_layer_height blh_log surface_pressure_hpa hour_of_day_sin hour_of_day_cos day_of_week month_of_year fire_count_50km fire_count_100km fire_upwind_flag road_density_500m land_use_category_code horizon_hours
feature_infos=[150:360] [150:360] [150:345] [152.5:336.66666666666669] [156.45833333333334:324.58333333333331] [13.324272283470439:17.046398744160854] [0.90000000000000002:2] [-0.76266832969568832:0.99619469809174555] [-0.99888987496197001:-0.087155742747658235] [15:25] [40.200000000000003:79.799999999999997] none [10.888961999999999:2025.2809] [2.4756104066394888:7.613957322779382] [985.45169999999996:992.15466000000004] [-1:1] [-1:1] [3:5] none none none none [0.2857142857142857:1] [0:3] [24:72]
tree_sizes=612 707 642 727 728 886 809 807 888 808 812 807 806 972 894 822 811 812 810 810 974 973 976 973 1146 1139 1148 1147 984 1070 1075 982 987 979 1329 1062 1071 1223 1239 1223 1222 1224 1167 1226 1062 1528 1397 1622 1148 1335 1315 1250 1228 1252 1399 1240 1570 1476 1670 1588 1391 1493 1672 1490 1567 1640 1805 1557 1498 1589 1418 1427 1642 1724 1726 1578 1585 1837 1583 1918 1930 1676 1823 1672 1771 1755 1676 1502 1501 1749 1919 1932 1744 1829 1822 1751 1904 1910 1832 1923 1346 1911 1685 1892 1902 1931 1591 1924 1601 1838 1749 1922 1839 1999 1827 2007 1822 1857 2254 1848 1929 2163 2000 1929 2167 2180 1779 1835 2107 1996 2072 2080 1840 1996 1895 1693 1933 1999 1933 2111 1771 2028 1674 1774 2089 2011 2168 2104 2090 2109 2111 2264 2099 2124 2021 2103 2091 1934 2013 2178 2198 2077 2107 1943 1913 2252 2002 1905 2091 2003 2366 2170 2202 2202 2106 2009 1852 2026 2286 2452 2290 2346 2109 2178 2455 2187 2357 2084 2114 2373 2281 2260 2436 2102 2357 2085 2263 2195 2198 2117 2180 2106 2453 2221 2293 2281 2192 2467 2109 2367 2364 2229 2108 2287 2278 2091 2389 2185 2361 2366 2274 2463 2109 2369 2264 2372 2091 2291 2092 2123 2302 2275 2207 2373 2179 2462 2373 2428 2359 2229 2454 2300 2276 2364 2397 2215 2360 2376 2210 2113 2216 2108 2133 2454 2305 2453 2205 2039 2372 2116 2029 2343 2546 2287 2292 2031 2054 2299 2213 2290 2290 2187 2290 2207 2105 2106 2214 2047 2198 2208 2128 2291 2257 1872 2297 2112 2288 1701 2190 2025 2211 2178 2271 2302 2116 2388 2035 2378 2215 2222

Tree=0
num_leaves=7
num_cat=0
split_feature=2 24 2 24 7 0
split_gain=27.5062 17.8061 6.1165 10 4.34577 1.11022e-16
threshold=182.50000000000003 36.000000000000007 157.50000000000003 60.000000000000007 0.83768681885862362 187.50000000000003
decision_type=2 2 2 2 2 2
left_child=1 4 3 -3 -1 -4
right_child=-2 2 5 -5 -6 -7
leaf_value=208.5 211.37500057555735 209.25 214 214 208.5 210.75
leaf_weight=20 516 20 22 20 51 41
leaf_count=20 516 20 22 20 51 41
internal_value=209.999 209.982 209.995 209.98 209.963 210.005
internal_weight=690 174 103 40 71 63
internal_count=690 174 103 40 71 63
is_linear=0
shrinkage=1


Tree=1
num_leaves=7
num_cat=0
split_feature=2 24 24 1 13 13
split_gain=29.7341 11.3977 4.17711 8.88178e-16 8.88178e-16 1.11022e-16
threshold=172.50000000000003 36.000000000000007 60.000000000000007 315.00000000000006 6.9639194812523337 7.3494602915002067
decision_type=2 2 2 2 2 2
left_child=1 -1 -3 4 -2 -6
right_child=3 2 -4 -5 5 -7
leaf_value=-1.425 0.71250000000000002 -0.71250000000000002 3.8000000000000003 5.08125000698492 0.93124997122213249 0.68124997122213249
leaf_weight=40 464 38 25 33 57 33
leaf_count=40 464 38 25 33 57 33
internal_value=0.000652174 -0.0241262 -0.010873 0.005 0.005 0.005
internal_weight=690 103 63 587 554 90
internal_count=690 103 63 587 554 90
is_linear=0
shrinkage=0.05


Tree=2
num_leaves=6
num_cat=0
split_feature=2 24 24 0 4
split_gain=29.7341 11.3977 4.17711 8.88178e-16 2.22045e-16
threshold=172.50000000000003 36.000000000000007 60.000000000000007 197.50000000000003 194.89583333333337
decision_type=2 2 2 2 2
left_child=1 -1 -3 4 -2
right_child=3 2 -4 -5 -6
leaf_value=-1.3537499999999996 0.039374999999999716 -0.67687499999999978 3.6099999999999994 1.6346874726610254 0.039374999999999716
leaf_weight=40 58 38 25 502 27
leaf_count=40 58 38 25 502 27
internal_value=0.000652174 -0.0241262 -0.010873 0.005 0.005
internal_weight=690 103 63 587 85
internal_count=690 103 63 587 85
is_linear=0
shrinkage=0.05


Tree=3
num_leaves=7
num_cat=0
split_feature=2 24 24 2 14 5
split_gain=29.3873 11.3977 4.17711 0.0495237 0.134138 1.11022e-16
threshold=172.50000000000003 36.000000000000007 60.000000000000007 182.50000000000003 989.46720000000016 15.012072436561885
decision_type=2 2 2 2 2 2
left_child=1 -1 -3 4 5 -2
right_child=3 2 -4 -5 -6 -7
leaf_value=-1.2860624999999999 0.037406249999999377 -0.64303124999999994 3.4294999999999991 1.2233051660759391 0.037406249999999377 0.037406249999999377
leaf_weight=40 21 38 25 516 21 29
leaf_count=40 21 38 25 516 21 29
internal_value=0.000507247 -0.0241262 -0.010873 0.00482964 0.00359155 0.005
internal_weight=690 103 63 587 71 50
internal_count=690 103 63 587 71 50
is_linear=0
shrinkage=0.05


Tree=4
num_leaves=7
num_cat=0
split_feature=2 24 24 2 14 7
split_gain=29.3873 11.3977 4.17711 0.0495237 0.134138 1.11022e-16
threshold=172.50000000000003 36.000000000000007 60.000000000000007 182.50000000000003 989.46720000000016 0.91156447724216172
decision_type=2 2 2 2 2 2
left_child=1 -1 -3 4 5 -2
right_child=3 2 -4 -5 -6 -7
leaf_value=-1.2217593749999993 0.035535937499999191 -0.61087968749999966 3.2580249999999995 1.1621399077721424 0.035535937499999191 0.035535937499999191
leaf_weight=40 29 38 25 516 21 21
leaf_count=40 29 38 25 516 21 21
internal_value=0.000507247 -0.0241262 -0.010873 0.00482964 0.00359155 0.005
internal_weight=690 103 63 587 71 50
internal_count=690 103 63 587 71 50
is_linear=0
shrinkage=0.05


Tree=5
num_leaves=9
num_cat=0
split_feature=2 24 24 2 5 1 2 3
split_gain=29.0425 11.3977 4.17711 0.165514 0.607229 8.88178e-16 8.88178e-16 1.11022e-16
threshold=172.50000000000003 36.000000000000007 60.000000000000007 190.00000000000003 16.189852817351177 315.00000000000006 242.50000000000003 200.41666666666671
decision_type=2 2 2 2 2 2 2 2
left_child=1 -1 -3 4 7 6 -5 -2
right_child=3 2 -4 5 -6 -7 -8 -9
leaf_value=-1.160671406249999 0.033759140624999871 -0.58033570312500016 3.0951237499999991 0.69461834389667709 -0.046944000052146544 4.6261808793102182 3.4446183438966771 0.033759140624999871
leaf_weight=40 42 38 25 273 20 33 198 21
leaf_count=40 42 38 25 273 20 33 198 21
internal_value=0.000362319 -0.0241262 -0.010873 0.00465928 0.00259036 0.005 0.005 0.005
internal_weight=690 103 63 587 83 504 471 63
internal_count=690 103 63 587 83 504 471 63
is_linear=0
shrinkage=0.05


Tree=6
num_leaves=8
num_cat=0
split_feature=2 24 24 4 4 5 0
split_gain=29.0425 11.3977 4.17711 0.179797 0.0535514 0.139394 8.88178e-16
threshold=172.50000000000003 36.000000000000007 60.000000000000007 180.52083333333337 196.77083333333337 16.189852817351177 315.00000000000006
decision_type=2 2 2 2 2 2 2
left_child=1 -1 -3 -2 5 -5 -6
right_child=3 2 -4 4 6 -7 -8
leaf_value=-1.1026378359374989 0.015122965982655565 -0.5513189179687501 2.9403675624999992 0.032071183593750163 0.66388631037968748 0.028129780522643068 5.2723874267018438
leaf_weight=40 20 38 25 46 464 20 37
leaf_count=40 20 38 25 46 464 20 37
internal_value=0.000362319 -0.0241262 -0.010873 0.00465928 0.00482363 0.00348485 0.005
internal_weight=690 103 63 587 567 66 501
internal_count=690 103 63 587 567 66 501
is_linear=0
shrinkage=0.05


Tree=7
num_leaves=8
num_cat=0
split_feature=2 24 24 2 24 1 2
split_gain=28.0204 11.3977 4.17711 1.03446 1.65232 8.88178e-16 8.88178e-16
threshold=172.50000000000003 36.000000000000007 60.000000000000007 190.00000000000003 36.000000000000007 315.00000000000006 242.50000000000003
decision_type=2 2 2 2 2 2 2
left_child=1 -1 -3 4 -2 6 -5
right_child=3 2 -4 5 -6 -7 -8
leaf_value=-1.0475059441406245 -0.027488713762731827 -0.52375297207031224 2.7933491843749993 0.62669311118285842 0.63637686807476546 4.3616775198257214 3.2391931111828587
leaf_weight=40 35 38 25 273 48 33 198
leaf_count=40 35 38 25 273 48 33 198
internal_value=-7.24636e-05 -0.0241262 -0.010873 0.00414821 -0.0010241 0.005 0.005
internal_weight=690 103 63 587 83 504 471
internal_count=690 103 63 587 83 504 471
is_linear=0
shrinkage=0.05


Tree=8
num_leaves=9
num_cat=0
split_feature=2 24 24 2 5 0 0 3
split_gain=29.0425 11.3977 4.17711 0.165514 0.607229 8.88178e-16 8.88178e-16 1.11022e-16
threshold=172.50000000000003 36.000000000000007 60.000000000000007 190.00000000000003 16.189852817351177 327.50000000000006 212.50000000000003 200.41666666666671
decision_type=2 2 2 2 2 2 2 2
left_child=1 -1 -3 4 7 6 -5 -2
right_child=3 2 -4 5 -6 -7 -8 -9
leaf_value=-0.99513064693359332 0.023314297887480961 -0.49756532346679594 2.6536817251562499 0.34535845562371609 -0.044563819333247996 4.8468083998076086 1.3453584556237161 0.00025130437841654755
leaf_weight=40 42 38 25 58 20 24 422 21
leaf_count=40 42 38 25 58 20 24 422 21
internal_value=0.000362319 -0.0241262 -0.010873 0.00465928 0.00259036 0.005 0.005 0.005
internal_weight=690 103 63 587 83 504 480 63
internal_count=690 103 63 587 83 504 480 63
is_linear=0
shrinkage=0.05


Tree=9
num_leaves=8
num_cat=0
split_feature=2 24 24 2 24 0 0
split_gain=28.5291 11.3977 4.17711 0.506886 0.809639 8.88178e-16 8.88178e-16
threshold=172.50000000000003 36.000000000000007 60.000000000000007 190.00000000000003 36.000000000000007 327.50000000000006 212.50000000000003
decision_type=2 2 2 2 2 2 2
left_child=1 -1 -3 4 -2 6 -5
right_child=3 2 -4 5 -6 -7 -8
leaf_value=-0.94537411458691312 -0.025243649624296999 -0.47268705729345584 2.5209976388984376 0.32809053284253054 0.60339230977665326 4.6044679798172288 1.2780905328425307
leaf_weight=40 35 38 25 58 48 24 422
leaf_count=40 35 38 25 58 48 24 422
internal_value=0.000144928 -0.0241262 -0.010873 0.00440375 0.000783133 0.005 0.005
internal_weight=690 103 63 587 83 504 480
internal_count=690 103 63 587 83 504 480
is_linear=0
shrinkage=0.05


Tree=10
num_leaves=8
num_cat=0
split_feature=2 24 24 4 4 5 0
split_gain=29.0425 11.3977 4.17711 0.179797 0.0535514 0.139394 8.88178e-16
threshold=172.50000000000003 36.000000000000007 60.000000000000007 180.52083333333337 196.77083333333337 16.189852817351177 315.00000000000006
decision_type=2 2 2 2 2 2 2
left_child=1 -1 -3 -2 5 -5 -6
right_child=3 2 -4 4 6 -7 -8
leaf_value=-0.89810540885756751 0.016177111448513061 -0.44905270442878309 2.3949477569535147 0.031938527689038668 0.56514702058606381 0.031588100632522834 4.3742445808263666
leaf_weight=40 20 38 25 46 464 20 37
leaf_count=40 20 38 25 46 464 20 37
internal_value=0.000362319 -0.0241262 -0.010873 0.00465928 0.00482363 0.00348485 0.005
internal_weight=690 103 63 587 567 66 501
internal_count=690 103 63 587 567 66 501
is_linear=0
shrinkage=0.05


Tree=11
num_leaves=8
num_cat=0
split_feature=2 24 24 2 24 0 0
split_gain=27.8518 11.3977 4.17711 1.2517 1.99931 8.88178e-16 8.88178e-16
threshold=172.50000000000003 36.000000000000007 60.000000000000007 190.00000000000003 36.000000000000007 327.50000000000006 212.50000000000003
decision_type=2 2 2 2 2 2 2
left_child=1 -1 -3 4 -2 6 -5
right_child=3 2 -4 5 -6 -7 -8
leaf_value=-0.85320013841468956 -0.036232051925389655 -0.42660006920734334 2.2752003691058391 0.28342865517110027 0.54496534325851653 4.1555323517850482 1.1859286551711008
leaf_weight=40 35 38 25 58 48 24 422
leaf_count=40 35 38 25 58 48 24 422
internal_value=-0.000144927 -0.0241262 -0.010873 0.00406303 -0.00162651 0.005 0.005
internal_weight=690 103 63 587 83 504 480
internal_count=690 103 63 587 83 504 480
is_linear=0
shrinkage=0.05


Tree=12
num_leaves=8
num_cat=0
split_feature=2 24 24 2 24 0 0
split_gain=27.8518 11.3977 4.17711 1.2517 1.99931 8.88178e-16 8.88178e-16
threshold=172.50000000000003 36.000000000000007 60.000000000000007 190.00000000000003 36.000000000000007 327.50000000000006 212.50000000000003
decision_type=2 2 2 2 2 2 2
left_child=1 -1 -3 4 -2 6 -5
right_child=3 2 -4 5 -6 -7 -8
leaf_value=-0.81054013149395565 -0.034420449329119876 -0.40527006574697566 2.1614403506505471 0.26925722241254563 0.51771707609559037 3.9477557341957965 1.126632222412546
leaf_weight=40 35 38 25 58 48 24 422
leaf_count=40 35 38 25 58 48 24 422
internal_value=-0.000144927 -0.0241262 -0.010873 0.00406303 -0.00162651 0.005 0.005
internal_weight=690 103 63 587 83 504 480
internal_count=690 103 63 587 83 504 480
is_linear=0
shrinkage=0.05


Tree=13
num_leaves=10
num_cat=0
split_feature=4 24 24 4 6 4 4 7 1
split_gain=22.8789 10.9527 3.50085 7.97101 1.03404 0.986112 1.56839 0.117302 8.88178e-16
threshold=185.52083333333337 36.000000000000007 60.000000000000007 171.14583333333337 1.6500000000000001 201.14583333333337 196.14583333333337 0.93311062582887294 315.00000000000006
decision_type=2 2 2 2 2 2 2 2 2
left_child=1 4 3 -3 -1 6 7 -2 -7
right_child=5 2 -4 -5 -6 8 -8 -9 -10
leaf_value=-0.77001312491925811 0.034912061142234933 -0.38500656245962689 2.0533683331180201 4.1274934375403731 -0.77001312491925811 1.0659256191364475 -0.024376954616835179 0.024030478004577374 3.8685357995026379
leaf_weight=27 40 24 31 22 20 447 24 22 33
leaf_count=27 40 24 31 22 20 447 24 22 33
internal_value=-0.000144927 -0.0195968 -0.00798701 -0.0167391 -0.038617 0.00411661 -0.000813953 0.0033871 0.005
internal_weight=690 124 77 46 47 566 86 62 480
internal_count=690 124 77 46 47 566 86 62 480
is_linear=0
shrinkage=0.05


Tree=14
num_leaves=9
num_cat=0
split_feature=2 24 2 4 5 12 0 0
split_gain=22.9764 13.3333 0.914286 1.68067 0.284054 0.0376543 8.88178e-16 8.88178e-16
threshold=157.50000000000003 60.000000000000007 190.00000000000003 196.14583333333337 16.250696752063799 32.538357500000011 327.50000000000006 212.50000000000003
decision_type=2 2 2 2 2 2 2 2
left_child=1 -1 3 4 5 -2 7 -4
right_child=2 -3 6 -5 -6 -7 -8 -9
leaf_value=-0.73151246867329578 0.018487531326704245 1.9506999164621193 0.20249808033509709 -0.023158106885993845 -0.0077013687470837647 0.018487531326704245 3.697071666529185 1.0170043303350966
leaf_weight=40 20 20 58 24 21 61 24 422
leaf_count=40 20 20 58 24 21 61 24 422
internal_value=0.00123188 -0.0283333 0.00404762 0.000238095 0.00303922 0.00438272 0.005 0.005
internal_weight=690 60 630 126 102 81 504 480
internal_count=690 60 630 126 102 81 504 480
is_linear=0
shrinkage=0.05


Tree=15
num_leaves=8
num_cat=0
split_feature=2 2 15 12 14 3 5
split_gain=22.7517 0.855556 1.00136 1.28284 0.346753 3.55271e-15 1.11022e-16
threshold=157.50000000000003 197.50000000000003 -0.25881904510252113 32.538357500000011 990.48702000000014 175.41666666666669 15.602338639271176
decision_type=2 2 2 2 2 2 2
left_child=5 2 3 -2 6 -1 -4
right_child=1 -3 4 -5 -6 -7 -8
leaf_value=-0.6949368452396314 -0.022000201541693798 0.96615411381834237 0.017563154760368606 0.017563154760368606 -0.0073163003097291464 -0.6949368452396314 0.018872599877931964
leaf_weight=36 30 462 58 28 21 24 31
leaf_count=36 30 462 58 28 21 24 31
internal_value=0.00108696 0.00388889 0.000833334 -0.00448276 0.00363636 -0.0283333 0.005
internal_weight=690 630 168 58 110 60 89
internal_count=690 630 168 58 110 60 89
is_linear=0
shrinkage=0.05


Tree=16
num_leaves=8
num_cat=0
split_feature=2 24 2 24 17 7 5
split_gain=22.7517 13.3333 0.855556 1.44667 2.6048 0.273529 2.22045e-16
threshold=157.50000000000003 60.000000000000007 197.50000000000003 36.000000000000007 3.5000000000000004 0.93999037389816376 15.946866031665435
decision_type=2 2 2 2 2 2 2
left_child=1 -1 3 4 -2 -6 -5
right_child=2 -3 -4 6 5 -7 -8
leaf_value=-0.66019000297765018 -0.020900191464609464 1.8879117629009941 0.91784640812742568 0.49646113511848999 0.016684997022349535 -0.022283120542248357 0.54105944475054113
leaf_weight=40 24 20 462 58 31 20 35
leaf_count=40 24 20 462 58 31 20 35
internal_value=0.00108696 -0.0283333 0.00388889 0.000833334 -0.00433333 0.00205882 0.005
internal_weight=690 60 630 168 75 51 93
internal_count=690 60 630 168 75 51 93
is_linear=0
shrinkage=0.05


Tree=17
num_leaves=8
num_cat=0
split_feature=2 24 2 24 17 8 4
split_gain=22.7517 13.3333 0.855556 1.44667 2.6048 0.273529 2.22045e-16
threshold=157.50000000000003 60.000000000000007 197.50000000000003 36.000000000000007 3.5000000000000004 -0.34119984676935938 187.39583333333337
decision_type=2 2 2 2 2 2 2
left_child=1 -1 3 4 -2 -6 -5
right_child=2 -3 -4 6 5 -7 -8
leaf_value=-0.62718050282876736 -0.019855181891378495 1.7935161747559449 0.87195408772105487 0.60380816820004213 0.015850747171232627 -0.021168964515135599 0.47163807836256527
leaf_weight=40 24 20 462 35 31 20 58
leaf_count=40 24 20 462 35 31 20 58
internal_value=0.00108696 -0.0283333 0.00388889 0.000833334 -0.00433333 0.00205882 0.005
internal_weight=690 60 630 168 75 51 93
internal_count=690 60 630 168 75 51 93
is_linear=0
shrinkage=0.05


Tree=18
num_leaves=8
num_cat=0
split_feature=2 24 2 24 12 0 4
split_gain=22.7517 13.3333 0.855556 1.44667 2.44487 0.465608 2.22045e-16
threshold=157.50000000000003 60.000000000000007 197.50000000000003 36.000000000000007 32.538357500000011 197.50000000000003 187.39583333333337
decision_type=2 2 2 2 2 2 2
left_child=1 -1 3 4 -2 -6 -5
right_child=2 -3 -4 6 5 -7 -8
leaf_value=-0.59582147768732907 -0.018862422796809143 1.7038403660181474 0.82835638333500161 0.57361775979004048 0.015058209812670498 -0.031307466126676765 0.44805617444443729
leaf_weight=40 21 20 462 35 33 21 58
leaf_count=40 21 20 462 35 33 21 58
internal_value=0.00108696 -0.0283333 0.00388889 0.000833334 -0.00433333 0.0012963 0.005
internal_weight=690 60 630 168 75 54 93
internal_count=690 60 630 168 75 54 93
is_linear=0
shrinkage=0.05


Tree=19
num_leaves=8
num_cat=0
split_feature=2 24 2 24 13 5 4
split_gain=22.7517 13.3333 0.855556 1.44667 2.44487 0.503704 2.22045e-16
threshold=157.50000000000003 60.000000000000007 197.50000000000003 36.000000000000007 3.5125947323875413 15.980910260483402 187.39583333333337
decision_type=2 2 2 2 2 2 2
left_child=1 -1 3 4 -2 -6 -5
right_child=2 -3 -4 6 5 -7 -8
leaf_value=-0.56603040380296221 -0.017919301656968402 1.6186483477172402 0.78693856416825136 0.54493687180053851 0.014305299322036547 -0.029866490847099386 0.42565336572221502
leaf_weight=40 21 20 462 35 34 20 58
leaf_count=40 21 20 462 35 34 20 58
internal_value=0.00108696 -0.0283333 0.00388889 0.000833334 -0.00433333 0.0012963 0.005
internal_weight=690 60 630 168 75 54 93
internal_count=690 60 630 168 75 54 93
is_linear=0
shrinkage=0.05


Tree=20
num_leaves=10
num_cat=0
split_feature=2 24 2 24 17 0 7 0 0
split_gain=20.672 13.3333 2.84706 6.42437 9.61818 4.06719 0.264935 4.44089e-16 2.22045e-16
threshold=157.50000000000003 60.000000000000007 205.00000000000003 36.000000000000007 3.5000000000000004 212.50000000000003 0.93999037389816376 327.50000000000006 187.50000000000003
decision_type=2 2 2 2 2 2 2 2 2
left_child=1 -1 3 4 5 -2 -6 -4 -5
right_child=2 -3 7 8 6 -7 -8 -9 -10
leaf_value=-0.53772888361281446 -0.016792706601225931 1.537715930331379 1.9866541373987319 3.1573825091694374 0.013590034355934222 -0.013345862601268266 -0.017027323807480493 3.2936556053442221 0.44388177737888762
leaf_weight=40 23 20 368 29 34 21 21 24 110
leaf_count=40 23 20 368 29 34 21 21 24 110
internal_value=-0.000289855 -0.0283333 0.00238095 -0.00193277 -0.0116667 -0.0290909 0.00227273 0.005 0.005
internal_weight=690 60 630 238 99 44 55 392 139
internal_count=690 60 630 238 99 44 55 392 139
is_linear=0
shrinkage=0.05


Tree=21
num_leaves=10
num_cat=0
split_feature=2 24 2 24 17 0 7 0 0
split_gain=20.672 13.3333 2.84706 6.42437 9.61818 4.06719 0.264935 4.44089e-16 2.22045e-16
threshold=157.50000000000003 60.000000000000007 205.00000000000003 36.000000000000007 3.5000000000000004 212.50000000000003 0.93999037389816376 327.50000000000006 187.50000000000003
decision_type=2 2 2 2 2 2 2 2 2
left_child=1 -1 3 4 5 -2 -6 -4 -5
right_child=2 -3 7 8 6 -7 -8 -9 -10
leaf_value=-0.510842439432173 -0.015953071271164802 1.4608301338148095 1.8873214305287946 2.9995133837109664 0.012910532638137795 -0.012678569471205492 -0.016175957617107068 3.1289728250770112 0.42168768850994304
leaf_weight=40 23 20 368 29 34 21 21 24 110
leaf_count=40 23 20 368 29 34 21 21 24 110
internal_value=-0.000289855 -0.0283333 0.00238095 -0.00193277 -0.0116667 -0.0290909 0.00227273 0.005 0.005
internal_weight=690 60 630 238 99 44 55 392 139
internal_count=690 60 630 238 99 44 55 392 139
is_linear=0
shrinkage=0.05


Tree=22
num_leaves=10
num_cat=0
split_feature=2 24 2 24 17 0 7 5 0
split_gain=20.672 13.3333 2.84706 5.775 8.93384 3.50303 0.264935 0.0428058 4.44089e-16
threshold=157.50000000000003 60.000000000000007 205.00000000000003 36.000000000000007 3.5000000000000004 197.50000000000003 0.93999037389816376 13.425856516006982 327.50000000000006
decision_type=2 2 2 2 2 2 2 2 2
left_child=1 -1 3 4 5 -2 -6 -5 -4
right_child=2 -3 8 7 6 -7 -8 -9 -10
leaf_value=-0.48530031746056468 -0.015386047680500781 1.3877886271240698 1.7929553590023546 0.38907704464948101 0.01226500600623126 -0.012044640997645219 -0.015367159736252384 0.40817288223286891 2.9725241838231597
leaf_weight=40 20 20 368 20 34 24 21 119 24
leaf_count=40 20 20 368 20 34 24 21 119 24
internal_value=-0.000289855 -0.0283333 0.00238095 -0.00193277 -0.0111616 -0.0279545 0.00227273 0.00464029 0.005
internal_weight=690 60 630 238 99 44 55 139 392
internal_count=690 60 630 238 99 44 55 139 392
is_linear=0
shrinkage=0.05


Tree=23
num_leaves=10
num_cat=0
split_feature=2 24 2 24 0 12 5 0 5
split_gain=20.779 13.3333 2.67712 5.41174 8.71949 2.7163 0.0428058 4.44089e-16 1.11022e-16
threshold=157.50000000000003 60.000000000000007 205.00000000000003 36.000000000000007 212.50000000000003 32.538357500000011 13.425856516006982 327.50000000000006 15.5106321645808
decision_type=2 2 2 2 2 2 2 2 2
left_child=1 -1 3 4 5 -2 -5 -4 -7
right_child=2 -3 7 6 -6 8 -8 -9 -10
leaf_value=-0.46103530158753614 -0.014616745295941369 1.3183991957678671 1.7033075910522371 0.36962319241700758 -0.026193438782575247 0.011651755949291191 0.38776423812122585 2.8238979746320014 0.013366249597401063
leaf_weight=40 21 20 368 20 28 21 119 24 29
leaf_count=40 21 20 368 20 28 21 119 24 29
internal_value=-0.000217391 -0.0283333 0.00246032 -0.00172269 -0.0106566 -0.00133803 0.00464029 0.005 0.005
internal_weight=690 60 630 238 99 71 139 392 50
internal_count=690 60 630 238 99 71 139 392 50
is_linear=0
shrinkage=0.05


Tree=24
num_leaves=12
num_cat=0
split_feature=4 6 4 15 12 0 12 15 0 12 3
split_gain=19.1664 1.36111 0.682434 0.836862 1.10345 0.17011 0.32 0.0406542 8.88178e-16 4.44089e-16 2.22045e-16
threshold=171.14583333333337 1.7500000000000002 213.02083333333337 -0.25881904510252113 31.685977500000003 212.50000000000003 463.00170000000008 1.0000000180025095e-35 327.50000000000006 30.568149500000004 205.83333333333334
decision_type=2 2 2 2 2 2 2 2 2 2 2
left_child=1 -1 3 4 -2 7 -7 -5 9 -4 -9
right_child=2 -3 8 5 -6 6 -8 10 -10 -11 -12
leaf_value=-0.43798353650815902 -0.013885908031679151 -0.43798353650815902 0.52179805301424809 0.015227786106795496 0.011069167908455314 0.061688234309498519 -0.010132737008633798 0.019209642681619194 2.6827030759004007 0.66451630664769257 0.15719579075459245
leaf_weight=48 29 24 106 20 29 25 25 58 24 273 29
leaf_count=48 29 24 106 20 29 25 25 58 24 273 29
internal_value=0.000942029 -0.0234722 0.00378641 0.00151163 -0.00362069 0.00340764 0.001 0.00453271 0.005 0.005 0.005
internal_weight=690 72 618 215 58 157 50 107 403 379 87
internal_count=690 72 618 215 58 157 50 107 403 379 87
is_linear=0
shrinkage=0.05


Tree=25
num_leaves=12
num_cat=0
split_feature=4 24 6 4 24 17 4 7 3 4 3
split_gain=16.6831 11.1111 1.86667 1.75397 3.59258 6.45041 2.51488 0.319565 0.043464 8.88178e-16 5.55112e-17
threshold=171.14583333333337 60.000000000000007 1.6500000000000001 221.14583333333337 36.000000000000007 3.5000000000000004 198.64583333333337 0.95125306026985224 186.66666666666671 255.52083333333337 205.83333333333334
decision_type=2 2 2 2 2 2 2 2 2 2 2
left_child=1 2 -1 4 5 6 -2 10 -6 -5 -7
right_child=3 -3 -4 9 8 7 -8 -9 -10 -11 -12
leaf_value=-0.41608435968275048 -0.013533286618713211 1.2743784128048816 -0.41608435968275048 0.34585389472834721 3.1490786847401688 0.010472847175023108 -0.0324210537799118 -0.014256696612954265 0.37075881940490601 2.0792913961672399 0.156604896632841
leaf_weight=28 20 24 20 116 20 26 28 20 133 232 23
leaf_count=28 20 24 20 116 20 26 28 20 133 232 23
internal_value=1.86265e-10 -0.0227778 -0.0366667 0.00265372 -0.00037037 -0.00696581 -0.0210417 0.00282609 0.0046732 0.005 0.005
internal_weight=690 72 48 618 270 117 48 69 153 348 49
internal_count=690 72 48 618 270 117 48 69 153 348 49
is_linear=0
shrinkage=0.05


Tree=26
num_leaves=12
num_cat=0
split_feature=4 24 6 4 24 17 15 7 5 4 4
split_gain=16.6831 11.1111 1.86667 1.75397 3.59258 6.45041 2.67202 0.319565 0.043464 8.88178e-16 5.55112e-17
threshold=171.14583333333337 60.000000000000007 1.6500000000000001 221.14583333333337 36.000000000000007 3.5000000000000004 -0.25881904510252113 0.95125306026985224 13.425856516006982 255.52083333333337 202.39583333333337
decision_type=2 2 2 2 2 2 2 2 2 2 2
left_child=1 2 -1 4 5 6 -2 10 -6 -5 -7
right_child=3 -3 -4 9 8 7 -8 -9 -10 -11 -12
leaf_value=-0.39528014169861336 -0.030800001090916851 1.2106594921646376 -0.39528014169861336 0.32856119999192973 0.29334089516796752 0.0099749222213774951 -0.029683843278075869 -0.013543861782306231 0.35255413382850737 1.9753268263588781 0.14714141309936934
leaf_weight=28 20 24 20 116 20 29 28 20 133 232 20
leaf_count=28 20 24 20 116 20 29 28 20 133 232 20
internal_value=1.86265e-10 -0.0227778 -0.0366667 0.00265372 -0.00037037 -0.00696581 -0.0210417 0.00282609 0.0046732 0.005 0.005
internal_weight=690 72 48 618 270 117 48 69 153 348 49
internal_count=690 72 48 618 270 117 48 69 153 348 49
is_linear=0
shrinkage=0.05


Tree=27
num_leaves=12
num_cat=0
split_feature=4 24 4 24 17 15 3 7 3 4 3
split_gain=17.003 11.1111 1.40985 2.84471 4.87189 4.01457 0.952381 0.319565 0.043464 8.88178e-16 5.55112e-17
threshold=171.14583333333337 60.000000000000007 221.14583333333337 36.000000000000007 3.5000000000000004 -1.0000000180025095e-35 165.41666666666671 0.95125306026985224 186.66666666666671 255.52083333333337 205.83333333333334
decision_type=2 2 2 2 2 2 2 2 2 2 2
left_child=1 6 3 4 5 -2 -1 10 -5 -4 -6
right_child=2 -3 9 8 7 -7 -8 -9 -10 -11 -12
leaf_value=-0.37551613461368305 -0.029260001036371365 1.1501265175564073 0.3121331399923335 2.9742931099212147 0.0094504587052039162 -0.01712107579160306 -0.37551613461368305 -0.01286666869319145 0.33459317174323583 1.8765604850409348 0.14141758114623004
leaf_weight=20 22 24 116 20 26 26 28 20 133 232 23
leaf_count=20 22 24 116 20 26 26 28 20 133 232 23
internal_value=0.000217391 -0.0227778 0.00289644 0.000185185 -0.00568376 -0.0179167 -0.0366667 0.00282609 0.0046732 0.005 0.005
internal_weight=690 72 618 270 117 48 48 69 153 348 49
internal_count=690 72 618 270 117 48 48 69 153 348 49
is_linear=0
shrinkage=0.05


Tree=28
num_leaves=10
num_cat=0
split_feature=2 24 2 24 0 12 12 0 1
split_gain=4.67302 13.3333 1.76732 3.47999 4.90971 2.29859 0.0428058 4.44089e-16 1.11022e-16
threshold=157.50000000000003 36.000000000000007 205.00000000000003 36.000000000000007 212.50000000000003 31.987307500000004 19.598797000000001 327.50000000000006 205.00000000000003
decision_type=2 2 2 2 2 2 2 2 2
left_child=1 -1 3 4 5 -2 -5 -4 -7
right_child=2 -3 7 6 -6 8 -8 -9 -10
leaf_value=-0.35674032788299859 -0.0085675598347364715 0.0090159064536507582 1.3302952242743267 0.24440544024410171 -0.027813743349500576 0.0090036531750486235 0.31779451586110546 2.2520089867270259 0.023722326487503987
leaf_weight=20 20 40 368 20 28 29 119 24 22
leaf_count=20 20 40 368 20 28 29 119 24 22
internal_value=0.00166667 -0.0116667 0.00293651 -0.000462185 -0.00762626 -0.000633803 0.00464029 0.005 0.005
internal_weight=690 60 630 238 99 71 139 392 51
internal_count=690 60 630 238 99 71 139 392 51
is_linear=0
shrinkage=0.05


Tree=29
num_leaves=11
num_cat=0
split_feature=4 24 4 24 17 15 7 3 4 3
split_gain=3.58274 11.1111 1.40985 2.84471 4.87189 4.01457 0.319565 0.043464 8.88178e-16 5.55112e-17
threshold=171.14583333333337 36.000000000000007 221.14583333333337 36.000000000000007 3.5000000000000004 -1.0000000180025095e-35 0.95125306026985224 186.66666666666671 255.52083333333337 205.83333333333334
decision_type=2 2 2 2 2 2 2 2 2 2
left_child=1 -1 3 4 5 -2 9 -5 -4 -6
right_child=2 -3 8 7 6 -7 -8 -9 -10 -11
leaf_value=-0.33890331148884911 -0.026406313817078343 0.008565111130968717 0.23001172177900031 2.8100556739062945 0.0085277531111909201 -0.014874334834547823 -0.011698726376465924 0.30197378736301994 1.7162176995751723 0.13316058576454284
leaf_weight=24 22 48 116 20 26 26 20 133 232 23
leaf_count=24 22 48 116 20 26 26 20 133 232 23
internal_value=0.00166667 -0.00888889 0.00289644 0.000185185 -0.00568376 -0.0179167 0.00282609 0.0046732 0.005 0.005
internal_weight=690 72 618 270 117 48 69 153 348 49
internal_count=690 72 618 270 117 48 69 153 348 49
is_linear=0
shrinkage=0.05


Tree=30
num_leaves=11
num_cat=0
split_feature=2 2 17 15 4 4 7 4 0 3
split_gain=4.62236 1.90588 1.38552 1.19762 0.527858 0.270677 0.172237 0.116402 4.44089e-16 4.44089e-16
threshold=157.50000000000003 205.00000000000003 3.5000000000000004 -0.25881904510252113 210.52083333333337 190.52083333333337 0.96245486997788221 199.27083333333337 327.50000000000006 175.41666666666669
decision_type=2 2 2 2 2 2 2 2 2 2
left_child=9 2 3 7 5 -5 -4 -2 -3 -1
right_child=1 8 6 4 -6 -7 -8 -9 -10 -11
leaf_value=-0.32195814591440669 -0.0066101048066055631 1.2571224337723828 0.013236451447158971 -0.024730838339408291 -0.025141805372795881 0.012820948393410126 0.020159922337551223 -0.017950085444550724 2.0535976524119151 -0.32195814591440669
leaf_weight=36 21 368 71 21 21 36 35 33 24 24
leaf_count=36 21 368 71 21 21 36 35 33 24 24
internal_value=0.0015942 0.00285714 -0.000672269 -0.00409091 -0.000128205 0.00236842 0.00358491 -0.00981481 0.005 -0.0116667
internal_weight=690 630 238 132 78 57 106 54 392 60
internal_count=690 630 238 132 78 57 106 54 392 60
is_linear=0
shrinkage=0.05


Tree=31
num_leaves=10
num_cat=0
split_feature=2 24 2 24 0 15 16 0 4
split_gain=4.62236 13.3333 1.90588 3.27888 4.90971 1.76526 0.171223 4.44089e-16 5.55112e-17
threshold=157.50000000000003 36.000000000000007 205.00000000000003 36.000000000000007 212.50000000000003 -0.25881904510252113 0.91597561503675351 327.50000000000006 191.14583333333337
decision_type=2 2 2 2 2 2 2 2 2
left_child=1 -1 3 4 5 -2 -5 -4 -7
right_child=2 -3 7 6 -6 8 -8 -9 -10
leaf_value=-0.30586023861868628 -0.0061721282677915101 0.02423476287014097 1.1942663120837629 0.28045906125697256 -0.02418849385399682 0.0086176205120841506 0.20981773663280154 1.9509177697913203 0.035140391471750042
leaf_weight=20 24 40 368 119 28 24 20 24 23
leaf_count=20 24 40 368 119 28 24 20 24 23
internal_value=0.0015942 -0.0116667 0.00285714 -0.000672269 -0.00762626 -0.000633803 0.00428058 0.005 0.005
internal_weight=690 60 630 238 99 71 139 392 47
internal_count=690 60 630 238 99 71 139 392 47
is_linear=0
shrinkage=0.05


Tree=32
num_leaves=10
num_cat=0
split_feature=2 24 2 24 4 15 5 5 1
split_gain=4.67302 13.3333 1.76732 3.00662 4.38961 1.97147 0.171223 0.129825 4.44089e-16
threshold=157.50000000000003 36.000000000000007 205.00000000000003 36.000000000000007 211.14583333333337 -0.25881904510252113 13.425856516006982 15.980910260483402 275.00000000000006
decision_type=2 2 2 2 2 2 2 2 2
left_child=1 -1 3 4 5 -2 -5 -7 -4
right_child=2 -3 8 6 -6 7 -8 -9 -10
leaf_value=-0.29056722668775165 -0.0064565321401866774 0.023023024726633423 0.57829470390344273 0.19932684980116155 -0.022979069161297619 0.010023686308143646 0.26643610819412372 0.0019666349000228432 2.1145980280249979
leaf_weight=20 20 40 220 20 22 37 119 20 172
leaf_count=20 20 40 220 20 22 37 119 20 172
internal_value=0.00166667 -0.0116667 0.00293651 -0.000462185 -0.00712121 -0.00149351 0.00428058 0.00324561 0.005
internal_weight=690 60 630 238 99 77 139 57 392
internal_count=690 60 630 238 99 77 139 57 392
is_linear=0
shrinkage=0.05


Tree=33
num_leaves=10
num_cat=0
split_feature=2 24 2 24 0 12 5 0 3
split_gain=4.77516 13.3333 1.50588 2.4975 3.83697 1.75986 0.171223 4.44089e-16 1.11022e-16
threshold=157.50000000000003 36.000000000000007 205.00000000000003 36.000000000000007 212.50000000000003 31.987307500000004 13.425856516006982 327.50000000000006 205.83333333333334
decision_type=2 2 2 2 2 2 2 2 2
left_child=1 -1 3 4 5 -2 -5 -4 -7
right_child=2 -3 7 6 -6 8 -8 -9 -10
leaf_value=-0.27603886535336386 -0.0056481665740207637 0.021871873490302108 1.1056382612844027 0.18936050731110318 -0.021996042558212532 0.0080281135631077877 0.25311430278441804 1.7476419799005045 0.038674145611734517
leaf_weight=20 20 40 368 20 28 31 119 24 20
leaf_count=20 20 40 368 20 28 31 119 24 20
internal_value=0.00181159 -0.0116667 0.00309524 -4.20166e-05 -0.00611111 7.04227e-05 0.00428058 0.005 0.005
internal_weight=690 60 630 238 99 71 139 392 51
internal_count=690 60 630 238 99 71 139 392 51
is_linear=0
shrinkage=0.05


Tree=34
num_leaves=14
num_cat=0
split_feature=2 2 15 12 14 7 15 1 14 1 3 1 3
split_gain=4.77516 1.50588 1.26267 1.2146 0.230488 0.209799 0.217349 0.0544444 0.0533474 4.44089e-16 4.44089e-16 1.11022e-16 5.55112e-17
threshold=157.50000000000003 205.00000000000003 -0.25881904510252113 31.987307500000004 987.9469150000001 0.99356092128593054 0.25881904510252091 205.00000000000003 988.91617000000008 275.00000000000006 175.41666666666669 205.00000000000003 190.41666666666669
decision_type=2 2 2 2 2 2 2 2 2 2 2 2 2
left_child=10 2 3 7 -5 6 8 -2 -4 -3 -1 12 -8
right_child=1 9 5 4 -6 -7 11 -9 -10 -11 -12 -13 -14
leaf_value=-0.26223692208569532 -0.0058512972044761366 0.49409805564404952 -0.0072427651064100353 0.0077124329073832544 -0.019936984825044413 -0.016374258214754637 0.021655979825831045 -0.013594400893649095 0.011924971868423426 1.9535862135595274 -0.26223692208569532 0.010305645096994227 0.015440637825896537
leaf_weight=36 20 220 26 21 20 22 23 25 21 172 24 38 22
leaf_count=36 20 220 26 21 20 22 23 25 21 172 24 38 22
internal_value=0.00181159 0.00309524 -4.20166e-05 -0.00488372 0.00134146 0.00269737 0.00346154 -0.0105556 0.000744681 0.005 -0.0116667 0.005 0.005
internal_weight=690 630 238 86 41 152 130 45 47 392 60 83 45
internal_count=690 630 238 86 41 152 130 45 47 392 60 83 45
is_linear=0
shrinkage=0.05


Tree=35
num_leaves=11
num_cat=0
split_feature=24 2 22 2 2 2 13 5 13 3
split_gain=6.59538 13.6252 10.1432 8.2709 2.025 1.07794 1.7503 0.264935 0.189556 2.22045e-16
threshold=36.000000000000007 157.50000000000003 0.34523809523809529 222.50000000000003 212.50000000000003 197.50000000000003 3.4961192549999027 15.980910260483402 2.8685811436592608 308.33333333333343
decision_type=2 2 2 2 2 2 2 2 2 2
left_child=1 -1 3 4 -3 6 -4 -8 -2 -7
right_child=8 2 5 -5 -6 9 7 -9 -10 -11
leaf_value=-0.24912507598141076 0.015558663550456823 -0.020137094249244154 -0.0055587323442518053 1.0827145641813445 -0.023897351205459928 0.81258057022750452 0.0073268109181555026 -0.017973340764019866 0.24779304462354818 2.7738133941508893
leaf_weight=20 20 20 20 21 20 116 34 21 363 35
leaf_count=20 20 20 20 21 20 116 34 21 363 35
internal_value=0.000362319 -0.00509772 -0.00231707 -0.0204098 -0.03375 0.00256637 -0.00233333 0.00227273 0.0047389 0.005
internal_weight=690 307 287 61 40 226 75 55 383 151
internal_count=690 307 287 61 40 226 75 55 383 151
is_linear=0
shrinkage=0.05


Tree=36
num_leaves=11
num_cat=0
split_feature=2 0 2 12 14 9 22 12 5 5
split_gain=5.25502 2.86935 3 1.64783 1.44002 0.855556 0.56113 0.0406746 4.44089e-16 4.44089e-16
threshold=222.50000000000003 227.50000000000003 157.50000000000003 27.196859000000003 988.96163000000013 16.500000000000004 0.47619047619047622 32.538357500000011 15.805658498769096 15.012072436561853
decision_type=2 2 2 2 2 2 2 2 2 2
left_child=1 2 8 5 -3 -4 -5 -8 -1 -2
right_child=9 4 3 6 -6 -7 7 -9 -10 -11
leaf_value=-0.23666882218234095 1.3574578885475441 -0.013621485590200292 0.0043913814268044969 -0.018980312963741867 -0.017066485810500531 -0.011907826136504696 0.011120109502911223 0.021835323256048103 -0.23666882218234095 1.206954722209892
leaf_weight=39 92 28 30 33 38 33 21 123 21 232
leaf_count=39 92 28 30 33 38 33 21 123 21 232
internal_value=0.000362319 -0.00374317 -0.00166667 0.000833334 -0.0131818 -0.00611111 0.00330508 0.00465278 -0.0116667 0.005
internal_weight=690 366 300 240 66 63 177 144 60 324
internal_count=690 366 300 240 66 63 177 144 60 324
is_linear=0
shrinkage=0.05


Tree=37
num_leaves=13
num_cat=0
split_feature=24 2 22 2 2 2 12 0 12 4 3 4
split_gain=6.59538 13.6252 10.1432 8.2709 2.025 1.07794 1.7503 0.286364 0.189556 4.44089e-16 2.22045e-16 2.22045e-16
threshold=36.000000000000007 157.50000000000003 0.34523809523809529 222.50000000000003 212.50000000000003 197.50000000000003 31.987307500000004 205.00000000000003 16.612047500000003 251.14583333333337 308.33333333333343 291.14583333333337
decision_type=2 2 2 2 2 2 2 2 2 2 2 2
left_child=1 -1 3 4 -3 6 -4 -8 -2 -10 -7 -11
right_child=8 2 5 -5 -6 10 7 -9 9 11 -12 -13
leaf_value=-0.22483538107322404 0.02540887080525275 -0.018181223888594941 -0.0048005440658128928 0.96070594176916735 -0.021866384350887776 0.71160380560563397 0.0058687042094447868 -0.016326439796021715 0.19001758081722786 1.6605905639796974 2.5747749883328512 3.166297502279277
leaf_weight=20 20 20 20 21 20 116 35 20 232 73 35 58
leaf_count=20 20 20 20 21 20 116 35 20 232 73 35 58
internal_value=0.000362319 -0.00509772 -0.00231707 -0.0204098 -0.03375 0.00256637 -0.00233333 0.00227273 0.0047389 0.005 0.005 0.005
internal_weight=690 307 287 61 40 226 75 55 383 363 151 131
internal_count=690 307 287 61 40 226 75 55 383 363 151 131
is_linear=0
shrinkage=0.05


Tree=38
num_leaves=13
num_cat=0
split_feature=2 4 2 12 7 15 3 4 4 3 4 1
split_gain=5.25502 3.96236 2.6932 1.62606 0.662071 0.650966 0.563333 0.130345 0.039489 4.44089e-16 4.44089e-16 2.22045e-16
threshold=222.50000000000003 224.27083333333337 157.50000000000003 27.196859000000003 0.96245486997788221 -1.0000000180025095e-35 211.66666666666671 185.52083333333337 213.02083333333337 175.41666666666669 255.52083333333337 212.50000000000003
decision_type=2 2 2 2 2 2 2 2 2 2 2 2
left_child=1 2 9 5 8 -4 7 -6 11 -1 -2 -5
right_child=10 -3 3 4 6 -7 -8 -9 -10 -11 -12 -13
leaf_value=-0.21359361201956234 0.96457884473413891 -0.0099905915870266426 -0.010403373635249125 0.010818957441815812 0.017113226012569253 -0.0026824288943387842 -0.016986367910974794 -0.00075185802927899004 0.12270394142871482 -0.21359361201956234 1.260427124285755 0.012845108140598947
leaf_weight=36 92 34 33 73 21 36 30 29 21 24 232 29
leaf_count=36 92 34 33 73 21 36 30 29 21 24 232 29
internal_value=0.000362319 -0.00374317 -0.00207831 3.67649e-05 0.00229064 -0.0065942 -0.00125 0.002 0.0045935 -0.0116667 0.005 0.005
internal_weight=690 366 332 272 203 69 80 50 123 60 324 102
internal_count=690 366 332 272 203 69 80 50 123 60 324 102
is_linear=0
shrinkage=0.05


Tree=39
num_leaves=13
num_cat=0
split_feature=24 2 22 2 2 2 12 5 12 4 3 4
split_gain=6.59538 13.6252 10.1432 8.2709 2.025 1.07794 1.7503 0.264935 0.189556 4.44089e-16 2.22045e-16 2.22045e-16
threshold=36.000000000000007 157.50000000000003 0.34523809523809529 222.50000000000003 212.50000000000003 197.50000000000003 31.987307500000004 15.980910260483402 16.612047500000003 251.14583333333337 308.33333333333343 291.14583333333337
decision_type=2 2 2 2 2 2 2 2 2 2 2 2
left_child=1 -1 3 4 -3 6 -4 -8 -2 -10 -7 -11
right_child=8 2 5 -5 -6 10 7 -9 9 11 -12 -13
leaf_value=-0.20291393141858408 0.03376355224891036 -0.017122775272164558 -0.0040886057451271175 0.86444170244400176 -0.020273535553991556 0.61492032078599212 0.0050343211268824468 -0.014555709185437575 0.18078116005638822 1.517498163948994 2.3830148827019202 2.9449612709510253
leaf_weight=20 20 20 20 21 20 116 34 21 232 73 35 58
leaf_count=20 20 20 20 21 20 116 34 21 232 73 35 58
internal_value=0.000362319 -0.00509772 -0.00231707 -0.0204098 -0.03375 0.00256637 -0.00233333 0.00227273 0.0047389 0.005 0.005 0.005
internal_weight=690 307 287 61 40 226 75 55 383 363 151 131
internal_count=690 307 287 61 40 226 75 55 383 363 151 131
is_linear=0
shrinkage=0.05


Tree=40
num_leaves=13
num_cat=0
split_feature=24 2 2 0 17 15 5 5 1 3 3 5
split_gain=6.59538 13.6252 6.82425 9.28602 3.10113 3.42857 0.127976 0.0895561 0.1 8.88178e-16 2.22045e-16 1.11022e-16
threshold=36.000000000000007 157.50000000000003 222.50000000000003 227.50000000000003 3.5000000000000004 1.0000000180025095e-35 15.012072436561853 13.425856516006947 212.50000000000003 295.41666666666669 308.33333333333343 15.980910260483412
decision_type=2 2 2 2 2 2 2 2 2 2 2 2
left_child=1 -1 3 4 5 -3 -6 8 -2 -9 -4 -11
right_child=7 2 10 -5 6 -7 -8 9 -10 11 -12 -13
leaf_value=-0.19276823484765515 0.0076016424164054332 -0.015163075436965635 0.74607633605146662 -0.017342162005241891 0.0037589357304084144 0.0037484056420532424 0.0085191585811622006 0.20824558375889168 1.7994747740084844 2.809783298690991 2.263864138566825 2.3954366644381664
leaf_weight=20 20 21 116 30 21 21 43 289 20 29 35 25
leaf_count=20 20 21 116 30 21 21 43 289 20 29 35 25
internal_value=0.000362319 -0.00509772 -0.00231707 -0.0104412 -0.00349057 -0.0140476 0.0034375 0.0047389 0.0025 0.005 0.005 0.005
internal_weight=690 307 287 136 106 42 64 383 40 343 151 54
internal_count=690 307 287 136 106 42 64 383 40 343 151 54
is_linear=0
shrinkage=0.05


Tree=41
num_leaves=13
num_cat=0
split_feature=24 2 22 2 2 2 12 0 12 4 3 4
split_gain=6.59538 13.6252 10.1432 8.2709 2.025 1.07794 1.7503 0.286364 0.189556 4.44089e-16 2.22045e-16 2.22045e-16
threshold=36.000000000000007 157.50000000000003 0.34523809523809529 222.50000000000003 212.50000000000003 197.50000000000003 31.987307500000004 205.00000000000003 16.612047500000003 251.14583333333337 308.33333333333343 291.14583333333337
decision_type=2 2 2 2 2 2 2 2 2 2 2 2
left_child=1 -1 3 4 -3 6 -4 -8 -2 -10 -7 -11
right_child=8 2 5 -5 -6 10 7 -9 9 11 -12 -13
leaf_value=-0.18312982310527276 0.022666314871199442 -0.016454056790659578 -0.003220631715073616 0.78391580051922893 -0.018392750676029936 0.54687048794411919 0.0044518516105538797 -0.013065905851138166 0.16132982286562358 1.4312109765636016 2.1506709316384844 2.6729088152509153
leaf_weight=20 20 20 20 21 20 116 35 20 232 73 35 58
leaf_count=20 20 20 20 21 20 116 35 20 232 73 35 58
internal_value=0.000362319 -0.00509772 -0.00231707 -0.0204098 -0.03375 0.00256637 -0.00233333 0.00227273 0.0047389 0.005 0.005 0.005
internal_weight=690 307 287 61 40 226 75 55 383 363 151 131
internal_count=690 307 287 61 40 226 75 55 383 363 151 131
is_linear=0
shrinkage=0.05


Tree=42
num_leaves=12
num_cat=0
split_feature=2 4 2 12 15 12 7 16 0 4 4
split_gain=4.61867 2.88098 2.86506 1.23197 0.951287 0.696966 0.49781 0.141975 4.44089e-16 4.44089e-16 4.44089e-16
threshold=222.50000000000003 224.27083333333337 157.50000000000003 19.972800000000003 -0.78656609248549303 50.24753350000001 0.99032541181851796 -0.9159756150367534 220.00000000000003 166.77083333333337 255.52083333333337
decision_type=2 2 2 2 2 2 2 2 2 2 2
left_child=1 2 9 -4 5 -5 7 -6 -9 -1 -2
right_child=10 -3 3 4 6 -7 -8 8 -10 -11 -12
leaf_value=-0.17397333195000897 0.82095654525835338 -0.0066906395959108527 -0.0074462095784980425 -0.013574261225488174 0.0068307361187286272 0.0041254820951394161 -0.011540719976262956 0.011753347156595458 0.060179515585255632 -0.17397333195000897 1.102012410832387
leaf_weight=39 92 34 39 27 24 20 24 116 22 21 232
leaf_count=39 92 34 39 27 24 20 24 116 22 21 232
internal_value=0.000652174 -0.00319672 -0.00177711 0.000404412 0.00178112 -0.00457447 0.0033871 0.00438272 0.005 -0.0116667 0.005
internal_weight=690 366 332 272 233 47 186 162 138 60 324
internal_count=690 366 332 272 233 47 186 162 138 60 324
is_linear=0
shrinkage=0.05


Tree=43
num_leaves=13
num_cat=0
split_feature=24 2 22 2 2 2 12 0 12 4 4 4
split_gain=6.16581 13.8485 8.74737 7.23811 1.225 1.07794 1.7503 0.286364 0.189556 4.44089e-16 2.22045e-16 2.22045e-16
threshold=36.000000000000007 157.50000000000003 0.34523809523809529 222.50000000000003 212.50000000000003 197.50000000000003 31.987307500000004 205.00000000000003 16.612047500000003 251.14583333333337 303.02083333333337 291.14583333333337
decision_type=2 2 2 2 2 2 2 2 2 2 2 2
left_child=1 -1 3 4 -3 6 -4 -8 -2 -10 -7 -11
right_child=8 2 5 -5 -6 10 7 -9 9 11 -12 -13
leaf_value=-0.16527466535250854 0.029399030349019709 -0.015146175206781881 -0.0023910547714127393 0.70367218323034997 -0.017138581162431981 0.47145274205277743 0.0038763456510961035 -0.011913905547947801 0.15389135260300862 1.3073603673572434 1.9880367645149393 2.4841627539467481
leaf_weight=20 20 20 20 21 20 116 35 20 232 73 35 58
leaf_count=20 20 20 20 21 20 116 35 20 232 73 35 58
internal_value=0.000507247 -0.00477199 -0.00196864 -0.0187705 -0.03125 0.00256637 -0.00233333 0.00227273 0.0047389 0.005 0.005 0.005
internal_weight=690 307 287 61 40 226 75 55 383 363 151 131
internal_count=690 307 287 61 40 226 75 55 383 363 151 131
is_linear=0
shrinkage=0.05


Tree=44
num_leaves=11
num_cat=0
split_feature=24 2 22 2 2 15 2 8 12 3
split_gain=6.59538 13.6252 8.38833 7.23811 1.39145 1.60866 1.225 0.273529 0.189556 4.44089e-16
threshold=36.000000000000007 157.50000000000003 0.34523809523809529 222.50000000000003 205.00000000000003 -0.25881904510252113 212.50000000000003 -0.35912220323251703 16.612047500000003 296.25000000000006
decision_type=2 2 2 2 2 2 2 2 2 2
left_child=1 -1 3 6 5 -4 -3 -7 -2 -6
right_child=8 2 4 -5 9 7 -8 -9 -10 -11
leaf_value=-0.1570109320848829 0.0279290788315684 -0.014388866446442867 -0.010175887682815528 0.668488574068833 0.54146415318812735 0.0057003919576493443 -0.016281652104309888 -0.0072103903797122769 0.18849768998443092 1.6530228337979775
leaf_weight=20 20 20 28 21 92 31 20 20 363 55
leaf_count=20 20 20 28 21 92 31 20 20 363 55
internal_value=0.000362319 -0.00509772 -0.00231707 -0.0187705 0.00212389 -0.00322785 -0.03125 0.00205882 0.0047389 0.005
internal_weight=690 307 287 61 226 79 40 51 383 147
internal_count=690 307 287 61 226 79 40 51 383 147
is_linear=0
shrinkage=0.05


Tree=45
num_leaves=17
num_cat=0
split_feature=2 24 22 24 2 9 2 24 15 3 7 5 0 4 0 1
split_gain=15.49 10.8 3.20356 7.1713 6.74754 1.6 0.806728 0.9156 1.60866 0.4 0.273529 0.159596 4.44089e-16 4.44089e-16 1.11022e-16 1.11022e-16
threshold=157.50000000000003 60.000000000000007 0.34523809523809529 36.000000000000007 222.50000000000003 20.000000000000004 205.00000000000003 36.000000000000007 -0.25881904510252113 170.41666666666671 0.93311062582887294 13.430915559023687 327.50000000000006 250.52083333333337 205.00000000000003 227.50000000000003
decision_type=2 2 2 2 2 2 2 2 2 2 2 2 2 2 2 2
left_child=1 9 3 4 5 -2 7 8 -4 -1 -10 -9 13 -8 -13 -5
right_child=2 -3 6 15 -6 -7 12 11 10 -11 -12 14 -14 -15 -16 -17
leaf_value=-0.14916038548063854 -0.0055971470169126295 1.0821783877171469 -0.0096670932986752389 0.44820457528760793 0.63506414536539069 -0.015622594513885701 0.59169135041836862 0.12980624488898071 0.0054153723597670476 -0.14916038548063854 -0.0068498708607259975 0.14091204687778849 0.59475096067590705 0.9962659455287195 3.6952035422215683 0.47507218122975986
leaf_weight=20 20 20 28 46 21 20 58 20 31 20 20 53 24 232 26 31
leaf_count=20 20 20 28 46 21 20 58 20 31 20 20 53 24 232 26 31
internal_value=-0.000724637 -0.025 0.0015873 -0.00514493 -0.0179508 -0.03 0.00347561 0.000786517 -0.00322785 -0.04 0.00205882 0.0039899 0.005 0.005 0.005 0.005
internal_weight=690 60 630 138 61 40 492 178 79 40 51 99 314 290 79 77
internal_count=690 60 630 138 61 40 492 178 79 40 51 99 314 290 79 77
is_linear=0
shrinkage=0.05


Tree=46
num_leaves=15
num_cat=0
split_feature=24 2 22 2 4 9 7 4 12 4 14 5 2 1
split_gain=6.46432 13.5142 7.40553 6.74754 1.77144 1.6 1.59499 1.11468 0.169244 0.0435484 0.0418962 0.0304179 4.44089e-16 2.22045e-16
threshold=36.000000000000007 157.50000000000003 0.34523809523809529 222.50000000000003 204.89583333333337 20.000000000000004 0.84292192141001665 185.52083333333337 16.612047500000003 217.39583333333337 991.63763500000016 16.564704453008783 292.50000000000006 315.00000000000006
decision_type=2 2 2 2 2 2 2 2 2 2 2 2 2 2
left_child=1 -1 3 5 6 -3 -4 -8 -2 -6 11 12 -10 -11
right_child=8 2 4 -5 9 -7 7 -9 10 13 -12 -13 -14 -15
leaf_value=-0.14170236620660717 0.032595811407081642 -0.0053172896660669267 0.0067414582463636453 0.60331093809712122 0.1178344454625625 -0.014841464788190706 -2.2114611646164783e-05 -0.013487109713941958 0.1710475650924782 0.59517871065289663 0.32031104003683736 0.41626849030663937 8.4527662415035341 1.5248399418664462
leaf_weight=20 20 20 26 21 20 20 21 24 283 114 20 30 30 21
leaf_count=20 20 20 26 21 20 20 21 24 283 114 20 30 30 21
internal_value=0.000144928 -0.00526059 -0.00249129 -0.0179508 0.00168142 -0.03 -0.00485915 -0.0105556 0.00447781 0.00467742 0.00472452 0.00485423 0.005 0.005
internal_weight=690 307 287 61 226 40 71 45 383 155 363 343 313 135
internal_count=690 307 287 61 226 40 71 45 383 155 363 343 313 135
is_linear=0
shrinkage=0.05


Tree=47
num_leaves=18
num_cat=0
split_feature=2 24 22 24 2 9 4 0 9 12 4 6 14 4 1 1 4
split_gain=15.5826 10.8 3.27953 7.1713 6.74754 1.6 0.728924 1.70277 0.4 0.309384 0.0545545 0.124902 0.0382353 4.44089e-16 1.11022e-16 1.11022e-16 1.11022e-16
threshold=157.50000000000003 60.000000000000007 0.34523809523809529 36.000000000000007 222.50000000000003 20.000000000000004 196.77083333333337 212.50000000000003 20.000000000000004 31.685977500000003 211.77083333333337 1.7500000000000002 987.61196500000017 255.52083333333337 227.50000000000003 187.50000000000003 250.52083333333337
decision_type=2 2 2 2 2 2 2 2 2 2 2 2 2 2 2 2 2
left_child=1 8 3 4 5 -2 7 9 -1 -4 11 -8 -11 16 -5 -14 -12
right_child=2 -3 6 14 -6 -7 10 -9 -10 12 13 -13 15 -15 -16 -17 -18
leaf_value=-0.1346172478962771 -0.0050514251827635803 1.0187707729132442 -0.023186992527617176 0.41724196826860444 0.57314539119226571 -0.014099391548781171 0.00020055153562026362 -0.021606428921937069 -0.1346172478962771 0.0043512883002320701 0.18297334339545057 0.0051778157027142953 0.0099470910141116926 0.91669371271964062 0.44276619385448018 0.021730822095800059 0.77568119177277639
leaf_weight=20 20 20 20 46 21 20 40 24 20 20 46 21 23 232 31 42 24
leaf_count=20 20 20 20 46 21 20 40 24 20 20 46 21 23 232 31 42 24
internal_value=-0.000652174 -0.025 0.00166667 -0.00514493 -0.0179508 -0.03 0.00357724 0.000348837 -0.04 0.00309524 0.00472452 0.00336066 0.00441176 0.005 0.005 0.005 0.005
internal_weight=690 60 630 138 61 40 492 129 40 105 363 61 85 302 77 65 70
internal_count=690 60 630 138 61 40 492 129 40 105 363 61 85 302 77 65 70
is_linear=0
shrinkage=0.05


Tree=48
num_leaves=12
num_cat=0
split_feature=2 0 2 4 17 9 4 4 5 3 4
split_gain=5.25502 3.8645 4.32 1.08459 1.37255 0.627622 0.302674 0.255149 0.12381 0.118367 4.44089e-16
threshold=222.50000000000003 227.50000000000003 157.50000000000003 213.02083333333337 3.5000000000000004 18.700000000000006 187.39583333333337 180.52083333333337 15.805658498769096 180.41666666666671 255.52083333333337
decision_type=2 2 2 2 2 2 2 2 2 2 2
left_child=1 2 8 6 -5 -3 7 9 -1 -4 -2
right_child=10 5 3 4 -6 -7 -8 -9 -10 -11 -12
leaf_value=-0.12788638550146345 0.65578428403101274 -0.011980173825459763 0.012649606322853377 -0.0096945129768722417 0.10279982176339755 -0.013394421971342753 0.011788470735017426 -0.0093712394762828551 -0.12788638550146345 0.0031069517634588297 0.87085902708365959
leaf_weight=39 92 31 29 30 21 35 116 24 21 20 232
leaf_count=39 92 31 29 30 21 35 116 24 21 20 232
internal_value=0.000362319 -0.00374317 -0.00133333 0.00166667 -0.00480392 -0.014697 0.0034127 0.000890411 -0.0133333 0.00295918 0.005
internal_weight=690 366 300 240 51 66 189 73 60 49 324
internal_count=690 366 300 240 51 66 189 73 60 49 324
is_linear=0
shrinkage=0.05


Tree=49
num_leaves=14
num_cat=0
split_feature=2 4 2 15 13 7 5 13 9 2 5 4 4
split_gain=5.93243 2.44461 2.65386 1.38312 1.34914 0.602901 0.398268 0.257273 0.12094 0.040566 0.0309524 0.00952381 4.44089e-16
threshold=222.50000000000003 224.27083333333337 157.50000000000003 -0.25881904510252113 3.4869249943515914 0.98862513392784479 15.980910260483412 3.0569717662780689 23.500000000000004 172.50000000000003 15.805658498769096 199.27083333333337 255.52083333333337
decision_type=2 2 2 2 2 2 2 2 2 2 2 2 2
left_child=1 2 10 4 11 7 -6 -5 9 -9 -1 -4 -2
right_child=12 -3 3 5 6 -7 -8 8 -10 -11 -12 -13 -14
leaf_value=-0.12149206622639071 0.62299506982946151 -0.0031866204748140971 -0.01114914186755662 -0.0041742077511967906 0.0069343635465364487 -0.010819010162991718 -0.0087138556672232709 0.0040716786238229729 0.0026949753543497228 0.017291689377041352 -0.12149206622639071 -0.0043141282747825469 0.82731607572947619
leaf_weight=39 92 34 20 21 23 31 21 20 22 86 21 28 232
leaf_count=39 92 34 20 21 23 31 21 20 22 86 21 28 232
internal_value=7.2464e-05 -0.00428962 -0.00298193 -0.000882353 -0.00586956 0.00166667 0.000454546 0.00298658 0.00382813 0.0045283 -0.0125 -0.0116667 0.005
internal_weight=690 366 332 272 92 180 44 149 128 106 60 48 324
internal_count=690 366 332 272 92 180 44 149 128 106 60 48 324
is_linear=0
shrinkage=0.05


Tree=50
num_leaves=14
num_cat=0
split_feature=24 2 22 2 4 5 2 6 13 14 5 0 3
split_gain=6.2499 13.6252 8.38833 7.23811 1.31319 1.39648 1.225 0.631831 0.169244 0.0418962 0.0304179 4.44089e-16 2.22045e-16
threshold=36.000000000000007 157.50000000000003 0.34523809523809529 222.50000000000003 211.77083333333337 16.250696752063799 212.50000000000003 1.1500000000000001 2.8685811436592608 991.63763500000016 16.564704453008783 307.50000000000006 310.41666666666669
decision_type=2 2 2 2 2 2 2 2 2 2 2 2 2
left_child=1 -1 3 6 5 7 -3 -4 -2 10 11 -10 -6
right_child=8 2 4 -5 12 -7 -8 -9 9 -11 -12 -13 -14
leaf_value=-0.11541746291507167 0.048429490010177614 -0.010483144333042128 -0.0001831931641717688 0.4805491539396286 0.30407527194300316 -0.016572121044537209 -0.012565369849033914 0.0023812736879081616 0.16055427736362193 0.30568547005002605 0.37760463468085137 8.0371457440825278 1.5491850494528963
leaf_weight=20 20 20 24 21 116 21 20 37 289 20 30 24 28
leaf_count=20 20 20 24 21 116 21 20 37 289 20 30 24 28
internal_value=0.000217391 -0.00509772 -0.00231707 -0.0187705 0.00212389 -0.00292683 -0.03125 0.00090164 0.00447781 0.00472452 0.00485423 0.005 0.005
internal_weight=690 307 287 61 226 82 40 61 383 363 343 313 144
internal_count=690 307 287 61 226 82 40 61 383 363 343 313 144
is_linear=0
shrinkage=0.05


Tree=51
num_leaves=13
num_cat=0
split_feature=24 4 4 0 8 15 12 1 5 5 12 0
split_gain=5.70872 10.4861 5.73368 5.27931 4.54012 2.34578 1.14763 0.233278 0.445455 0.154545 0.0311321 2.22045e-16
threshold=36.000000000000007 171.14583333333337 234.89583333333337 212.50000000000003 -0.53803519667684341 0.37940952255126054 31.685977500000003 197.50000000000003 16.298630228010602 13.425856516006982 873.26595000000009 315.00000000000006
decision_type=2 2 2 2 2 2 2 2 2 2 2 2
left_child=1 -1 3 6 -5 -6 -3 8 9 -2 -8 -4
right_child=7 2 11 4 5 -7 10 -9 -10 -11 -12 -13
leaf_value=-0.10964658976931788 0.00021971576970255814 -0.00017403350596367773 0.58907572063912261 -0.00058434553548511242 -0.013459666731731421 -0.012069935503527661 0.0064020407228576968 0.52872393456762179 -0.013622366164761019 0.0086518146246433499 0.0038644320202094263 0.32705178386018474
leaf_weight=24 20 20 116 24 27 20 33 273 22 68 20 23
leaf_count=24 20 20 116 24 27 20 33 273 22 68 20 23
internal_value=0.000144928 -0.00493485 -0.00224382 -0.00923611 -0.0189437 -0.0279787 0.00020548 0.00421671 0.00227273 0.00386364 0.0040566 0.005
internal_weight=690 307 283 144 71 47 73 383 110 88 53 139
internal_count=690 307 283 144 71 47 73 383 110 88 53 139
is_linear=0
shrinkage=0.05


Tree=52
num_leaves=13
num_cat=0
split_feature=2 24 2 24 22 15 15 3 8 2 6 4
split_gain=7.04983 9.63333 3.7126 6.47075 8.34816 2.5 1.36837 0.9 0.547138 0.159851 0.203175 4.44089e-16
threshold=157.50000000000003 36.000000000000007 222.50000000000003 36.000000000000007 0.47619047619047622 1.0000000180025095e-35 -0.25881904510252113 170.41666666666671 -0.44228852180796224 182.50000000000003 1.4500000000000002 255.52083333333337
decision_type=2 2 2 2 2 2 2 2 2 2 2 2
left_child=1 -1 3 4 5 -2 -6 -3 -8 10 -5 -4
right_child=2 7 11 9 6 -7 8 -9 -10 -11 -12 -13
leaf_value=-0.10416426028085227 -0.016870252441980479 0.0082192238934112542 0.56299909130220105 0.11481076527336892 -0.0083233939362854833 -0.011271066674169565 0.0084894428082193645 -0.017784382103737072 -0.0048810198840016188 0.363321472854647 -0.025944675395812824 0.74129272231389509
leaf_weight=20 20 20 92 28 30 20 39 20 27 107 35 232
leaf_count=20 20 20 92 28 30 20 39 20 27 107 35 232
internal_value=-0.000289855 -0.0166667 0.00126984 -0.00267974 -0.0108088 -0.03 -0.0028125 -0.0025 0.00121212 0.00382353 0.0018254 0.005
internal_weight=690 60 630 306 136 40 96 40 66 170 63 324
internal_count=690 60 630 306 136 40 96 40 66 170 63 324
is_linear=0
shrinkage=0.05


Tree=53
num_leaves=13
num_cat=0
split_feature=4 4 0 3 9 12 16 3 6 7 14 4
split_gain=5.91496 1.85413 2.24402 1.07037 0.933102 1.37166 0.3709 0.321053 0.228571 0.182032 0.0692113 4.44089e-16
threshold=171.14583333333337 236.14583333333337 212.50000000000003 175.41666666666669 15.700000000000001 36.255303500000004 0.25881904510252057 186.66666666666671 1.4500000000000002 0.95125306026985224 988.58748000000003 255.52083333333337
decision_type=2 2 2 2 2 2 2 2 2 2 2 2
left_child=3 2 7 8 -4 -6 9 -2 -1 10 -7 -3
right_child=1 11 4 -5 5 6 -8 -9 -10 -11 -12 -13
leaf_value=-0.098956047266810288 0.00012569518212016736 0.61006445666778863 0.0065416629273187315 -0.098956047266810288 -0.011996390125053651 0.00051689316321130725 -0.0072001987008499775 0.019282118918270284 -0.098956047266810288 -0.010568212474909359 0.00092742919961566266 0.70422808619819932
leaf_weight=24 38 58 38 27 35 20 21 122 21 31 23 232
leaf_count=24 38 58 38 27 35 20 21 122 21 31 23 232
internal_value=0.000507247 0.00208738 -0.000487805 -0.0130556 -0.00452381 -0.00653846 -0.00342105 0.00375 -0.00833333 -0.00175676 0.000348837 0.005
internal_weight=690 618 328 72 168 130 95 160 45 74 43 290
internal_count=690 618 328 72 168 130 95 160 45 74 43 290
is_linear=0
shrinkage=0.05


Tree=54
num_leaves=15
num_cat=0
split_feature=2 24 2 24 0 8 12 12 3 2 9 4 4 4
split_gain=6.83316 10.2083 2.68908 4.39477 4.17638 3.83535 1.49852 1.0741 0.625 0.159851 0.179513 0.0314815 0.0256098 4.44089e-16
threshold=157.50000000000003 36.000000000000007 222.50000000000003 36.000000000000007 212.50000000000003 -0.53803519667684341 31.685977500000003 60.744622000000007 170.41666666666671 182.50000000000003 17.550000000000004 187.39583333333337 193.02083333333337 255.52083333333337
decision_type=2 2 2 2 2 2 2 2 2 2 2 2 2 2
left_child=1 -1 3 4 6 -6 -2 -7 -3 10 -5 -8 -12 -4
right_child=2 8 13 9 5 7 11 -9 -10 -11 12 -13 -14 -15
leaf_value=-0.094008244903469068 -0.000713268079765328 0.01275606506208078 0.53093111509690838 -0.075349587466552848 0.00017776518474037534 -0.016008492201533758 0.0013173579853874634 -0.010241640621881858 -0.011947360635210203 0.34572665517644441 0.1457092496655332 0.026567594335517426 0.086558243543534211 0.66901668188828867
leaf_weight=20 21 20 92 22 20 20 20 21 20 107 21 34 20 232
leaf_count=20 21 20 92 22 20 20 20 21 20 107 21 34 20 232
internal_value=0.000289855 -0.0158333 0.0018254 -0.00153595 -0.00823529 -0.0179508 -0.000333333 -0.0267073 -0.00125 0.00382353 0.0018254 0.00407407 0.00378049 0.005
internal_weight=690 60 630 306 136 61 75 41 40 170 63 54 41 324
internal_count=690 60 630 306 136 61 75 41 40 170 63 54 41 324
is_linear=0
shrinkage=0.05


Tree=55
num_leaves=13
num_cat=0
split_feature=2 24 2 24 8 14 15 3 8 2 6 5
split_gain=6.89472 10.2083 2.5563 4.13088 2.70872 2.46759 1.0073 0.625 0.204147 0.159851 0.203175 4.44089e-16
threshold=157.50000000000003 36.000000000000007 222.50000000000003 36.000000000000007 -0.34119984676935938 988.41800000000012 -1.0000000180025095e-35 170.41666666666671 -0.57142972056497388 182.50000000000003 1.4500000000000002 15.012072436561853
decision_type=2 2 2 2 2 2 2 2 2 2 2 2
left_child=1 -1 3 4 6 -6 -2 -3 -8 10 -5 -4
right_child=2 7 11 9 5 -7 8 -9 -10 -11 -12 -13
leaf_value=-0.089307832658295186 -0.0039010056689640555 0.012118261808976172 0.62914352734800127 0.10170792355334757 -0.011347915820013987 -0.0078844210205378639 3.9774415848635325 -0.011349992603449266 -0.00019718872826857841 0.32844032241762267 -0.024287755767466335 0.54207717951844647
leaf_weight=20 26 20 92 28 27 26 24 20 33 107 35 232
leaf_count=20 26 20 92 28 27 26 24 20 33 107 35 232
internal_value=0.000362319 -0.0158333 0.00190476 -0.00137255 -0.00786765 -0.0166981 -0.00222892 -0.00125 0.00149123 0.00382353 0.0018254 0.005
internal_weight=690 60 630 306 136 53 83 40 57 170 63 324
internal_count=690 60 630 306 136 53 83 40 57 170 63 324
is_linear=0
shrinkage=0.05


Tree=56
num_leaves=17
num_cat=0
split_feature=2 24 2 24 0 7 12 12 3 2 6 7 12 4 0 0
split_gain=6.95656 10.2083 1.95558 3.38824 3.36982 2.85654 1.39518 1.07947 0.625 0.159851 0.203175 0.0439923 0.143662 0.0314815 4.44089e-16 1.11022e-16
threshold=157.50000000000003 36.000000000000007 222.50000000000003 36.000000000000007 212.50000000000003 0.84292192141001665 60.744622000000007 31.685977500000003 170.41666666666671 182.50000000000003 1.4500000000000002 0.98368063778518444 52.965843500000013 187.39583333333337 242.50000000000003 300.00000000000006
decision_type=2 2 2 2 2 2 2 2 2 2 2 2 2 2 2 2
left_child=1 -1 3 4 7 -6 -7 -2 -3 10 -5 14 -13 -9 -4 -14
right_child=2 8 11 9 5 6 -8 13 -10 -11 -12 12 15 -15 -16 -17
leaf_value=-0.084842441025379856 -0.00038790222540408827 0.011512348718527222 0.47235237178617989 0.096622527375680861 0.00027565473701251646 -0.014975782767796065 -0.0091621627997877809 0.0012798686019917021 -0.010782492973277158 0.31201830629674099 -0.023073367979093318 0.10772897442555872 0.4590616603513098 0.025249074055154794 0.59853323157789828 0.59960598828265355
leaf_weight=20 21 20 21 28 20 20 21 20 20 107 35 20 27 34 232 24
leaf_count=20 21 20 21 28 20 20 21 20 20 107 35 20 27 34 232 24
internal_value=0.000434783 -0.0158333 0.00198413 -0.000882353 -0.00676471 -0.0154918 -0.0230488 0.000333334 -0.00125 0.00382353 0.0018254 0.00469136 0.00359155 0.00407407 0.005 0.005
internal_weight=690 60 630 306 136 61 41 75 40 170 63 324 71 54 253 51
internal_count=690 60 630 306 136 61 41 75 40 170 63 324 71 54 253 51
is_linear=0
shrinkage=0.05


Tree=57
num_leaves=16
num_cat=0
split_feature=4 24 24 8 0 0 15 0 3 4 12 12 9 3 0
split_gain=5.38489 8.50694 1.56905 2.03277 1.93294 0.82672 0.811262 1.48687 0.729167 0.206207 0.219288 0.196348 0.0420635 0.0267442 4.44089e-16
threshold=171.14583333333337 36.000000000000007 36.000000000000007 -0.27144034650821885 257.50000000000006 227.50000000000003 -0.5 242.50000000000003 173.33333333333334 196.77083333333337 38.909858500000006 1319.5776000000003 24.300000000000004 193.33333333333334 300.00000000000006
decision_type=2 2 2 2 2 2 2 2 2 2 2 2 2 2 2
left_child=1 -1 3 6 5 -5 7 -2 -3 10 -4 12 -8 -12 -11
right_child=2 8 9 4 -6 -7 11 -9 -10 14 13 -13 -14 -15 -16
leaf_value=-0.080600318974110519 -0.0056096489846197174 0.010936731282600932 -0.11036471155615875 -0.0041842616717975064 0.021476230878607651 -0.021258126232659338 0.016462659950572615 0.1041854855559393 -0.010243368324613301 0.32308244648982631 2.8223217203368862 0.0013070766633481727 0.0015375433566642395 0.10538697563821367 5.8609623102155428
leaf_weight=24 22 28 20 27 33 21 106 23 20 232 23 31 20 20 40
leaf_count=24 22 28 20 27 33 21 106 23 20 232 23 31 20 20 40
internal_value=0.00057971 -0.0123611 0.00208738 -0.00065371 -0.00734568 -0.01375 0.0020297 -0.00388889 -0.000208333 0.00440299 0.0018254 0.00372611 0.00460317 0.00383721 0.005
internal_weight=690 72 618 283 81 48 202 45 48 335 63 157 126 43 272
internal_count=690 72 618 283 81 48 202 45 48 335 63 157 126 43 272
is_linear=0
shrinkage=0.05


Tree=58
num_leaves=18
num_cat=0
split_feature=2 2 0 5 12 4 0 9 0 12 3 12 7 12 12 3 0
split_gain=6.77188 1.6442 2.43857 0.773809 0.643844 0.554113 0.402953 0.846018 0.311173 0.128665 0.124675 0.0869565 0.0544633 0.132203 0.0410714 0.025 4.44089e-16
threshold=157.50000000000003 222.50000000000003 227.50000000000003 15.805658498769096 17.164009000000004 226.77083333333337 212.50000000000003 22.450000000000003 327.50000000000006 31.685977500000003 222.08333333333334 474.26074000000011 0.98368063778518444 52.965843500000013 1422.9861000000003 198.75000000000003 252.50000000000003
decision_type=2 2 2 2 2 2 2 2 2 2 2 2 2 2 2 2 2
left_child=3 2 4 -1 -2 10 9 11 12 15 -4 -8 16 -14 -11 -6 -3
right_child=1 8 5 -5 6 -7 7 -9 -10 14 -12 -13 13 -15 -16 -17 -18
leaf_value=-0.07657030302540449 -0.00048497459781679628 0.39705765107962282 -0.016303532524419292 -0.07657030302540449 0.0072949563198152672 -0.0076203023794321825 0.00070895257909752677 -0.0064153308856604923 0.041728442748568795 0.017633694338639205 -0.00070256544023400891 0.015357828639918615 0.10340543201591357 0.49022347098240737 0.011914815914198837 0.00044256631539560024 0.57335887685005105
leaf_weight=39 21 36 22 21 20 24 23 21 24 92 20 23 20 39 20 20 205
leaf_count=39 21 36 22 21 20 24 23 21 24 92 20 23 20 39 20 20 205
internal_value=0.000217391 0.00174603 -0.000882353 -0.0158333 0.00145833 -0.00939394 0.00226027 -0.000970149 0.0042284 0.00368421 -0.0128571 0.00282609 0.00466667 0.00330508 0.00455357 0.00125 0.005
internal_weight=690 630 306 60 240 66 219 67 324 152 42 46 300 59 112 40 241
internal_count=690 630 306 60 240 66 219 67 324 152 42 46 300 59 112 40 241
is_linear=0
shrinkage=0.05


Tree=59
num_leaves=17
num_cat=0
split_feature=2 2 0 14 12 8 0 15 0 2 22 8 6 15 1 4
split_gain=6.65014 1.86119 1.8568 0.773809 0.740741 0.606294 0.311173 0.300391 0.27098 0.255428 0.142194 0.185529 0.171463 0.12 0.1 8.88178e-16
threshold=157.50000000000003 222.50000000000003 227.50000000000003 989.44985000000008 17.555330000000005 -0.34119984676935938 327.50000000000006 -1.0000000180025095e-35 212.50000000000003 182.50000000000003 0.60714285714285732 -0.51789367405032694 1.4500000000000002 -0.91597561503675329 227.50000000000003 238.64583333333337
decision_type=2 2 2 2 2 2 2 2 2 2 2 2 2 2 2 2
left_child=3 2 4 -1 -2 -4 13 8 9 -6 11 -9 -13 -3 -7 -15
right_child=1 6 5 -5 7 14 -8 10 -10 -11 -12 12 -14 15 -16 -17
leaf_value=-0.072741787874134906 -0.00042698427407129457 0.37650207446203771 -0.00041180546784165897 -0.072741787874134906 -5.6520947908177062e-05 -0.02397569655872412 0.039642020611139174 0.0078240354449773206 -0.0034865451013170118 0.078794335105335594 0.02546647034863166 -0.00095731337001244668 0.015104028365276476 0.32137952369597955 -0.0085155400430942524 0.54469093300754712
leaf_weight=39 24 30 26 21 29 20 24 28 25 25 60 25 24 38 20 232
leaf_count=39 24 30 26 21 29 20 24 28 25 25 60 25 24 38 20 232
internal_value=7.2464e-05 0.0015873 -0.00120915 -0.0158333 0.000833334 -0.00863636 0.0042284 0.00175926 -0.000696202 0.0012963 0.00317518 0.00175325 -0.000102041 0.00466667 -0.0125 0.005
internal_weight=690 630 306 60 240 66 324 216 79 54 137 77 49 300 40 270
internal_count=690 630 306 60 240 66 324 216 79 54 137 77 49 300 40 270
is_linear=0
shrinkage=0.05


Tree=60
num_leaves=15
num_cat=0
split_feature=2 24 24 2 0 7 0 2 3 7 2 14 5 1
split_gain=6.02912 10.8 2.16932 3.5746 2.40566 0.996779 0.946046 1.11111 0.4 0.304296 0.184653 0.203175 0.0364286 4.44089e-16
threshold=157.50000000000003 36.000000000000007 36.000000000000007 222.50000000000003 227.50000000000003 0.82065054250373815 212.50000000000003 182.50000000000003 170.41666666666671 0.96245486997788221 182.50000000000003 988.88669000000016 16.564704453008783 197.50000000000003
decision_type=2 2 2 2 2 2 2 2 2 2 2 2 2 2
left_child=1 -1 3 4 5 -2 7 -7 -3 -5 11 -4 13 -12
right_child=2 8 10 9 -6 6 -8 -9 -10 -11 12 -13 -14 -15
leaf_value=-0.0691046984804288 1.3305642612079742 0.017855499263446008 0.11379781154284124 0.37636742044436899 -0.01155106924749719 -0.00042248769951723232 -0.0059822160091271663 0.076908880094316401 -0.0022655953634071581 0.025376319954564963 0.34287474681724128 -0.030342302468415752 0.42402431250937822 0.6970270462823478
leaf_weight=20 24 20 28 112 30 36 22 24 20 39 23 35 25 232
leaf_count=20 24 20 28 112 30 36 22 24 20 39 23 35 25 232
internal_value=0.000144928 -0.015 0.0015873 -0.00162021 -0.0075 -0.00396226 -0.00658537 -0.00333333 1.86265e-10 0.0036755 0.00427114 0.0018254 0.00482143 0.005
internal_weight=690 60 630 287 136 106 82 60 40 151 343 63 280 255
internal_count=690 60 630 287 136 106 82 60 40 151 343 63 280 255
is_linear=0
shrinkage=0.05


Tree=61
num_leaves=16
num_cat=0
split_feature=2 24 24 2 7 2 14 3 15 2 14 2 14 5 1
split_gain=6.32105 10.8 1.57525 2.49536 2.09229 0.91838 0.406448 0.4 0.351673 0.184653 0.203175 0.114894 0.0423664 0.0364286 4.44089e-16
threshold=157.50000000000003 36.000000000000007 36.000000000000007 222.50000000000003 0.84292192141001665 197.50000000000003 988.61490000000015 170.41666666666671 -0.78656609248549303 182.50000000000003 988.88669000000016 190.00000000000003 990.66343500000005 16.564704453008783 197.50000000000003
decision_type=2 2 2 2 2 2 2 2 2 2 2 2 2 2 2
left_child=1 -1 3 4 11 6 -6 -3 -5 10 -4 -2 -10 14 -11
right_child=2 7 9 8 5 -7 -8 -9 12 13 -12 -13 -14 -15 -16
leaf_value=-0.065649463556407286 0.0010960673927112071 0.016962724300273634 0.10810792096569932 -0.036452395178192251 -0.00062380446545565584 -0.011250061772590206 -0.0016642764154739358 -0.0021523155952365871 0.41026044566427516 0.32573100947637901 -0.028825187344994431 0.00064472996429602478 0.21323882511373904 0.40282309688390899 0.66217569396822995
leaf_weight=20 20 20 28 20 29 38 22 20 111 23 35 27 20 25 232
leaf_count=20 20 20 28 20 29 38 22 20 111 23 35 27 20 25 232
internal_value=0.000507247 -0.015 0.00198413 -0.000749129 -0.00566176 -0.0101685 -0.00578431 1.86265e-10 0.0036755 0.00427114 0.0018254 0.00287234 0.00461832 0.00482143 0.005
internal_weight=690 60 630 287 136 89 51 40 151 343 63 47 131 280 255
internal_count=690 60 630 287 136 89 51 40 151 343 63 47 131 280 255
is_linear=0
shrinkage=0.05


Tree=62
num_leaves=18
num_cat=0
split_feature=2 2 0 22 6 5 15 4 12 22 9 4 7 3 12 7 5
split_gain=6.32105 0.999694 1.03334 1.01291 0.505853 0.495238 0.280584 0.340909 0.244907 0.236877 0.468839 0.175401 0.130435 0.12803 0.0365828 0.0413393 1.11022e-16
threshold=157.50000000000003 222.50000000000003 227.50000000000003 0.47619047619047622 1.5500000000000003 15.805658498769096 -0.70710678118654735 296.77083333333337 17.555330000000005 0.60714285714285732 22.450000000000003 186.77083333333337 0.83243768142029106 181.66666666666671 22.227859500000005 0.99356092128593054 15.10680574145794
decision_type=2 2 2 2 2 2 2 2 2 2 2 2 2 2 2 2 2
left_child=5 2 8 4 -4 -1 7 -3 -2 10 11 13 -11 -10 -8 -16 -14
right_child=1 6 3 -5 -6 -7 14 -9 9 12 -12 -13 16 -15 15 -17 -18
leaf_value=-0.062366990378586708 -0.00016561872078728562 -0.02791338896368295 -0.01085570121674222 -0.021455023437297473 0.00098832017329107355 -0.062366990378586708 0.44504870032733301 1.185548576255665 0.0074600106712198857 0.071556240610798807 -0.0030404116979281214 0.004717230219800795 0.061197098247307513 -0.00035083222334430196 0.48518783668168342 0.22357731334066844 0.015832332307627487
leaf_weight=39 24 33 20 20 26 21 21 27 24 23 39 41 29 20 221 22 40
leaf_count=39 24 33 20 20 26 21 21 27 24 23 39 41 29 20 221 22 40
internal_value=0.000507247 0.00198413 -6.53593e-05 -0.00560606 -0.00152174 -0.015 0.00391975 0.000833334 0.00145833 0.00199074 0.000564516 0.00264706 0.00391304 0.000454546 0.00462121 0.00479424 0.005
internal_weight=690 630 306 66 46 60 324 60 240 216 124 85 92 44 264 243 69
internal_count=690 630 306 66 46 60 324 60 240 216 124 85 92 44 264 243 69
is_linear=0
shrinkage=0.05


Tree=63
num_leaves=16
num_cat=0
split_feature=24 3 3 7 5 15 12 14 9 12 5 14 3 3 1
split_gain=4.8875 9.2284 2.52093 1.65755 1.07467 0.972933 0.794484 0.465676 0.81244 0.159519 0.111543 0.046997 0.025 4.44089e-16 1.11022e-16
threshold=36.000000000000007 178.33333333333334 230.41666666666671 0.82065054250373815 16.298630228010602 -1.0000000180025095e-35 1055.2521000000004 988.99265000000014 17.550000000000004 16.612047500000003 16.564704453008783 991.63763500000016 270.41666666666669 300.41666666666669 300.00000000000006
decision_type=2 2 2 2 2 2 2 2 2 2 2 2 2 2 2
left_child=1 -1 3 -3 5 -5 -7 14 12 -2 11 13 -9 -11 -4
right_child=9 2 7 4 -6 6 -8 8 -10 10 -12 -13 -14 -15 -16
leaf_value=-0.059248640859657087 0.057125624812466816 0.26604974825240996 0.0061222843461672394 -0.0045355068297492692 -0.0078289361656723819 0.00067413573032775646 -0.0050379605971087871 0.03746996886757626 -0.031247341552034676 0.10497597620694313 0.18973760096637177 0.17181414677128484 0.28990035689688837 1.7491464015833449 1.1763272641704645
leaf_weight=27 20 24 61 32 20 27 20 20 23 273 30 20 20 40 33
leaf_count=27 20 24 61 32 20 27 20 20 23 273 30 20 20 40 33
internal_value=0.00057971 -0.00412052 -0.00142857 -0.00678862 -0.00964646 -0.00702532 -0.00244681 0.0027707 -0.000555555 0.00434726 0.00458678 0.00484985 0.00375 0.005 0.005
internal_weight=690 307 280 123 99 79 47 157 63 383 363 333 40 313 94
internal_count=690 307 280 123 99 79 47 157 63 383 363 333 40 313 94
is_linear=0
shrinkage=0.05


Tree=64
num_leaves=17
num_cat=0
split_feature=2 24 24 7 2 2 1 16 3 2 6 7 3 5 1 1
split_gain=7.01867 10.2083 1.46781 1.80682 1.42813 1.27025 0.722006 0.652497 0.625 0.184653 0.203175 0.0962509 0.163534 0.0364286 4.44089e-16 1.11022e-16
threshold=157.50000000000003 36.000000000000007 36.000000000000007 0.93999037389816376 242.50000000000003 197.50000000000003 197.50000000000003 0.37940952255126048 170.41666666666671 182.50000000000003 1.4500000000000002 0.84292192141001665 255.41666666666671 16.564704453008783 197.50000000000003 267.50000000000006
decision_type=2 2 2 2 2 2 2 2 2 2 2 2 2 2 2 2
left_child=1 -1 3 6 5 -5 7 -2 -3 10 -4 15 -13 14 -11 -8
right_child=2 8 9 4 -6 -7 11 -9 -10 13 -12 12 -14 -15 -16 -17
leaf_value=-0.056286208816673879 -0.004024399569661088 0.013984138793843215 0.077093879757524061 -0.00027394469416611769 0.18081415027171904 -0.018026507613607211 0.0033014294589287655 0.0036616984840065871 -0.0041751491068922064 0.30076990151891492 -0.034310867773197411 -0.0015424393276461063 0.36218578302202192 0.37371730666233371 0.60393049402963528 1.5338722795722202
leaf_weight=20 20 20 28 31 35 34 46 21 20 23 35 28 29 25 232 43
leaf_count=20 20 20 28 31 35 34 46 21 20 23 35 28 29 25 232 43
internal_value=0.000507247 -0.0158333 0.00206349 -0.000574913 -0.006 -0.0103846 0.0023262 -0.00353659 -0.00125 0.00427114 0.0018254 0.0039726 0.00236842 0.00482143 0.005 0.005
internal_weight=690 60 630 287 100 65 187 41 40 343 63 146 57 280 255 89
internal_count=690 60 630 287 100 65 187 41 40 343 63 146 57 280 255 89
is_linear=0
shrinkage=0.05


Tree=65
num_leaves=18
num_cat=0
split_feature=2 24 24 7 0 0 3 15 12 2 7 9 2 9 0 7 0
split_gain=7.14372 10.2083 1.26433 1.51777 1.39448 0.823129 0.625 0.520011 0.689068 0.19991 0.224252 0.262083 0.184653 0.179513 0.0258403 0.0256098 1.11022e-16
threshold=157.50000000000003 36.000000000000007 36.000000000000007 0.96245486997788221 257.50000000000006 227.50000000000003 170.41666666666671 -0.5 31.987307500000004 222.50000000000003 0.82065054250373815 17.550000000000004 182.50000000000003 17.550000000000004 307.50000000000006 0.93999037389816376 282.50000000000006
decision_type=2 2 2 2 2 2 2 2 2 2 2 2 2 2 2 2 2
left_child=1 -1 3 7 5 -5 -3 8 -2 10 -9 -12 13 -4 -14 -15 -11
right_child=2 6 12 4 -6 -7 -8 9 -10 16 11 -13 14 15 -16 -17 -18
leaf_value=-0.053471898375839544 -0.0083885546351080593 0.013284931854151694 -0.07905156711040634 -0.0021336823678315348 0.0064451320294535821 -0.016577485409213676 -0.0039663916515479515 2.2971237280219214 0.0033375723208909826 0.284753536943959 0.00051808749229752705 -0.0044496944589559138 0.51056338439339155 0.07760628483710913 3.0495706186060527 0.064069735142232562 1.4364616992172425
leaf_weight=20 21 20 22 28 33 21 20 27 25 43 23 20 246 21 34 20 46
leaf_count=20 21 20 22 28 33 21 20 27 25 43 23 20 246 21 34 20 46
internal_value=0.000652174 -0.0158333 0.00222222 -0.000226481 -0.00597561 -0.0113265 -0.00125 0.00207317 -0.0026087 0.00342767 0.00142857 -0.000813953 0.00427114 0.0018254 0.00482143 0.00378049 0.005
internal_weight=690 60 630 287 82 49 40 205 46 159 70 43 343 63 280 41 89
internal_count=690 60 630 287 82 49 40 205 46 159 70 43 343 63 280 41 89
is_linear=0
shrinkage=0.05


Tree=66
num_leaves=20
num_cat=0
split_feature=2 5 2 0 0 3 1 5 13 9 2 15 0 9 7 0 0 3 3
split_gain=7.08106 0.773809 0.702479 0.936015 0.522469 0.42726 0.28856 0.268126 0.240698 0.23837 0.759804 0.16 0.482319 0.116481 0.100275 4.44089e-16 1.11022e-16 1.11022e-16 1.11022e-16
threshold=157.50000000000003 15.805658498769096 222.50000000000003 227.50000000000003 327.50000000000006 235.41666666666671 187.50000000000003 15.805658498769064 3.5447202349136631 22.450000000000003 197.50000000000003 -0.5 257.50000000000006 16.500000000000004 0.83243768142029106 287.50000000000006 212.50000000000003 300.41666666666669 305.41666666666674
decision_type=2 2 2 2 2 2 2 2 2 2 2 2 2 2 2 2 2 2 2
left_child=1 -1 3 6 11 13 7 8 -2 14 -11 12 -4 -5 -8 -13 -16 -14 -17
right_child=2 -3 4 5 -6 -7 9 -9 -10 10 -12 15 17 -15 16 18 -18 -19 -20
leaf_value=-0.050798303457047216 -0.018571297162139531 -0.050798303457047216 -0.022940682096577965 -0.0022987090900493741 -0.028041227804904523 0.00046908466841510575 0.0043548170126279971 -0.0023382394510816926 0.0033713872364189907 0.015203807617686589 -0.0039488994331618142 0.35213189107988846 0.40513062661657062 -0.014192714183043093 0.015842732770387277 1.4137475393284038 0.0032207101313426537 1.1081479368468821 1.3691062140047434
leaf_weight=39 20 21 23 20 24 23 30 25 23 31 20 129 29 23 58 53 33 23 43
leaf_count=39 20 21 23 20 24 23 30 25 23 31 20 129 29 23 58 53 33 23 43
internal_value=0.00057971 -0.0158333 0.00214286 0.000424837 0.00376543 -0.00484848 0.001875 -0.000882353 0.00151163 0.00296512 9.80394e-05 0.00433333 0.00233333 -0.0077907 0.00417355 0.005 0.005 0.005 0.005
internal_weight=690 60 630 306 324 66 240 68 43 172 51 300 75 43 121 225 91 52 96
internal_count=690 60 630 306 324 66 240 68 43 172 51 300 75 43 121 225 91 52 96
is_linear=0
shrinkage=0.05


Tree=67
num_leaves=17
num_cat=0
split_feature=2 24 24 2 8 9 14 3 8 15 3 14 5 5 3 0
split_gain=6.71087 10.2083 1.61115 2.15394 1.63496 0.859495 1.56098 0.625 0.565714 0.484496 0.267457 0.163108 0.140423 0.0413793 4.44089e-16 1.11022e-16
threshold=157.50000000000003 36.000000000000007 36.000000000000007 222.50000000000003 -0.17787843604450476 17.550000000000004 988.61490000000015 170.41666666666671 -0.4977308503906927 -0.5 185.41666666666671 991.53923500000008 16.564704453008783 16.250696752063821 300.41666666666669 292.50000000000006
decision_type=2 2 2 2 2 2 2 2 2 2 2 2 2 2 2 2
left_child=1 -1 3 4 5 -2 8 -3 -7 -5 -4 12 14 15 -12 -11
right_child=2 7 10 9 -6 6 -8 -9 -10 13 11 -13 -14 -15 -16 -17
leaf_value=-0.04825838828419507 0.0032819219327591197 0.015160600434296612 0.00016401401592731625 -0.017228867373575232 -0.0034180834777751768 0.0020987318550045927 -0.0072438092075230651 -0.0012281568961185485 -0.004291818083388496 0.25324009548350185 0.1574624842541773 0.14338137178525195 0.36212135560306513 0.16344349912561904 1.5492522001131686 1.1945373424803332
leaf_weight=20 35 20 25 35 28 22 23 20 28 58 232 20 26 20 40 38
leaf_count=20 35 20 25 35 28 22 23 20 28 58 232 20 26 20 40 38
internal_value=0.000144928 -0.0158333 0.00166667 -0.00109756 -0.00566176 -0.00287037 -0.0059589 -0.00125 -0.001 0.00301325 0.00397959 0.00437107 0.00466443 0.00456897 0.005 0.005
internal_weight=690 60 630 287 136 108 73 40 50 151 343 318 298 116 272 96
internal_count=690 60 630 287 136 108 73 40 50 151 343 318 298 116 272 96
is_linear=0
shrinkage=0.05


Tree=68
num_leaves=16
num_cat=0
split_feature=2 24 24 2 8 9 14 3 8 17 12 3 14 5 3
split_gain=6.89472 10.2083 1.29652 1.64105 1.43417 0.63017 1.055 0.625 0.549072 0.453897 0.477389 0.267457 0.163108 0.140423 4.44089e-16
threshold=157.50000000000003 36.000000000000007 36.000000000000007 222.50000000000003 -0.17787843604450476 17.550000000000004 988.7970150000001 170.41666666666671 -0.4977308503906927 3.5000000000000004 35.578973500000011 185.41666666666671 991.53923500000008 16.564704453008783 300.41666666666669
decision_type=2 2 2 2 2 2 2 2 2 2 2 2 2 2 2
left_child=1 -1 3 4 5 -2 8 -3 -7 10 -5 -4 13 14 -13
right_child=2 7 11 9 -6 6 -8 -9 -10 -11 -12 12 -14 -15 -16
leaf_value=-0.045845468869985952 0.0031178258361207311 0.01440257041258235 0.00015581331513119247 -0.035848909304408524 -0.0032471793038860355 0.0015029502694988821 -0.0068973008294642771 -0.0011667490513133317 -0.0039284669562101851 0.33275266653927948 0.17442308248826932 0.14958936004146819 0.13621230319598987 0.34401528782291257 1.4717895901075091
leaf_weight=20 35 20 25 22 28 23 21 20 29 99 30 232 20 26 40
leaf_count=20 35 20 25 22 28 23 21 20 29 99 30 232 20 26 40
internal_value=0.000362319 -0.0158333 0.00190476 -0.000574913 -0.00455882 -0.00194444 -0.00458904 -0.00125 -0.000769231 0.00301325 -0.000769231 0.00397959 0.00437107 0.00466443 0.005
internal_weight=690 60 630 287 136 108 73 40 52 151 52 343 318 298 272
internal_count=690 60 630 287 136 108 73 40 52 151 52 343 318 298 272
is_linear=0
shrinkage=0.05


Tree=69
num_leaves=17
num_cat=0
split_feature=2 2 5 0 3 12 0 9 14 14 12 2 6 8 12 4
split_gain=6.95656 0.846644 0.773809 0.590642 0.675614 0.612166 0.522469 0.50889 0.793259 0.175224 0.15148 0.135758 0.242424 0.0534597 0.132203 1.11022e-16
threshold=157.50000000000003 222.50000000000003 15.805658498769096 227.50000000000003 235.41666666666671 17.164009000000004 327.50000000000006 22.450000000000003 988.41800000000012 989.64258500000017 19.101509000000004 182.50000000000003 1.2500000000000002 -0.17787843604450476 52.965843500000013 213.64583333333337
decision_type=2 2 2 2 2 2 2 2 2 2 2 2 2 2 2 2
left_child=2 3 -1 5 9 -2 10 11 -9 -5 -3 12 -7 -12 -15 -13
right_child=1 6 -4 4 -6 7 -8 8 -10 -11 13 15 -14 14 -16 -17
leaf_value=-0.043553195426486016 -6.6435288021699288e-05 0.37474586149479983 -0.043553195426486016 -0.013890384528019079 0.00015362370758005583 3.9501385525075961e-05 -0.028975349925722815 0.014531014657482336 -0.0034019006356758941 -0.00094703659013009491 0.38103660628769992 0.014067576533645182 0.010400375318227649 0.0073574984368071656 0.36328602803518295 0.0039806024741067631
leaf_weight=39 21 21 21 22 23 33 24 36 33 21 220 58 33 20 39 26
leaf_count=39 21 21 21 22 23 33 24 36 33 21 220 58 33 20 39 26
internal_value=0.000434783 0.00198413 -0.0158333 9.80394e-05 -0.00409091 0.00125 0.00376543 0.00203196 -0.00152174 -0.0077907 0.00433333 0.00366667 0.0019697 0.00464158 0.00330508 0.005
internal_weight=690 630 60 306 66 240 324 219 69 43 300 150 66 279 59 84
internal_count=690 630 60 306 66 240 324 219 69 43 300 150 66 279 59 84
is_linear=0
shrinkage=0.05


Tree=70
num_leaves=15
num_cat=0
split_feature=24 2 2 8 12 0 0 14 12 14 0 5 4 0
split_gain=4.41034 14.4149 1.99028 1.60372 1.21725 0.770562 0.622241 0.445652 0.140933 0.157369 0.138199 0.110289 0.0384718 1.11022e-16
threshold=36.000000000000007 157.50000000000003 242.50000000000003 -0.53803519667684341 31.987307500000004 212.50000000000003 242.50000000000003 989.06630000000007 16.612047500000003 991.63763500000016 315.00000000000006 16.564704453008783 166.77083333333337 287.50000000000006
decision_type=2 2 2 2 2 2 2 2 2 2 2 2 2 2
left_child=1 -1 3 7 -5 -6 -7 -3 -2 11 13 12 -10 -4
right_child=8 2 10 4 5 6 -8 -9 9 -11 -12 -13 -14 -15
leaf_value=-0.04137553565516186 0.056616111721052145 0.06623281213734887 0.31275934452864906 -0.015574574279669179 0.0029832025629152551 -0.0058528225063210282 -0.0031686749008220045 -0.0022798648307859677 0.0021972705962468027 0.0078137478910284327 0.017140772022990202 0.11296073601800696 0.14071524291266721 0.90346215756973747
leaf_weight=20 20 41 43 30 35 26 20 23 24 20 23 30 289 46
leaf_count=20 20 41 43 30 35 26 20 23 24 20 23 30 289 46
internal_value=0.000507247 -0.00395765 -0.00109756 -0.00442857 -0.00806306 -0.00487654 -0.00913043 0.001875 0.00408616 0.00431129 0.00410714 0.00456268 0.00484026 0.005
internal_weight=690 307 287 175 111 81 46 64 383 363 112 343 313 89
internal_count=690 307 287 175 111 81 46 64 383 363 112 343 313 89
is_linear=0
shrinkage=0.05


Tree=71
num_leaves=15
num_cat=0
split_feature=2 4 16 7 0 2 0 0 15 6 14 16 4 2
split_gain=5.60418 1.14368 0.39572 0.742424 0.364397 0.569583 0.55305 0.919728 0.723562 0.380952 0.278571 0.202539 0.0861167 1.11022e-16
threshold=157.50000000000003 189.89583333333337 0.60355339059327384 0.91156447724216172 327.50000000000006 242.50000000000003 227.50000000000003 235.00000000000003 -0.37940952255126059 1.5500000000000003 989.44985000000008 -0.9159756150367534 199.27083333333337 232.50000000000003
decision_type=2 2 2 2 2 2 2 2 2 2 2 2 2 2
left_child=10 2 3 -2 5 6 11 9 -9 -8 -1 -3 -13 -10
right_child=1 4 -4 -5 -6 -7 7 8 13 -11 -12 12 -14 -15
leaf_value=-0.039306758872403695 -0.0031944805020786165 0.0088969054160713042 0.0037539083019878998 0.00012620629208580058 -0.028243715652623871 0.55228267079933879 -0.0066609735380258467 -0.015970018708013924 0.046349987973013596 -0.00021189041643542895 -0.039306758872403695 0.002858712219818778 0.0048262965632544655 0.28792519061330846
leaf_weight=39 22 28 35 32 24 207 21 33 23 21 21 35 107 42
leaf_count=39 22 28 35 32 24 207 21 33 23 21 21 35 107 42
internal_value=0.000434783 0.0018254 -0.00342697 -0.00611111 0.00268946 0.00296905 0.0016129 -0.000714286 0.00193878 -0.00690476 -0.0141667 0.00352941 0.00429577 0.005
internal_weight=690 630 89 54 541 517 310 140 98 42 60 170 142 65
internal_count=690 630 89 54 541 517 310 140 98 42 60 170 142 65
is_linear=0
shrinkage=0.05


Tree=72
num_leaves=18
num_cat=0
split_feature=2 24 24 2 8 0 2 22 14 4 2 24 14 0 0 4 0
split_gain=5.43854 11.4083 1.72362 2.12575 1.65143 1.78824 0.916122 0.836528 1.22789 0.225 0.223961 0.243125 0.541126 0.138199 0.102941 0.1 1.11022e-16
threshold=157.50000000000003 36.000000000000007 36.000000000000007 242.50000000000003 -0.60946782647798781 227.50000000000003 222.50000000000003 0.60714285714285732 989.1013700000002 163.64583333333337 190.00000000000003 60.000000000000007 988.88669000000016 315.00000000000006 307.50000000000006 201.14583333333337 287.50000000000006
decision_type=2 2 2 2 2 2 2 2 2 2 2 2 2 2 2 2 2
left_child=1 -1 3 4 -2 7 -7 8 -6 -3 11 12 -4 16 -12 -9 -5
right_child=2 9 10 13 5 6 -8 15 -10 -11 14 -13 -14 -15 -16 -17 -18
leaf_value=-0.037341420928783009 3.5971535042062786 0.010822087170732901 0.063306855593116079 0.26950724376224827 -0.0044260242120816567 -0.0076559930199429586 -0.034017432444164962 -0.00014423432296692209 0.00027501271478962808 -0.0029631204816532998 0.50513786708720987 3.8012983019688491 -0.14036633171813304 0.01769591920447422 2.843869479980246 0.06811951610964144 0.8306749161512843
leaf_weight=20 35 20 20 43 25 27 24 20 24 20 238 29 22 23 34 20 46
leaf_count=20 35 20 20 43 25 27 24 20 24 20 238 29 22 23 34 20 46
internal_value=0.000217391 -0.0141667 0.0015873 -0.00127178 -0.00471429 -0.00714286 -0.0146078 -0.00286517 -0.0072449 0.00125 0.00397959 0.00147887 -0.000952381 0.00410714 0.00463235 0.0025 0.005
internal_weight=690 60 630 287 175 140 51 89 49 40 343 71 42 112 272 40 89
internal_count=690 60 630 287 175 140 51 89 49 40 343 71 42 112 272 40 89
is_linear=0
shrinkage=0.05


Tree=73
num_leaves=19
num_cat=0
split_feature=2 2 0 0 6 3 5 4 15 2 3 16 15 4 0 1 3 3
split_gain=5.71598 0.706302 1.47739 0.5 0.432213 0.982029 0.278571 0.275615 0.25 0.628205 0.207372 0.170608 0.0695976 0.0406542 4.44089e-16 2.22045e-16 1.11022e-16 5.55112e-17
threshold=157.50000000000003 222.50000000000003 227.50000000000003 327.50000000000006 1.4500000000000002 222.08333333333334 15.805658498769096 187.39583333333337 -0.5 242.50000000000003 181.66666666666671 -0.9159756150367534 -0.78656609248549303 191.77083333333337 287.50000000000006 197.50000000000003 305.41666666666674 305.41666666666674
decision_type=2 2 2 2 2 2 2 2 2 2 2 2 2 2 2 2 2 2
left_child=6 2 7 8 -4 -6 -1 10 9 -3 -2 -9 -13 -14 -10 -15 -16 -11
right_child=1 3 4 -5 5 -7 -8 11 14 17 -12 12 13 15 16 -17 -18 -19
leaf_value=-0.03547434988234386 0.0034701610210049814 -0.02775178054388637 -0.0066022742186198332 -0.07658969294909089 -0.0092652956298037471 0.0024050599737579933 -0.03547434988234386 0.0085234987011393211 0.27854354076345195 0.32563886273484316 -0.00055655759307839169 0.00019745102869029359 0.016524217058844159 0.017152979959195576 1.1412393235731517 0.006172577730475093 1.0931920887361071 0.90162555538821632
leaf_weight=39 36 26 20 24 21 25 21 28 129 29 37 32 20 29 53 58 43 20
leaf_count=39 36 26 20 24 21 25 21 28 129 29 37 32 20 29 53 58 43 20
internal_value=0.00057971 0.00198413 0.000261438 0.00361111 -0.00636364 -0.00369565 -0.0141667 0.00208333 0.00416667 0.00166667 -0.000479452 0.00320359 0.00392086 0.00453271 0.005 0.005 0.005 0.005
internal_weight=690 630 306 324 66 46 60 240 300 75 73 167 139 107 225 87 96 49
internal_count=690 630 306 324 66 46 60 240 300 75 73 167 139 107 225 87 96 49
is_linear=0
shrinkage=0.05


Tree=74
num_leaves=19
num_cat=0
split_feature=2 24 24 2 7 6 12 12 5 4 3 2 6 5 3 4 12 3
split_gain=5.54869 11.4083 1.70499 1.99028 1.55571 1.18568 1.24717 0.78343 0.410368 0.232759 0.225 0.163298 0.203175 0.124286 0.0857143 0.1 4.44089e-16 2.22045e-16
threshold=157.50000000000003 36.000000000000007 36.000000000000007 242.50000000000003 0.49690002677035122 1.3500000000000003 49.479868000000003 30.568149500000004 16.346563703957376 209.89583333333337 170.41666666666671 182.50000000000003 1.4500000000000002 16.298630228010602 305.41666666666674 303.64583333333337 1086.0572500000003 283.75000000000006
decision_type=2 2 2 2 2 2 2 2 2 2 2 2 2 2 2 2 2 2
left_child=1 -1 3 4 -2 6 -6 -7 9 -9 -3 12 -4 17 16 -16 -13 -5
right_child=2 10 11 13 5 7 -8 8 -10 -11 -12 14 -14 -15 15 -17 -18 -19
leaf_value=-0.033700632388226383 3.4164381799980035 0.018948189212666479 0.052280165143932515 0.22611511205071291 -0.01351933784629377 0.00021792079364350245 -0.0017170167464826359 0.00049871459975626563 -0.0034595797028747185 -0.010770005967564156 -0.0010412469634524877 0.43502155270913651 -0.041990037110360472 0.034810226369775418 0.78829329294778272 6.2627592480380976 0.68346035159471474 0.97210849900502128
leaf_weight=20 35 20 28 29 20 22 34 22 21 21 20 211 35 25 20 20 29 58
leaf_count=20 35 20 28 29 20 22 34 22 21 21 20 211 35 25 20 20 29 58
internal_value=0.000362319 -0.0141667 0.00174603 -0.00109756 -0.00442857 -0.00678571 -0.0125926 -0.00313953 -0.0059375 -0.00313953 0.00125 0.00412536 0.0018254 0.00410714 0.00464286 0.0025 0.005 0.005
internal_weight=690 60 630 287 175 140 54 86 64 43 40 343 63 112 280 40 240 87
internal_count=690 60 630 287 175 140 54 86 64 43 40 343 63 112 280 40 240 87
is_linear=0
shrinkage=0.05


Tree=75
num_leaves=17
num_cat=0
split_feature=2 24 24 2 7 0 16 16 2 6 6 0 6 0 6 0
split_gain=5.88575 11.4083 0.782214 1.06707 0.892857 1.07107 0.94658 0.683397 0.335159 0.378836 0.225 0.138199 0.129825 0.102941 0.0261905 1.11022e-16
threshold=157.50000000000003 36.000000000000007 36.000000000000007 242.50000000000003 0.49690002677035122 227.50000000000003 -0.37940952255126015 -0.37940952255126015 190.00000000000003 1.6500000000000001 1.4500000000000002 315.00000000000006 1.4500000000000002 307.50000000000006 1.2500000000000002 287.50000000000006
decision_type=2 2 2 2 2 2 2 2 2 2 2 2 2 2 2 2
left_child=1 -1 3 4 -2 6 -6 -7 9 14 -3 15 -8 -10 -4 -5
right_child=2 10 8 11 5 7 12 -9 13 -11 -12 -13 -14 -15 -16 -17
leaf_value=-0.032015600768815489 3.2456162709981031 0.017377116105286056 0.042832866270560044 0.2307989489334287 -0.0040458903573526222 -0.001972781098712633 -0.00012026400148963919 -0.014276274878336007 0.45951748512458601 -0.034185265114421458 -0.0009891846152805439 0.018900096573217097 0.00048981094265893011 2.5963383332346868 0.066217965462274792 0.6858761409566656
leaf_weight=20 35 20 22 43 32 20 20 31 238 29 20 23 37 34 20 46
leaf_count=20 35 20 22 43 32 20 20 31 238 29 20 23 37 34 20 46
internal_value=0.000797102 -0.0141667 0.00222222 0.000296167 -0.00214286 -0.00392857 -0.000617977 -0.00970588 0.00383382 0.000774648 0.00125 0.00410714 0.00324561 0.00463235 0.00380952 0.005
internal_weight=690 60 630 287 175 140 89 51 343 71 40 112 57 272 42 89
internal_count=690 60 630 287 175 140 89 51 343 71 40 112 57 272 42 89
is_linear=0
shrinkage=0.05


Tree=76
num_leaves=17
num_cat=0
split_feature=4 24 6 24 2 7 4 5 17 5 14 5 5 4 3 3
split_gain=6.30027 9.50694 0.729167 0.559216 0.745404 0.761962 0.668182 0.696983 0.209921 0.171593 0.161079 0.139611 0.124286 0.0261905 4.44089e-16 2.22045e-16
threshold=171.14583333333337 36.000000000000007 1.6500000000000001 36.000000000000007 242.50000000000003 0.82065054250373815 234.89583333333337 15.963888146074423 3.5000000000000004 13.425856516006947 991.53923500000008 16.564704453008783 16.298630228010602 207.39583333333337 295.41666666666669 283.75000000000006
decision_type=2 2 2 2 2 2 2 2 2 2 2 2 2 2 2 2
left_child=1 -1 -3 4 5 -2 7 8 -7 -5 11 14 15 -10 -11 -6
right_child=3 2 -4 9 12 6 -8 -9 13 10 -12 -13 -14 -15 -16 -17
leaf_value=-0.030414820730374006 2.4948551063632771 0.015260932727728271 -0.0026465268798528739 0.072274861838647841 0.20326940900150486 -0.00222031356019825 -0.034103971436602064 -0.0033355033964047841 0.00014711684942775543 0.068801358493605705 0.055686330088128247 0.24311257043670473 0.032124710222628035 0.00019701322864080072 1.2233337457147611 0.88920926700693714
leaf_weight=24 39 28 20 34 29 30 22 38 20 211 20 26 25 22 44 58
leaf_count=24 39 28 20 34 29 30 22 38 20 211 20 26 25 22 44 58
internal_value=0.000942029 -0.0130556 -0.000208333 0.00257282 0.000936396 -0.00114035 -0.00295455 -0.00136364 0.00152778 0.00395522 0.00433555 0.00464413 0.00410714 0.00380952 0.005 0.005
internal_weight=690 72 48 618 283 171 132 110 72 335 301 281 112 42 255 87
internal_count=690 72 48 618 283 171 132 110 72 335 301 281 112 42 255 87
is_linear=0
shrinkage=0.05


Tree=77
num_leaves=20
num_cat=0
split_feature=4 5 5 22 14 4 4 4 14 14 5 5 14 5 22 13 0 4 0
split_gain=6.17048 0.442802 0.389665 0.681818 0.412195 0.340278 0.285414 0.445008 0.20668 0.161927 0.292125 0.477513 0.156818 0.132042 0.176459 0.0995671 0.0325758 4.44089e-16 1.11022e-16
threshold=171.14583333333337 13.390389696789429 16.564704453008783 0.47619047619047622 991.63763500000016 166.14583333333337 261.14583333333337 254.89583333333337 989.51632500000017 989.57155000000012 15.963888146074423 15.980910260483423 988.01218000000006 15.369836826003477 0.34523809523809529 3.3392006553535212 252.50000000000003 301.14583333333337 220.00000000000003
decision_type=2 2 2 2 2 2 2 2 2 2 2 2 2 2 2 2 2 2 2
left_child=5 -2 4 -4 6 8 7 9 -1 10 12 -12 18 14 -14 -16 -11 -8 -3
right_child=1 2 3 -5 -6 -7 17 -9 -10 16 11 -13 13 -15 15 -17 -18 -19 -20
leaf_value=-0.028894079693854737 -0.0053856460428714859 0.0079835525309194019 0.0056589996429869055 -0.025320118047173726 -0.069011550083315304 -0.028894079693854737 0.27370820833592785 -0.034681163003807712 -0.028894079693854737 0.0046546405624108278 -0.0037548550665733407 0.017355079149747283 -0.0035210812925188604 0.010756885655755739 0.00041685885793335873 0.01975247787028352 0.21318088516693995 1.0728112445438265 0.0065931444458436394
leaf_weight=27 29 46 20 24 24 24 116 21 21 86 21 27 27 25 21 23 24 61 23
leaf_count=27 29 46 20 24 24 24 116 21 21 86 21 27 27 25 21 23 24 61 23
internal_value=0.000797102 0.002411 0.00270798 -0.00181818 0.00307339 -0.0130556 0.00336852 0.00252907 -0.010625 0.00298762 0.0021831 -0.00125 0.00318182 0.001875 0.000774648 0.00272727 0.00454545 0.005 0.005
internal_weight=690 618 589 44 545 72 521 344 48 323 213 48 165 96 71 44 110 177 69
internal_count=690 618 589 44 545 72 521 344 48 323 213 48 165 96 71 44 110 177 69
is_linear=0
shrinkage=0.05


Tree=78
num_leaves=17
num_cat=0
split_feature=4 24 24 2 7 14 5 0 7 24 5 14 5 0 4 0
split_gain=5.20549 10.0278 1.30348 1.6805 1.35449 0.80604 1.10806 0.652546 0.486111 0.333333 0.171593 0.161079 0.139611 0.138199 4.44089e-16 1.11022e-16
threshold=171.14583333333337 36.000000000000007 36.000000000000007 242.50000000000003 0.49690002677035122 989.57155000000012 15.963888146074423 212.50000000000003 0.95125306026985224 60.000000000000007 13.425856516006947 991.53923500000008 16.564704453008783 315.00000000000006 293.02083333333337 287.50000000000006
decision_type=2 2 2 2 2 2 2 2 2 2 2 2 2 2 2 2
left_child=1 -1 3 4 -2 6 7 -6 -7 -3 -4 12 14 15 -12 -5
right_child=2 9 10 13 5 8 -8 -9 -10 -11 11 -13 -14 -15 -16 -17
leaf_value=-0.027449375709161929 2.9581935245034874 -0.00040075060361317584 0.068779796725093406 0.19541012061988541 -0.00026248271360726575 0.0043491030256059332 -0.0055163257558476621 -0.0099958648197721184 -0.009306490914235117 0.96610145660982016 0.064823446286138023 0.056352591087887309 0.23067399193271987 0.0066335467098977141 1.5696627312584341 0.55348130833129427
leaf_weight=24 35 24 34 43 39 21 21 31 24 24 211 20 26 23 44 46
leaf_count=24 35 24 34 43 39 21 21 31 24 24 211 20 26 23 44 46
internal_value=0.000362319 -0.0123611 0.00184466 -0.00065371 -0.00377193 -0.00602941 -0.00873626 -0.00571429 -0.000555555 0.000833334 0.00395522 0.00433555 0.00464413 0.00410714 0.005 0.005
internal_weight=690 72 618 283 171 136 91 70 45 48 335 301 281 112 255 89
internal_count=690 72 618 283 171 136 91 70 45 48 335 301 281 112 255 89
is_linear=0
shrinkage=0.05


Tree=79
num_leaves=21
num_cat=0
split_feature=4 4 9 7 12 0 16 6 22 4 1 9 9 22 16 12 4 0 4 9
split_gain=5.38489 0.881464 0.669782 0.470027 0.627977 0.461092 0.313438 0.486307 0.423497 0.196195 0.135972 0.125 0.120745 0.0600513 0.140244 0.0429021 0.0280112 2.22045e-16 2.22045e-16 1.11022e-16
threshold=171.14583333333337 199.27083333333337 24.300000000000004 0.93999037389816376 35.578973500000011 227.50000000000003 -0.5 1.3500000000000003 0.60714285714285732 166.77083333333337 242.50000000000003 16.500000000000004 22.450000000000003 0.34523809523809529 1.0000000180025095e-35 18.140956500000005 160.52083333333337 307.50000000000006 217.39583333333337 22.450000000000003
decision_type=2 2 2 2 2 2 2 2 2 2 2 2 2 2 2 2 2 2 2 2
left_child=9 2 6 13 5 -5 -2 -8 -9 16 12 -12 -6 14 -3 -15 -1 18 -17 -13
right_child=1 3 -4 4 10 -7 7 8 -10 -11 11 19 -14 15 -16 17 -18 -19 -20 -21
leaf_value=-0.026076906923704259 0.012738826810619774 0.0054458223678449519 -0.038797541928536405 0.00074991993175418676 0.0055700407223688887 -0.032597129504371498 -0.0011053861885071839 0.0090291561497630301 -0.013334914693607737 -0.026076906923704259 0.047850363075244429 0.076527821006343172 -0.00086850245051569566 0.012302250394208292 0.0031587459765619499 0.083212859735176226 -0.026076906923704259 1.0990267727092491 0.26376907569690183 0.14325114405263115
leaf_weight=21 24 36 20 20 25 33 24 31 30 21 24 29 21 21 46 29 30 46 116 43
leaf_count=21 24 36 20 20 25 33 24 31 30 21 24 29 21 21 46 29 30 46 116 43
internal_value=0.00057971 0.00208738 -0.00158915 0.00305726 0.00115385 -0.00349057 -4.58714e-05 -0.00147059 0.00090164 -0.0123611 0.00288732 0.00395833 0.000652174 0.00431973 0.00317073 0.00476415 -0.0106863 0.005 0.005 0.005
internal_weight=690 618 129 489 195 53 109 85 61 72 142 96 46 294 82 212 51 191 145 72
internal_count=690 618 129 489 195 53 109 85 61 72 142 96 46 294 82 212 51 191 145 72
is_linear=0
shrinkage=0.05


Tree=80
num_leaves=21
num_cat=0
split_feature=4 4 8 12 4 5 9 9 16 5 23 4 4 5 0 3 3 9 3 0
split_gain=4.18404 0.688874 0.658972 0.503965 0.869187 0.317652 0.444964 0.422402 0.327493 0.196195 0.189206 0.205071 0.356802 0.27 0.0723172 0.153183 0.0813041 0.0404762 0.0280112 2.22045e-16
threshold=171.14583333333337 199.89583333333337 -0.34119984676935938 48.170072500000011 220.52083333333337 15.963888146074423 21.300000000000001 15.700000000000001 -0.37940952255126015 15.980910260483435 1.0000000180025095e-35 211.14583333333337 226.77083333333337 16.298630228010602 257.50000000000006 240.41666666666669 255.41666666666671 23.500000000000004 165.41666666666671 220.00000000000003
decision_type=2 2 2 2 2 2 2 2 2 2 2 2 2 2 2 2 2 2 2 2
