tree
version=v4
num_class=1
num_tree_per_iteration=1
label_index=0
max_feature_idx=24
objective=quantile
feature_names=aqi_lag_1h aqi_lag_3h aqi_lag_24h aqi_rolling_mean_6h aqi_rolling_mean_24h aqi_rolling_std_24h wind_speed wind_direction_sin wind_direction_cos temperature humidity precipitation boundary_layer_height blh_log surface_pressure_hpa hour_of_day_sin hour_of_day_cos day_of_week month_of_year fire_count_50km fire_count_100km fire_upwind_flag road_density_500m land_use_category_code horizon_hours
feature_infos=[150:360] [150:360] [150:345] [152.5:336.66666666666669] [156.45833333333334:324.58333333333331] [13.324272283470439:17.046398744160854] [0.90000000000000002:2] [-0.76266832969568832:0.99619469809174555] [-0.99888987496197001:-0.087155742747658235] [15:25] [40.200000000000003:79.799999999999997] none [10.888961999999999:2025.2809] [2.4756104066394888:7.613957322779382] [985.45169999999996:992.15466000000004] [-1:1] [-1:1] [3:5] none none none none [0.2857142857142857:1] [0:3] [24:72]
tree_sizes=612 694 704 704 713 708 706 954 690 956 627 959 694 934 639 881 719 722 957 958 965 967 1039 978 1231 1143 1074 1070 892 1152 1064 1072 1146 1161 1239 997 1226 1149 1229 993 1239 1139 1423 1150

Tree=0
num_leaves=7
num_cat=0
split_feature=2 24 2 4 2 4
split_gain=4.85834 2.1847 4.74557 0.772727 0.530636 1.2
threshold=312.50000000000006 60.000000000000007 242.50000000000003 221.14583333333337 285.00000000000006 305.52083333333337
decision_type=2 2 2 2 2 2
left_child=1 4 3 -3 -1 -6
right_child=-2 2 -4 -5 5 -7
leaf_value=457.5 461.75 457.5 461.86999995708464 461.75 460.5 460
leaf_weight=459 24 85 37 25 20 40
leaf_count=459 24 85 37 25 20 40
internal_value=459.998 459.997 460.002 459.997 459.996 460
internal_weight=690 666 147 110 519 60
internal_count=690 666 147 110 519 60
is_linear=0
shrinkage=1


Tree=1
num_leaves=7
num_cat=0
split_feature=2 24 17 2 4 2
split_gain=4.85834 2.1847 7.29703 0.530636 1.2 0.528736
threshold=312.50000000000006 60.000000000000007 3.5000000000000004 285.00000000000006 305.52083333333337 272.50000000000006
decision_type=2 2 2 2 2 2
left_child=1 3 5 -1 -5 -3
right_child=-2 2 -4 4 -6 -7
leaf_value=-2.375 1.6625000000000001 -1.3375000000000001 1.806499966382981 0.47500000000000003 0 0.40650000214576781
leaf_weight=459 24 92 31 20 40 24
leaf_count=459 24 92 31 20 40 24
internal_value=-0.00210145 -0.0028979 0.00248299 -0.00442197 -1.19209e-09 -0.00327586
internal_weight=690 666 147 519 60 116
internal_count=690 666 147 519 60 116
is_linear=0
shrinkage=0.05


Tree=2
num_leaves=7
num_cat=0
split_feature=2 24 2 4 2 4
split_gain=4.85834 2.1847 4.74557 0.772727 0.530636 1.2
threshold=312.50000000000006 60.000000000000007 242.50000000000003 221.14583333333337 285.00000000000006 305.52083333333337
decision_type=2 2 2 2 2 2
left_child=1 4 3 -3 -1 -6
right_child=-2 2 -4 -5 5 -7
leaf_value=-2.2562500000000001 1.5793749999999989 -2.3081250000000013 1.6861749609112735 1.57217500168085 0.45124999999999887 0
leaf_weight=459 24 85 37 25 20 40
leaf_count=459 24 85 37 25 20 40
internal_value=-0.00210145 -0.0028979 0.00248299 -0.00272727 -0.00442197 -1.19209e-09
internal_weight=690 666 147 110 519 60
internal_count=690 666 147 110 519 60
is_linear=0
shrinkage=0.05


Tree=3
num_leaves=7
num_cat=0
split_feature=2 24 2 4 2 4
split_gain=4.85834 2.1847 4.74557 0.772727 0.530636 1.2
threshold=312.50000000000006 60.000000000000007 242.50000000000003 221.14583333333337 285.00000000000006 305.52083333333337
decision_type=2 2 2 2 2 2
left_child=1 4 3 -3 -1 -6
right_child=-2 2 -4 -5 5 -7
leaf_value=-2.1434374999999988 1.5004062499999975 -2.1927187500000005 1.60186621286571 1.4935662515968062 0.42868749999999811 0
leaf_weight=459 24 85 37 25 20 40
leaf_count=459 24 85 37 25 20 40
internal_value=-0.00210145 -0.0028979 0.00248299 -0.00272727 -0.00442197 -1.19209e-09
internal_weight=690 666 147 110 519 60
internal_count=690 666 147 110 519 60
is_linear=0
shrinkage=0.05


Tree=4
num_leaves=7
num_cat=0
split_feature=2 24 2 22 2 3
split_gain=4.85834 2.1847 4.74557 0.634796 0.530636 0.685714
threshold=312.50000000000006 60.000000000000007 242.50000000000003 0.34523809523809529 285.00000000000006 311.66666666666669
decision_type=2 2 2 2 2 2
left_child=1 4 3 -3 -1 -6
right_child=-2 2 -4 -5 5 -7
leaf_value=-2.0362656249999986 1.4253859374999991 1.4188879390169662 1.5217729022224233 -1.4239120626638853 0.40725312499999688 0
leaf_weight=459 24 29 37 81 28 32
leaf_count=459 24 29 37 81 28 32
internal_value=-0.00210145 -0.0028979 0.00248299 -0.00272727 -0.00442197 -1.19209e-09
internal_weight=690 666 147 110 519 60
internal_count=690 666 147 110 519 60
is_linear=0
shrinkage=0.05


Tree=5
num_leaves=7
num_cat=0
split_feature=2 24 2 22 2 3
split_gain=4.85834 2.1847 4.74557 0.634796 0.530636 0.685714
threshold=312.50000000000006 60.000000000000007 242.50000000000003 0.34523809523809529 285.00000000000006 311.66666666666669
decision_type=2 2 2 2 2 2
left_child=1 4 3 -3 -1 -6
right_child=-2 2 -4 -5 5 -7
leaf_value=-1.9344523437499987 1.354116640625 1.347943542066119 1.4456842571113016 -1.3527164595306915 0.38689046874999633 0
leaf_weight=459 24 29 37 81 28 32
leaf_count=459 24 29 37 81 28 32
internal_value=-0.00210145 -0.0028979 0.00248299 -0.00272727 -0.00442197 -1.19209e-09
internal_weight=690 666 147 110 519 60
internal_count=690 666 147 110 519 60
is_linear=0
shrinkage=0.05


Tree=6
num_leaves=7
num_cat=0
split_feature=2 24 2 4 2 4
split_gain=4.85834 2.1847 4.74557 0.772727 0.530636 1.2
threshold=312.50000000000006 60.000000000000007 242.50000000000003 221.14583333333337 285.00000000000006 305.52083333333337
decision_type=2 2 2 2 2 2
left_child=1 4 3 -3 -1 -6
right_child=-2 2 -4 -5 5 -7
leaf_value=-1.8377297265624977 1.2864108085937489 -2.2214243865541534 1.3734000442557375 1.2805463649628139 0.36754594531249724 0
leaf_weight=459 24 85 37 25 20 40
leaf_count=459 24 85 37 25 20 40
internal_value=-0.00210145 -0.0028979 0.00248299 -0.00272727 -0.00442197 -1.19209e-09
internal_weight=690 666 147 110 519 60
internal_count=690 666 147 110 519 60
is_linear=0
shrinkage=0.05


Tree=7
num_leaves=10
num_cat=0
split_feature=2 2 4 9 6 24 4 4 1
split_gain=4.66907 2.38153 5.72018 0.69057 0.252891 0.172807 0.772727 0.168254 4.44089e-16
threshold=312.50000000000006 242.50000000000003 265.52083333333337 16.500000000000004 1.9500000000000002 60.000000000000007 221.14583333333337 271.77083333333337 257.50000000000006
decision_type=2 2 2 2 2 2 2 2 2
left_child=1 5 4 -4 -3 8 -7 -5 -1
right_child=-2 2 3 7 -6 6 -8 -9 -10
leaf_value=-5.4958432402343735 1.2220902681640611 1.2197300575401586 0.93406099648074559 -0.4113424341926627 1.334730084958295 -2.1103531672264468 1.2165190467146745 0 -1.7458432402343733
leaf_weight=329 24 24 34 20 23 85 25 106 20
leaf_count=329 24 24 34 20 23 85 25 106 20
internal_value=-0.00166667 -0.00244745 0.00200483 -0.0025 0.0173404 -0.00445534 -0.00272727 -0.00420635 -0.005
internal_weight=690 666 207 160 47 459 110 126 349
internal_count=690 666 207 160 47 459 110 126 349
is_linear=0
shrinkage=0.05


Tree=8
num_leaves=7
num_cat=0
split_feature=2 2 1 24 17 5
split_gain=4.9866 1.55695 3.60231 0.781277 4.73872 0.0277778
threshold=312.50000000000006 285.00000000000006 307.50000000000006 60.000000000000007 3.5000000000000004 15.805658498769075
decision_type=2 2 2 2 2 2
left_child=1 3 -3 -1 -5 -4
right_child=-2 2 5 4 -6 -7
leaf_value=-1.4710510782226551 1.1609857547558591 1.2380270112923997 0 -0.49526991682984378 1.2037435534710568 0
leaf_weight=459 24 21 25 116 25 20
leaf_count=459 24 21 25 116 25 20
internal_value=-0.00239131 -0.0031982 0.00409091 -0.004 -0.000744682 -0.00388889
internal_weight=690 666 66 600 141 45
internal_count=690 666 66 600 141 45
is_linear=0
shrinkage=0.05


Tree=9
num_leaves=10
num_cat=0
split_feature=2 2 4 9 3 24 4 4 1
split_gain=4.79483 1.72244 3.52961 0.69057 0.271434 0.172807 0.772727 0.168254 4.44089e-16
threshold=312.50000000000006 242.50000000000003 265.52083333333337 16.500000000000004 258.75000000000006 60.000000000000007 221.14583333333337 271.77083333333337 257.50000000000006
decision_type=2 2 2 2 2 2 2 2 2
left_child=1 5 4 -4 -3 8 -7 -5 -1
right_child=-2 2 3 7 -6 6 -8 -9 -10
leaf_value=-5.1474985243115219 1.1029364670180655 1.0779813389260722 0.82545659609208855 -0.33076808765948984 1.1335563734133189 -1.9800720130236329 1.0955059167053889 0 -1.5849985243115214
leaf_weight=329 24 20 34 20 27 85 25 106 20
leaf_count=329 24 20 34 20 27 85 25 106 20
internal_value=-0.00195652 -0.00274775 0.00103865 -0.0025 0.0130851 -0.00445534 -0.00272727 -0.00420635 -0.005
internal_weight=690 666 207 160 47 459 110 126 349
internal_count=690 666 207 160 47 459 110 126 349
is_linear=0
shrinkage=0.05


Tree=10
num_leaves=6
num_cat=0
split_feature=2 2 4 24 17
split_gain=4.9866 1.55695 3.81818 0.781277 4.73872
threshold=312.50000000000006 285.00000000000006 304.89583333333337 60.000000000000007 3.5000000000000004
decision_type=2 2 2 2 2
left_child=1 3 -3 -1 -5
right_child=-2 2 -4 4 -6
leaf_value=-1.1401235980959457 1.0477896436671614 1.1234232390425409 0 -0.47050642098835171 1.0868785571268376
leaf_weight=459 24 24 42 116 25
leaf_count=459 24 24 42 116 25
internal_value=-0.00239131 -0.0031982 0.00409091 -0.004 -0.000744682
internal_weight=690 666 66 600 141
internal_count=690 666 66 600 141
is_linear=0
shrinkage=0.05


Tree=11
num_leaves=10
num_cat=0
split_feature=2 2 4 10 3 24 4 4 1
split_gain=4.79483 1.72244 3.52961 0.69057 0.271434 0.172807 0.772727 0.168254 4.44089e-16
threshold=312.50000000000006 242.50000000000003 265.52083333333337 74.050000000000026 258.75000000000006 60.000000000000007 221.14583333333337 271.77083333333337 257.50000000000006
decision_type=2 2 2 2 2 2 2 2 2
left_child=1 5 4 7 -3 8 -7 -4 -1
right_child=-2 2 3 -5 -6 6 -8 -9 -10
leaf_value=-4.833117418191148 0.9954001614838035 0.96973834412342619 -0.26854118628860751 0.72801260433535764 1.0225346268863091 -1.8575430913230351 0.98638669301377613 0 -1.4487424181911479
leaf_weight=329 24 20 20 34 27 85 25 106 20
leaf_count=329 24 20 20 34 27 85 25 106 20
internal_value=-0.00195652 -0.00274775 0.00103865 -0.0025 0.0130851 -0.00445534 -0.00272727 -0.00420635 -0.005
internal_weight=690 666 207 160 47 459 110 126 349
internal_count=690 666 207 160 47 459 110 126 349
is_linear=0
shrinkage=0.05


Tree=12
num_leaves=7
num_cat=0
split_feature=2 2 1 24 17 9
split_gain=4.9866 1.55695 3.60231 0.781277 4.73872 0.0277778
threshold=312.50000000000006 285.00000000000006 307.50000000000006 60.000000000000007 3.5000000000000004 20.000000000000004
decision_type=2 2 2 2 2 2
left_child=1 3 -3 -1 -5 -4
right_child=-2 2 5 4 -6 -7
leaf_value=-0.84146154728159106 0.94563015340961276 1.0421164944152537 0 -0.44698109993893526 0.98140789792618088 0
leaf_weight=459 24 21 20 116 25 25
leaf_count=459 24 21 20 116 25 25
internal_value=-0.00239131 -0.0031982 0.00409091 -0.004 -0.000744682 -0.00388889
internal_weight=690 666 66 600 141 45
internal_count=690 666 66 600 141 45
is_linear=0
shrinkage=0.05


Tree=13
num_leaves=10
num_cat=0
split_feature=9 1 24 5 9 1 24 9 1
split_gain=3.12242 4.2 4.31912 3.0557 1.53891 1.33333 0.493359 1.31803 4.44089e-16
threshold=15.700000000000001 212.50000000000003 60.000000000000007 15.012072436561853 24.800000000000004 212.50000000000003 60.000000000000007 17.550000000000004 307.50000000000006
decision_type=2 2 2 2 2 2 2 2 2
left_child=1 -1 3 -3 6 -6 8 -8 -2
right_child=4 2 -4 -5 5 -7 7 -9 -10
leaf_value=-2.7801082193619284 -0.79938846991751122 -0.44560637464971831 1.0475148463363688 0.89834864573913087 -3.3985686420122754 0.89834864573913087 0.88799696346677592 -0.42463204494198981 0
leaf_weight=60 345 32 22 26 20 30 33 70 52
leaf_count=60 345 32 22 26 20 30 33 70 52
internal_value=-0.00166667 0.005 0.0125 0.00534483 -0.00336364 0.005 -0.0042 -0.00111651 -0.005
internal_weight=690 140 80 58 550 50 500 103 397
internal_count=690 140 80 58 550 50 500 103 397
is_linear=0
shrinkage=0.05


Tree=14
num_leaves=6
num_cat=0
split_feature=2 24 17 2 4
split_gain=5.05136 1.50818 8.24753 0.235838 0.533333
threshold=312.50000000000006 60.000000000000007 3.5000000000000004 285.00000000000006 305.52083333333337
decision_type=2 2 2 2 2
left_child=1 3 -3 -1 -5
right_child=-2 2 -4 4 -6
leaf_value=-0.75941904642163538 0.85343121345217421 -0.40340044269489117 0.94963034535279311 0.027187198969244333 0
leaf_weight=459 24 116 31 20 40
leaf_count=459 24 116 31 20 40
internal_value=-0.00253623 -0.00334835 0.00112245 -0.00461464 -0.00166667
internal_weight=690 666 147 519 60
internal_count=690 666 147 519 60
is_linear=0
shrinkage=0.05


Tree=15
num_leaves=9
num_cat=0
split_feature=2 2 3 9 2 4 4 4
split_gain=4.85834 1.43284 2.71075 1.189 0.78585 0.266667 0.155618 1.03992
threshold=312.50000000000006 242.50000000000003 260.41666666666669 16.500000000000004 285.00000000000006 271.14583333333337 221.14583333333337 225.52083333333337
decision_type=2 2 2 2 2 2 2 2
left_child=1 6 -3 4 -4 -5 -1 -8
right_child=-2 2 3 5 -6 -7 7 -9
leaf_value=-3.2084044638825233 0.81075965277956641 0.79515914485647121 -0.22668645320376912 0.0023959499560423092 0.89026861487544362 0 0.79611559802579857 -0.72144809410055477
leaf_weight=340 24 23 25 27 24 108 20 99
leaf_count=340 24 23 25 27 24 108 20 99
internal_value=-0.00210145 -0.0028979 0.000555554 -0.00146739 0.00520408 -0.00388889 -0.00445534 -0.00289916
internal_weight=690 666 207 184 49 135 459 119
internal_count=690 666 207 184 49 135 459 119
is_linear=0
shrinkage=0.05


Tree=16
num_leaves=7
num_cat=0
split_feature=2 24 17 22 9 3
split_gain=4.9866 2.43536 7.29703 0.528736 0.117293 8.88178e-16
threshold=312.50000000000006 60.000000000000007 3.5000000000000004 0.34523809523809529 24.800000000000004 316.66666666666669
decision_type=2 2 2 2 2 2
left_child=1 4 3 -3 5 -1
right_child=-2 2 -4 -5 -6 -7
leaf_value=-0.45128976023332046 0.77022167014058884 0.1358976212521128 0.86381459369751301 -0.38323042056014744 -0.27824317337126969 0
leaf_weight=461 24 24 31 92 32 26
leaf_count=461 24 24 31 92 32 26
internal_value=-0.00239131 -0.0031982 0.00248299 -0.00327586 -0.00480732 -0.005
internal_weight=690 666 147 116 519 487
internal_count=690 666 147 116 519 487
is_linear=0
shrinkage=0.05


Tree=17
num_leaves=7
num_cat=0
split_feature=2 24 17 22 2 24
split_gain=4.92226 2.30833 7.29703 0.528736 0.235838 0.460606
threshold=312.50000000000006 60.000000000000007 3.5000000000000004 0.34523809523809529 285.00000000000006 36.000000000000007
decision_type=2 2 2 2 2 2
left_child=1 4 3 -3 -1 -6
right_child=-2 2 -4 -5 5 -7
leaf_value=-0.66281120138386318 0.73171058663355959 0.12910274018950646 0.8206238640126382 -0.36406889953213978 0 0.022564488011664708
leaf_weight=459 24 24 31 92 38 22
leaf_count=459 24 24 31 92 38 22
internal_value=-0.00224638 -0.00304805 0.00248299 -0.00327586 -0.00461464 -0.00166667
internal_weight=690 666 147 116 519 60
internal_count=690 666 147 116 519 60
is_linear=0
shrinkage=0.05


Tree=18
num_leaves=10
num_cat=0
split_feature=2 24 2 9 2 4 2 24 1
split_gain=4.73174 1.94766 3.42971 3.92174 0.395557 1.31843 0.16 0.460606 4.44089e-16
threshold=312.50000000000006 60.000000000000007 212.50000000000003 17.550000000000004 242.50000000000003 261.14583333333337 285.00000000000006 36.000000000000007 257.50000000000006
decision_type=2 2 2 2 2 2 2 2 2
left_child=1 4 -3 -4 8 -6 -7 -8 -1
right_child=-2 2 3 -5 5 6 7 -9 -10
leaf_value=-4.2553228228255708 0.69512505730188257 -1.5537450522560534 0.77859606978640772 -0.16443257888779761 0.01724169094977571 -0.18956600515654715 0 0.021436263611082043 -1.1645143913146683
leaf_weight=329 24 75 38 34 20 90 38 22 20
leaf_count=329 24 75 38 34 20 90 38 22 20
internal_value=-0.0018116 -0.0025976 0.00248299 0.0102778 -0.00403661 -0.00205882 -0.00366667 -0.00166667 -0.005
internal_weight=690 666 147 72 519 170 150 60 349
internal_count=690 666 147 72 519 170 150 60 349
is_linear=0
shrinkage=0.05


Tree=19
num_leaves=10
num_cat=0
split_feature=2 24 2 9 2 3 2 24 1
split_gain=4.73174 1.94766 3.42971 3.92174 0.395557 1.31843 0.16 0.460606 4.44089e-16
threshold=312.50000000000006 60.000000000000007 212.50000000000003 17.550000000000004 242.50000000000003 261.66666666666669 285.00000000000006 36.000000000000007 257.50000000000006
decision_type=2 2 2 2 2 2 2 2 2
left_child=1 4 -3 -4 8 -6 -7 -8 -1
right_child=-2 2 3 -5 5 6 7 -9 -10
leaf_value=-4.0425566816842915 0.66036880443678858 -1.4760577996432518 0.73966626629708621 -0.15621094994340845 0.016379606402286292 -0.18008770489871895 0 0.020364450430528792 -1.1062886717489335
leaf_weight=329 24 75 38 34 20 90 38 22 20
leaf_count=329 24 75 38 34 20 90 38 22 20
internal_value=-0.0018116 -0.0025976 0.00248299 0.0102778 -0.00403661 -0.00205882 -0.00366667 -0.00166667 -0.005
internal_weight=690 666 147 72 519 170 150 60 349
internal_count=690 666 147 72 519 170 150 60 349
is_linear=0
shrinkage=0.05


Tree=20
num_leaves=10
num_cat=0
split_feature=2 24 17 2 3 6 2 24 1
split_gain=4.73174 1.94766 7.29703 0.395557 1.31843 0.306513 0.16 0.460606 4.44089e-16
threshold=312.50000000000006 60.000000000000007 3.5000000000000004 242.50000000000003 261.66666666666669 1.7500000000000002 285.00000000000006 36.000000000000007 257.50000000000006
decision_type=2 2 2 2 2 2 2 2 2
left_child=1 3 5 8 -5 -3 -6 -8 -1
right_child=-2 2 -4 4 6 -7 7 -9 -10
leaf_value=-3.8404288476000774 0.62735036421494783 -0.32983327811397489 0.70367955400782956 0.01556062608217291 -0.17108331965378343 -0.0090794314803538615 0 0.01934622790900278 -1.0509742381614871
leaf_weight=329 24 80 31 20 90 36 38 22 20
leaf_count=329 24 80 31 20 90 36 38 22 20
internal_value=-0.0018116 -0.0025976 0.00248299 -0.00403661 -0.00205882 -0.00327586 -0.00366667 -0.00166667 -0.005
internal_weight=690 666 147 519 170 116 150 60 349
internal_count=690 666 147 519 170 116 150 60 349
is_linear=0
shrinkage=0.05


Tree=21
num_leaves=10
num_cat=0
split_feature=2 24 17 22 2 3 2 24 1
split_gain=4.73174 1.94766 7.29703 0.528736 0.395557 1.31843 0.16 0.460606 4.44089e-16
threshold=312.50000000000006 60.000000000000007 3.5000000000000004 0.34523809523809529 242.50000000000003 261.66666666666669 285.00000000000006 36.000000000000007 257.50000000000006
decision_type=2 2 2 2 2 2 2 2 2
left_child=1 4 3 -3 8 -6 -7 -8 -1
right_child=-2 2 -4 -5 5 6 7 -9 -10
leaf_value=-3.6484074052200728 0.59598284600419904 0.047188457949872031 0.66849557630743928 -0.31334161420827517 0.01478259477806477 -0.16252915367109325 0 0.018378916513552213 -0.99842552625341341
leaf_weight=329 24 24 31 92 20 90 38 22 20
leaf_count=329 24 24 31 92 20 90 38 22 20
internal_value=-0.0018116 -0.0025976 0.00248299 -0.00327586 -0.00403661 -0.00205882 -0.00366667 -0.00166667 -0.005
internal_weight=690 666 147 116 519 170 150 60 349
internal_count=690 666 147 116 519 170 150 60 349
is_linear=0
shrinkage=0.05


Tree=22
num_leaves=11
num_cat=0
split_feature=22 2 24 2 4 2 24 24 4 5
split_gain=6.40906 8.91862 5.16813 5.10548 3.09878 1.14313 2.05628 0.17316 0.772727 4.44089e-16
threshold=0.34523809523809529 212.50000000000003 36.000000000000007 312.50000000000006 231.77083333333337 285.00000000000006 36.000000000000007 60.000000000000007 261.14583333333337 13.390389696789452
decision_type=2 2 2 2 2 2 2 2 2 2
left_child=1 -1 4 5 -3 7 -7 9 -9 -2
right_child=3 2 -4 -5 -6 6 -8 8 -10 -11
leaf_value=-1.3881226686528834 -5.679036466814992 -7.0595262200850017 0.52756602191906266 0.56618370370399018 0.15966514655183348 0 0.61694557014353757 -1.2803607495869784 0.53941941784641767 -2.6669646492667853
leaf_weight=60 25 21 37 24 20 38 28 85 25 327
leaf_count=60 25 21 37 24 20 38 28 85 25 327
internal_value=-0.000144929 0.00949275 0.020641 -0.00255435 0.00841463 -0.00357955 0.00257576 -0.00445888 -0.00272727 -0.005
internal_weight=690 138 78 552 41 528 66 462 110 352
internal_count=690 138 78 552 41 528 66 462 110 352
is_linear=0
shrinkage=0.05


Tree=23
num_leaves=10
num_cat=0
split_feature=2 22 2 24 7 24 17 22 9
split_gain=5.92517 7.42732 3.85315 3.22773 3.09878 1.56146 4.32099 2.8001 0.125
threshold=212.50000000000003 0.34523809523809529 312.50000000000006 36.000000000000007 0.85514409737424435 36.000000000000007 3.5000000000000004 0.60714285714285732 23.500000000000004
decision_type=2 2 2 2 2 2 2 2 2
left_child=-1 3 5 4 -2 -3 8 -8 -7
right_child=1 2 -4 -5 -6 6 7 -9 -10
leaf_value=-3.3128323322514825 0.15168188922424122 -0.021054463524200175 0.53787451851879098 0.50118772082310847 -6.7065504006086121 -0.32464550439018186 0.56090704598624463 0.50679657168277747 -0.32464550439018186
leaf_weight=309 20 126 24 37 21 72 29 28 24
leaf_count=309 20 126 24 37 21 72 29 28 24
internal_value=0.000144926 0.00431758 0.000775576 0.0180769 0.00841463 -0.000878137 0.00251634 0.0134211 -0.00395833
internal_weight=690 381 303 78 41 279 153 57 96
internal_count=690 381 303 78 41 279 153 57 96
is_linear=0
shrinkage=0.05


Tree=24
num_leaves=13
num_cat=0
split_feature=4 22 0 15 6 8 0 4 4 5 5 9
split_gain=7.58274 5.9081 3.33769 1.58267 1.23805 1.18265 0.856126 0.550155 3.03204 0.369398 0.161165 0.14215
threshold=221.14583333333337 0.34523809523809529 315.00000000000006 -1.0000000180025095e-35 1.7500000000000002 -0.51789367405032694 300.00000000000006 272.39583333333337 261.14583333333337 16.298630228010602 13.430915559023676 24.800000000000004
decision_type=2 2 2 2 2 2 2 2 2 2 2 2
left_child=11 3 4 -2 7 -5 9 8 -3 -6 -9 -1
right_child=1 2 -4 5 6 -7 -8 10 -10 -11 -12 -13
leaf_value=-2.9463578585059151 0.10822745941472363 -1.2001104368881217 0.51098079259285212 0.14409779476303017 0.50725163313242383 0.47612833478195288 0.56558661608748295 -0.072854853595412203 0.35414768741790525 -0.060909141815050916 -0.040801692566378757 -1.4866719518182323
leaf_weight=316 20 53 37 21 26 25 20 20 23 20 83 26
leaf_count=316 20 53 37 21 26 25 20 20 23 20 83 26
internal_value=0.000579709 0.00577586 0.00262411 0.0192424 0.000510203 0.0243478 0.00636364 -0.00164805 0.00157895 0.00260869 -0.00402913 -0.0047076
internal_weight=690 348 282 66 245 46 66 179 76 46 103 342
internal_count=690 348 282 66 245 46 66 179 76 46 103 342
is_linear=0
shrinkage=0.05


Tree=25
num_leaves=12
num_cat=0
split_feature=4 4 24 24 6 4 3 3 6 9 4
split_gain=3.99024 5.97162 4.45941 3.58256 2.92431 2.12143 0.583835 0.163743 0.246617 0.12516 0.124675
threshold=221.14583333333337 245.20833333333337 36.000000000000007 60.000000000000007 1.7500000000000002 231.77083333333337 310.41666666666669 215.41666666666671 1.7500000000000002 24.300000000000004 311.77083333333337
decision_type=2 2 2 2 2 2 2 2 2 2 2
left_child=7 2 5 6 -5 -2 9 -1 -9 -3 -8
right_child=1 3 -4 4 -6 -7 10 8 -10 -11 -12
leaf_value=-3.019679292957858 -3.3072176671341627 -0.047059731195193424 0.46094755090032324 0.43929145562964911 0.5729992616418137 0.1368929050248795 0.48297448966914119 -1.005757025682368 -0.17452982623244534 -0.017334759317388267 -0.02449631645343402
leaf_weight=266 22 147 29 37 24 20 20 41 35 27 22
leaf_count=266 22 147 29 37 24 20 20 41 35 27 22
internal_value=-0.000579711 0.00318965 0.0161268 -0.000126355 0.0105738 0.00571428 -0.00314815 -0.00441521 -0.00236842 -0.00442529 0.00214286
internal_weight=690 348 71 277 61 42 216 342 76 174 42
internal_count=690 348 71 277 61 42 216 342 76 174 42
is_linear=0
shrinkage=0.05


Tree=26
num_leaves=11
num_cat=0
split_feature=4 22 24 9 24 5 22 6 7 6
split_gain=3.27197 4.86947 3.20391 3.28762 1.91228 0.518082 0.175439 0.444444 0.156617 0.0294643
threshold=221.14583333333337 0.34523809523809529 60.000000000000007 16.500000000000004 36.000000000000007 16.417062086019914 0.47619047619047622 1.7500000000000002 0.82065054250373815 1.8500000000000003
decision_type=2 2 2 2 2 2 2 2 2 2
left_child=6 4 5 -4 -2 8 7 -1 -3 -10
right_child=1 2 3 -5 -6 -7 -8 -9 9 -11
leaf_value=-0.85477306103447581 0.13004825977363624 -0.014120169998647559 0.54434929855972236 -0.013471147290206801 0.43790017335530823 0.42571741998142559 -2.9594884780898387 0.1494357321521875 -0.058307637967025844 -0.13205213716541553
leaf_weight=48 37 39 24 37 29 22 270 24 132 28
leaf_count=48 37 39 24 37 29 22 270 24 132 28
internal_value=-0.00094203 0.00247126 -0.000390072 0.0097541 0.014697 -0.00319005 -0.00441521 -0.00222222 -0.00399498 -0.0046875
internal_weight=690 348 282 61 66 221 342 72 199 160
internal_count=690 348 282 61 66 221 342 72 199 160
is_linear=0
shrinkage=0.05


Tree=27
num_leaves=11
num_cat=0
split_feature=4 22 24 9 24 3 22 24 9 4
split_gain=3.27197 4.86947 3.20391 3.28762 1.91228 0.589896 0.175439 0.444444 0.125802 0.124675
threshold=221.14583333333337 0.34523809523809529 60.000000000000007 16.500000000000004 36.000000000000007 310.41666666666669 0.47619047619047622 60.000000000000007 24.300000000000004 311.77083333333337
decision_type=2 2 2 2 2 2 2 2 2 2
left_child=6 4 5 -4 -2 8 7 -1 -3 -7
right_child=1 2 3 -5 -6 9 -8 -9 -10 -11
leaf_value=-6.2853756049271885 0.12354584678495542 -0.041791362737083664 0.5171318336317362 -0.012797589925696599 0.41600516468754167 0.4419233075876996 -2.8115140541853467 0.14196394554457756 -0.014878264861783104 -0.022565492130829059
leaf_weight=48 37 152 24 37 29 20 270 24 27 22
leaf_count=48 37 152 24 37 29 20 270 24 27 22
internal_value=-0.00094203 0.00247126 -0.000390072 0.0097541 0.014697 -0.00319005 -0.00441521 -0.00222222 -0.00444134 0.00214286
internal_weight=690 348 282 61 66 221 342 72 179 42
internal_count=690 348 282 61 66 221 342 72 179 42
is_linear=0
shrinkage=0.05


Tree=28
num_leaves=9
num_cat=0
split_feature=2 2 2 1 24 9 24 9
split_gain=4.36198 2.51606 4.24694 3.16768 2.49884 3.22114 2.08066 0.114286
threshold=312.50000000000006 212.50000000000003 237.50000000000003 212.50000000000003 60.000000000000007 16.500000000000004 36.000000000000007 24.300000000000004
decision_type=2 2 2 2 2 2 2 2
left_child=1 -1 3 -3 7 -6 -5 -4
right_child=-2 2 4 6 5 -7 -8 -9
leaf_value=-2.5801452016962063 0.48189327598312559 -0.96476797943027837 -0.0214372175242886 0.11736855444570722 0.49095265818390504 -0.32702428046304138 0.38657927359569727 -0.015267336938691721
leaf_weight=309 24 24 180 35 22 35 31 30
leaf_count=309 24 24 180 35 22 35 31 30
internal_value=-0.00094203 -0.0016967 0.00116246 0.0105556 -0.00200375 0.0072807 0.0162121 -0.00452381
internal_weight=690 666 357 90 267 57 66 210
internal_count=690 666 357 90 267 57 66 210
is_linear=0
shrinkage=0.05


Tree=29
num_leaves=12
num_cat=0
split_feature=4 24 17 1 4 6 3 3 6 9 4
split_gain=2.74863 4.45977 11.3297 2.15162 2.63047 0.729167 0.588706 0.163743 0.246617 0.125676 0.124675
threshold=221.14583333333337 60.000000000000007 3.5000000000000004 252.50000000000003 231.14583333333337 1.6500000000000001 310.41666666666669 215.41666666666671 1.7500000000000002 24.300000000000004 311.77083333333337
decision_type=2 2 2 2 2 2 2 2 2 2 2
left_child=7 3 5 4 -2 -3 9 -1 -9 -5 -8
right_child=1 2 -4 6 -6 -7 10 8 -10 -11 -12
leaf_value=-2.4511379416113956 -0.00065056545131767516 -0.31067306643988957 0.51824387791232629 -0.038629933724016047 0.11150012672342201 0.37850712403688191 0.39573247840916037 -0.79082145853894592 -0.05142699273763407 -0.013370984771758894 -0.020365356648073887
leaf_weight=266 33 28 20 151 27 20 20 41 35 27 22
leaf_count=266 33 28 20 151 27 20 20 41 35 27 22
internal_value=-0.00123189 0.00189655 0.0133824 -0.000892858 0.0075 0.000208332 -0.00318182 -0.00441521 -0.00236842 -0.0044382 0.00214286
internal_weight=690 348 68 280 60 48 220 342 76 178 42
internal_count=690 348 68 280 60 48 220 342 76 178 42
is_linear=0
shrinkage=0.05


Tree=30
num_leaves=11
num_cat=0
split_feature=2 22 2 4 2 4 4 4 4 5
split_gain=4.51422 2.93484 3.76812 1.62907 0.703734 1.69697 0.653295 0.163279 0.973085 4.44089e-16
threshold=312.50000000000006 0.34523809523809529 212.50000000000003 233.02083333333337 285.00000000000006 304.89583333333337 226.77083333333337 261.14583333333337 267.39583333333337 16.564704453008783
decision_type=2 2 2 2 2 2 2 2 2 2
left_child=1 2 -1 6 7 -6 -4 9 -9 -3
right_child=-2 4 3 -5 5 -7 -8 8 -10 -11
leaf_value=-0.56756844809460183 0.45881688001637433 -2.0379049453733189 0.34478836175984301 0.10592512038725205 0.40044314363450434 -0.019347088815669624 0.00066070794453017008 0.33575635094408224 -0.019550947284075235 -1.7616041443884285
leaf_weight=60 24 321 37 21 24 42 20 21 94 26
leaf_count=60 24 321 37 21 24 42 20 21 94 26
internal_value=-0.00130435 -0.00207207 0.00442029 0.0116667 -0.00376894 0.0010606 0.0072807 -0.00445888 -0.00282609 -0.005
internal_weight=690 666 138 78 528 66 57 462 115 347
internal_count=690 666 138 78 528 66 57 462 115 347
is_linear=0
shrinkage=0.05


Tree=31
num_leaves=11
num_cat=0
split_feature=2 22 4 24 24 17 10 4 10 0
split_gain=4.45301 2.48981 3.7726 2.50529 1.21452 4.35382 0.156958 0.153488 0.13834 4.44089e-16
threshold=312.50000000000006 0.34523809523809529 233.02083333333337 60.000000000000007 60.000000000000007 3.5000000000000004 40.850000000000009 226.77083333333337 45.95000000000001 315.00000000000006
decision_type=2 2 2 2 2 2 2 2 2 2
left_child=1 2 3 7 6 8 -3 -1 -6 -8
right_child=-2 4 -4 -5 5 -7 9 -9 -10 -11
leaf_value=-0.63389211601254059 0.4358760360155543 -0.96650126001530445 0.10062886436788859 0.33272432462023693 -0.29416186575369069 0.40553466150514378 -0.13892243030952067 0.0006276725473042255 -0.29416186575369069 -0.018379734374886426
leaf_weight=66 24 24 21 31 22 24 367 20 70 21
leaf_count=66 24 24 21 31 22 24 367 20 70 21
internal_value=-0.00115942 -0.00192192 0.00405797 0.000555554 -0.00348485 0.00103448 -0.00475728 -0.00383721 -0.00391304 -0.005
internal_weight=690 666 138 117 528 116 412 86 92 388
internal_count=690 666 138 117 528 116 412 86 92 388
is_linear=0
shrinkage=0.05


Tree=32
num_leaves=12
num_cat=0
split_feature=2 22 17 24 7 6 16 7 2 4 9
split_gain=4.33184 2.7999 3.16556 3.16413 1.92 0.5 0.390805 0.333333 0.235014 0.503704 0.029273
threshold=312.50000000000006 0.47619047619047622 3.5000000000000004 36.000000000000007 0.49690002677035122 1.7500000000000002 1.0000000180025095e-35 0.96245486997788221 292.50000000000006 307.39583333333337 15.200000000000001
decision_type=2 2 2 2 2 2 2 2 2 2 2
left_child=1 2 5 4 -4 -1 -5 -7 10 -10 -3
right_child=-2 8 3 6 -6 7 -8 -9 9 -11 -12
leaf_value=-0.7395381794382786 0.41408223421477719 -1.2062858989451315 0.095597421149494724 0.026620843565373087 -7.2790565795981141 0.098998385725093743 0.40070208780461436 -0.88431739469185688 0.34985828893806803 -0.017460747656141962 -2.1677349830918833
leaf_weight=96 24 31 27 24 48 24 34 24 20 34 304
leaf_count=96 24 31 27 24 48 24 34 24 20 34 304
internal_value=-0.000869566 -0.00162162 0.00222022 0.00778195 0.000999999 -0.00291667 0.0165517 0.00125 -0.00435733 -0.0012963 -0.00485075
internal_weight=690 666 277 133 75 144 58 48 389 54 335
internal_count=690 666 277 133 75 144 58 48 389 54 335
is_linear=0
shrinkage=0.05


Tree=33
num_leaves=12
num_cat=0
split_feature=2 2 24 17 2 7 6 14 3 9 5
split_gain=4.42256 2.29253 4.75341 10.0618 1.2499 2.69961 1.10769 0.224537 0.466667 0.113043 0.0417367
threshold=312.50000000000006 212.50000000000003 60.000000000000007 3.5000000000000004 232.50000000000003 0.83243768142029106 1.7500000000000002 987.82430000000011 289.16666666666669 21.300000000000001 16.417062086019914
decision_type=2 2 2 2 2 2 2 2 2 2 2
left_child=1 -1 4 6 5 -3 -4 8 -6 -7 -9
right_child=-2 2 3 -5 7 9 -8 10 -10 -11 -12
leaf_value=-2.1113529265920876 0.39337812250403775 0.090817550092020846 -0.17106702331141435 0.39161648667821081 0.00055950857361608541 -0.082076138462664983 0.10570188856039238 -0.11864813833220951 -0.016587710273336144 -0.00073475325832825797 -0.042688854787147096
leaf_weight=309 24 21 32 20 20 26 20 149 28 20 21
leaf_count=309 24 21 32 20 20 26 20 149 28 20 21
internal_value=-0.00108696 -0.00184685 0.000882352 0.0123611 -0.00201755 0.00395522 0.00076923 -0.00385321 -0.000833335 -0.00282609 -0.00470588
internal_weight=690 666 357 72 285 67 52 218 48 46 170
internal_count=690 666 357 72 285 67 52 218 48 46 170
is_linear=0
shrinkage=0.05


Tree=34
num_leaves=13
num_cat=0
split_feature=2 22 7 2 1 2 14 15 2 9 12 9
split_gain=4.39222 2.50099 1.49556 0.938889 0.868247 1.10442 0.7895 0.354579 0.235014 0.503704 0.0355072 0.029273
threshold=312.50000000000006 0.47619047619047622 0.82065054250373815 212.50000000000003 235.00000000000003 252.50000000000003 988.40805000000012 -1.0000000180025095e-35 292.50000000000006 17.550000000000004 754.16248500000017 15.200000000000001
decision_type=2 2 2 2 2 2 2 2 2 2 2 2
left_child=1 2 -1 -4 6 10 -5 -7 11 -10 -6 -3
right_child=-2 8 3 4 5 7 -8 -9 9 -11 -12 -13
leaf_value=0.086276672587419515 0.37370921637883614 -1.040403957668272 -0.41328168661936504 -0.00157005563503516 -0.96673758292542122 -0.0038718192625557001 0.27647217966508159 0.27136911051056994 0.31278455015725176 -0.015758324759670473 -0.96673758292542122 -2.0057852802624838
leaf_weight=37 24 31 60 20 49 21 31 39 20 34 20 304
leaf_count=37 24 31 60 20 49 21 31 39 20 34 20 304
internal_value=-0.00101449 -0.00177177 0.0018592 0.000416665 0.00222222 3.87585e-05 0.0077451 0.005 -0.00435733 -0.0012963 -0.00427536 -0.00485075
internal_weight=690 666 277 240 180 129 51 60 389 54 69 335
internal_count=690 666 277 240 180 129 51 60 389 54 69 335
is_linear=0
shrinkage=0.05


Tree=35
num_leaves=10
num_cat=0
split_feature=2 24 17 22 7 6 9 14 1
split_gain=4.51422 2.34557 7.70381 0.977854 3.46262 0.689655 0.156958 0.153488 4.44089e-16
threshold=312.50000000000006 60.000000000000007 3.5000000000000004 0.34523809523809529 0.82655166563209337 1.7500000000000002 24.800000000000004 988.29925000000014 315.00000000000006
decision_type=2 2 2 2 2 2 2 2 2
left_child=1 3 5 4 -1 -3 8 -6 -5
right_child=-2 2 -4 6 7 -7 -8 -9 -10
leaf_value=0.081962838958048678 0.35502375555989546 -0.062224408132718172 0.35405710871906609 -0.16771298901700793 -0.0014915528532823284 0.082426308171124438 -0.71266777429097306 -0.5906057190111299 -0.014970408521688228
leaf_weight=21 24 80 31 361 20 36 24 66 27
leaf_count=21 24 80 31 361 20 36 24 66 27
internal_value=-0.00130435 -0.00207207 0.0035034 -0.00365125 0.000607475 -0.00241379 -0.00475728 -0.00383721 -0.005
internal_weight=690 666 147 519 107 116 412 86 388
internal_count=690 666 147 519 107 116 412 86 388
is_linear=0
shrinkage=0.05


Tree=36
num_leaves=13
num_cat=0
split_feature=2 22 17 1 7 6 6 6 7 2 9 9
split_gain=4.45301 2.21894 2.33822 1.72312 1.13739 1.13698 0.5 0.344309 0.333333 0.235014 0.503704 0.029273
threshold=312.50000000000006 0.47619047619047622 3.5000000000000004 257.50000000000006 0.83768681885862362 1.5500000000000003 1.7500000000000002 1.5500000000000003 0.96245486997788221 292.50000000000006 17.550000000000004 15.200000000000001
decision_type=2 2 2 2 2 2 2 2 2 2 2 2
left_child=1 2 6 4 -4 -5 -1 -6 -8 11 -11 -3
right_child=-2 9 3 5 7 -7 8 -9 -10 10 -12 -13
leaf_value=-0.57321831939915746 0.33727256778190057 -1.0060866152208121 0.077864697010147671 -0.0026220967457078362 0.021138866928018363 0.28927096820044151 0.079971743156381475 0.24494571730238573 -0.71799110970524971 0.27944246721343635 -0.014221888095605095 -1.8971103667985092
leaf_weight=96 24 31 23 38 20 31 24 21 24 20 34 304
leaf_count=96 24 31 23 38 20 31 24 21 24 20 34 304
internal_value=-0.00115942 -0.00192192 0.00149819 0.00627819 0.0121875 0.0007971 -0.00291667 0.00719512 0.00125 -0.00435733 -0.0012963 -0.00485075
internal_weight=690 666 277 133 64 69 144 41 48 389 54 335
internal_count=690 666 277 133 64 69 144 41 48 389 54 335
is_linear=0
shrinkage=0.05


Tree=37
num_leaves=12
num_cat=0
split_feature=24 2 2 7 4 1 4 3 12 9 12
split_gain=7.35164 13.772 2.35714 1.26352 1.50645 1.86137 0.515723 0.262894 0.130204 0.138214 0.214286
threshold=60.000000000000007 242.50000000000003 212.50000000000003 0.82065054250373815 236.14583333333337 282.50000000000006 290.52083333333337 310.41666666666669 1609.3064500000003 24.300000000000004 57.866991000000006
decision_type=2 2 2 2 2 2 2 2 2 2 2
left_child=3 2 -2 4 -1 -6 -3 8 9 -5 -11
right_child=1 6 -4 7 5 -7 -8 -9 -10 10 -12
leaf_value=-1.9308533667820145 -0.40527402270987506 0.32806580203962948 0.22924817541516518 -0.5480347006313151 0.073971462159639151 0.049667594406732768 0.2957203262168332 0.11289178968932574 -0.018113268630616099 -5.6460864799517978 0.00010001066052551175
leaf_weight=38 75 20 35 344 20 29 23 26 24 32 24
leaf_count=38 75 20 35 344 20 29 23 26 24 32 24
internal_value=-0.000289856 0.00937908 -1.19209e-09 -0.00304469 0.00247126 0.0082653 0.0333721 -0.00411111 -0.00441038 -0.004625 -0.00232143
internal_weight=690 153 110 537 87 49 43 450 424 400 56
internal_count=690 153 110 537 87 49 43 450 424 400 56
is_linear=0
shrinkage=0.05


Tree=38
num_leaves=13
num_cat=0
split_feature=2 22 2 14 2 4 4 4 7 15 3 4
split_gain=6.61161 3.45785 3.22006 1.20664 1.12256 1.38496 0.634057 1.60362 0.385965 0.290347 0.24662 0.153488
threshold=212.50000000000003 0.34523809523809529 312.50000000000006 988.23222500000008 252.50000000000003 304.89583333333337 272.39583333333337 290.52083333333337 0.96245486997788221 0.60355339059327384 240.41666666666669 209.89583333333337
decision_type=2 2 2 2 2 2 2 2 2 2 2 2
left_child=-1 3 4 -2 11 6 9 -8 -9 -6 -5 -3
right_child=1 2 -4 10 5 -7 7 8 -10 -11 -12 -13
leaf_value=-1.7748531134270167 0.070272889051656767 -0.39222144832223887 0.31792555967246872 0.22553753512001462 0.15152862253497182 -0.015994173411161227 -0.0049743716287594004 0.020956314303001024 0.020956314303001024 0.23750745646285237 0.059071309666109864 -0.89809097617331879
leaf_weight=309 27 20 24 28 31 42 39 33 24 24 23 66
leaf_count=309 27 20 24 28 31 42 39 33 24 24 23 66
internal_value=0.000434781 0.00484252 0.00242574 0.0142308 0.000913977 0.00303109 0.0052649 0.0028125 0.00815789 0.00954545 0.00970588 -0.00383721
internal_weight=690 381 303 78 279 193 151 96 57 55 51 86
internal_count=690 381 303 78 279 193 151 96 57 55 51 86
is_linear=0
shrinkage=0.05


Tree=39
num_leaves=10
num_cat=0
split_feature=24 2 2 4 2 2 7 16 24
split_gain=6.23913 12.829 2.35714 1.54387 4.95147 0.711534 0.642756 0.389254 0.61553
threshold=60.000000000000007 242.50000000000003 212.50000000000003 225.52083333333337 237.50000000000003 300.00000000000006 0.93311062582887294 -0.70710678118654757 36.000000000000007
decision_type=2 2 2 2 2 2 2 2 2
left_child=3 2 -2 -1 -5 7 -3 8 -6
right_child=1 6 -4 4 5 -7 -8 -9 -10
leaf_value=-1.8830706047948624 -0.29626766590303066 0.28400393724367906 0.20983822114455181 0.066759244599074924 -0.0069273281541921113 0.23425139799695086 0.32796273111726904 -0.046371823222671082 0.015305135812360504
leaf_weight=276 75 22 35 39 26 32 21 142 22
leaf_count=276 75 22 35 39 26 32 21 142 22
internal_value=0.000144926 0.00905229 -1.19209e-09 -0.00239292 0.000363983 -0.00252252 0.0322093 -0.00368421 0.000208332
internal_weight=690 153 110 537 261 222 43 190 48
internal_count=690 153 110 537 261 222 43 190 48
is_linear=0
shrinkage=0.05


Tree=40
num_leaves=13
num_cat=0
split_feature=2 24 17 1 2 4 24 2 16 24 15 0
split_gain=6.43647 12.504 6.16987 3.86786 2.82661 1.76515 1.51779 0.691301 0.310878 0.560897 0.0304581 2.22045e-16
threshold=212.50000000000003 60.000000000000007 3.5000000000000004 292.50000000000006 232.50000000000003 232.39583333333337 36.000000000000007 300.00000000000006 -0.70710678118654757 36.000000000000007 0.91597561503675362 307.50000000000006
decision_type=2 2 2 2 2 2 2 2 2 2 2 2
left_child=-1 4 3 -3 5 6 -2 8 9 -6 11 -10
right_child=1 2 -4 -5 7 -7 -8 -9 10 -11 -12 -13
leaf_value=-1.5919569275159233 -5.8050610879645435 0.039929090609891915 0.31143033343388227 0.16850815450538464 -0.0074616309493599131 0.063421282369120036 0.042196512045969879 0.22253882809710301 -0.030936690748159242 0.014539879021742764 -0.092754303712026032 -0.035678903133190019
leaf_weight=309 24 35 22 21 28 21 22 32 101 24 27 24
leaf_count=309 24 35 22 21 28 21 22 32 101 24 27 24
internal_value=0.000362318 0.00471128 0.0225641 0.01375 0.00011551 0.0091791 0.00369565 -0.00245763 -0.00352941 -0.000192309 -0.00467105 -0.005
internal_weight=690 381 78 56 303 67 46 236 204 52 152 125
internal_count=690 381 78 56 303 67 46 236 204 52 152 125
is_linear=0
shrinkage=0.05


Tree=41
num_leaves=12
num_cat=0
split_feature=2 24 17 6 2 7 2 24 17 4 4
split_gain=4.66515 5.8825 10.6575 2.38095 2.38031 1.39751 0.649094 0.292413 0.581028 1.0168 0.1
threshold=212.50000000000003 60.000000000000007 3.5000000000000004 1.7500000000000002 232.50000000000003 0.85514409737424435 300.00000000000006 36.000000000000007 3.5000000000000004 273.02083333333337 226.77083333333337
decision_type=2 2 2 2 2 2 2 2 2 2 2
left_child=-1 4 3 -3 5 -2 7 -6 -9 -10 -7
right_child=1 2 -4 -5 6 10 -8 8 9 -11 -12
leaf_value=-1.5123590811401273 0.060250218250664039 -0.0027171059996021541 0.29585881676218917 0.15936742730955822 -0.1254039423347825 -0.29124455662612286 0.21141188669224659 -5.1364282077492538 0.013812885070655057 -0.0026512448450203385 0.015559679106053182
leaf_weight=309 27 32 22 24 112 20 32 48 23 21 20
leaf_count=309 27 32 22 24 112 20 32 48 23 21 20
internal_value=-0.000434784 0.00326772 0.0155128 0.00392857 0.00011551 0.00843283 -0.00224576 -0.00328431 -0.00119565 0.00295454 0.0025
internal_weight=690 381 78 56 303 67 236 204 92 44 40
internal_count=690 381 78 56 303 67 236 204 92 44 40
is_linear=0
shrinkage=0.05


Tree=42
num_leaves=15
num_cat=0
split_feature=2 2 2 15 15 14 6 15 4 4 14 7 5 4
split_gain=5.08394 2.69124 2.96806 2.346 2.64113 1.03944 0.827807 0.619768 0.626484 0.233771 0.121946 0.0548731 0.0237908 0.000757576
threshold=212.50000000000003 312.50000000000006 237.50000000000003 -1.0000000180025095e-35 0.60355339059327384 987.09445000000017 1.6500000000000001 -0.70710678118654735 254.89583333333337 270.52083333333337 989.32358000000011 0.93311062582887294 13.425856516006947 274.89583333333337
decision_type=2 2 2 2 2 2 2 2 2 2 2 2 2 2
left_child=12 2 3 -2 -5 -4 10 -8 -9 -10 11 -7 -1 -13
right_child=1 -3 5 4 -6 6 7 8 9 -11 -12 13 -14 -15
leaf_value=-1.0593865117628529 -0.00081008991265221579 0.26861917604952906 0.0062673307103068513 0.1691027291500459 0.073847390875855262 -0.0025812506996231834 -0.038868009452990598 -0.011467431527407257 0.19097387364384316 0.20507185745478812 -0.014806903099395197 -0.86553893765239709 -1.4584306934263671 -0.0047791903933045894
leaf_weight=37 32 24 23 21 37 67 30 25 23 20 35 20 272 24
leaf_count=37 32 24 23 21 37 67 30 25 23 20 35 20 272 24
internal_value=-7.2465e-05 0.00379265 0.00270308 0.0105556 0.0165517 5.61786e-05 -0.000901641 0.00265306 0.00529412 0.00895349 -0.00328767 -0.0040991 -0.00483819 -0.00272727
internal_weight=690 381 357 90 58 267 244 98 68 43 146 111 309 44
internal_count=690 381 357 90 58 267 244 98 68 43 146 111 309 44
is_linear=0
shrinkage=0.05


Tree=43
num_leaves=12
num_cat=0
split_feature=2 24 17 14 6 17 24 7 6 16 1
split_gain=5.08394 5.38896 10.6575 3.7094 2.38095 1.14628 1.17284 0.910714 0.539119 0.018986 0.0253968
threshold=212.50000000000003 60.000000000000007 3.5000000000000004 987.09445000000017 1.7500000000000002 3.5000000000000004 36.000000000000007 0.49690002677035122 1.6500000000000001 0.91597561503675351 187.50000000000003
decision_type=2 2 2 2 2 2 2 2 2 2 2
left_child=9 3 4 -2 -3 -5 7 -7 -8 -1 -11
right_child=1 2 -4 5 -6 6 8 -9 -10 10 -12
leaf_value=-1.3955614140474422 0.048782570880629809 -0.0024521881646421663 0.28038908358803044 -4.8847255142823718 0.1379680971416031 0.050379421219048419 0.0062310866973948678 -6.5595267578546261 0.156727038689466 -3.0239393168769584 -0.094472225904680629
leaf_weight=264 32 32 22 112 24 28 29 68 34 24 21
leaf_count=264 32 32 22 112 24 28 29 68 34 24 21
internal_value=-7.2465e-05 0.00379265 0.0155128 0.000775576 0.00392857 -0.00112546 0.00160377 -0.001875 0.00690476 -0.00483819 -0.00388889
internal_weight=690 381 78 303 56 271 159 96 63 309 45
internal_count=690 381 78 303 56 271 159 96 63 309 45
is_linear=0
shrinkage=0.05


end of trees

feature_importances:
aqi_lag_24h=98
aqi_rolling_mean_24h=60
horizon_hours=57
temperature=27
day_of_week=21
aqi_lag_3h=20
road_density_500m=20
wind_speed=19
aqi_rolling_mean_6h=17
wind_direction_sin=15
aqi_rolling_std_24h=9
surface_pressure_hpa=7
hour_of_day_sin=7
aqi_lag_1h=4
hour_of_day_cos=4
humidity=3
boundary_layer_height=3
wind_direction_cos=1

parameters:
[boosting: gbdt]
[objective: quantile]
[metric: quantile]
[tree_learner: serial]
[device_type: cpu]
[data_sample_strategy: bagging]
[data: ]
[valid: ]
[num_iterations: 300]
[learning_rate: 0.05]
[num_leaves: 31]
[num_threads: 0]
[seed: 0]
[deterministic: 0]
[force_col_wise: 0]
[force_row_wise: 0]
[histogram_pool_size: -1]
[max_depth: -1]
[min_data_in_leaf: 20]
[min_sum_hessian_in_leaf: 0.001]
[bagging_fraction: 0.8]
[pos_bagging_fraction: 1]
[neg_bagging_fraction: 1]
[bagging_freq: 0]
[bagging_seed: 3]
[bagging_by_query: 0]
[feature_fraction: 0.8]
[feature_fraction_bynode: 1]
[feature_fraction_seed: 2]
[extra_trees: 0]
[extra_seed: 6]
[early_stopping_round: 0]
[early_stopping_min_delta: 0]
[first_metric_only: 0]
[max_delta_step: 0]
[lambda_l1: 0]
[lambda_l2: 0]
[linear_lambda: 0]
[min_gain_to_split: 0]
[drop_rate: 0.1]
[max_drop: 50]
[skip_drop: 0.5]
[xgboost_dart_mode: 0]
[uniform_drop: 0]
[drop_seed: 4]
[top_rate: 0.2]
[other_rate: 0.1]
[min_data_per_group: 100]
[max_cat_threshold: 32]
[cat_l2: 10]
[cat_smooth: 10]
[max_cat_to_onehot: 4]
[top_k: 20]
[monotone_constraints: ]
[monotone_constraints_method: basic]
[monotone_penalty: 0]
[feature_contri: ]
[forcedsplits_filename: ]
[refit_decay_rate: 0.9]
[cegb_tradeoff: 1]
[cegb_penalty_split: 0]
[cegb_penalty_feature_lazy: ]
[cegb_penalty_feature_coupled: ]
[path_smooth: 0]
[interaction_constraints: ]
[verbosity: -1]
[saved_feature_importance_type: 0]
[use_quantized_grad: 0]
[num_grad_quant_bins: 4]
[quant_train_renew_leaf: 0]
[stochastic_rounding: 1]
[linear_tree: 0]
[max_bin: 255]
[max_bin_by_feature: ]
[min_data_in_bin: 3]
[bin_construct_sample_cnt: 200000]
[data_random_seed: 1]
[is_enable_sparse: 1]
[enable_bundle: 1]
[use_missing: 1]
[zero_as_missing: 0]
[feature_pre_filter: 1]
[pre_partition: 0]
[two_round: 0]
[header: 0]
[label_column: ]
[weight_column: ]
[group_column: ]
[ignore_column: ]
[categorical_feature: ]
[forcedbins_filename: ]
[precise_float_parser: 0]
[parser_config_file: ]
[objective_seed: 5]
[num_class: 1]
[is_unbalance: 0]
[scale_pos_weight: 1]
[sigmoid: 1]
[boost_from_average: 1]
[reg_sqrt: 0]
[alpha: 0.9]
[fair_c: 1]
[poisson_max_delta_step: 0.7]
[tweedie_variance_power: 1.5]
[lambdarank_truncation_level: 30]
[lambdarank_norm: 1]
[label_gain: ]
[lambdarank_position_bias_regularization: 0]
[eval_at: ]
[multi_error_top_k: 1]
[auc_mu_weights: ]
[num_machines: 1]
[local_listen_port: 12400]
[time_out: 120]
[machine_list_filename: ]
[machines: ]
[gpu_platform_id: -1]
[gpu_device_id: -1]
[gpu_use_dp: 0]
[num_gpu: 1]

end of parameters

pandas_categorical:[]
